,0,1,2,3,4,5,6,7,8,9,10,11,12,13,14,15,16,17,18,19,20,21,22,23,24,25,26,27,28,29,30,31,32,33,34,35,36,37,38,39,40,41,42,43,44,45,46,47,48,49,50,51,52,53,54,55,56,57,58,59,60,61,62,63,64,65,66,67,68,69,70,71,72,73,74,75,76,77,78,79,80,81,82,83,84,85,86,87,88,89,90,91,92,93,94,95,96,97,98,99
island,-0.00059934787,0.0002904356,0.0051815994,0.0090578,-0.009332108,-0.0071915,0.006504066,0.008977354,-0.005030484,-0.003838893,0.0073514474,-0.001633212,-0.004539283,0.0065065627,-0.0048527443,-0.0018497601,0.0029243524,0.00096959743,-0.008309983,-0.009520915,0.0073631164,0.0051104613,0.006804464,0.0007368913,0.0063252924,-0.0033840148,-0.000998064,0.005697789,-0.007481276,-0.0038594066,-0.0074501303,-0.0008523589,0.009566739,-0.007271048,-0.0023176041,-0.0018954166,0.008084081,-0.005997413,1.2111788e-05,-0.0047904374,-0.009584155,0.004992704,-0.008803445,-0.0044410634,1.6015601e-05,-0.00033704122,-0.007666422,0.009604673,0.005007665,0.0092605455,-0.008152317,0.004468808,-0.004142782,0.00087367295,0.008406928,-0.004435189,0.004592256,-0.0068190577,-0.0035499092,0.009424527,-0.0015627395,0.00030532066,-0.004148557,-0.007739017,-0.0015832642,0.0024380388,-0.0008777583,0.0056013963,-0.0027940753,0.0022814616,0.0054050004,0.008341865,-0.0014336631,-0.009122897,0.00438279,0.00060859945,0.0073973564,-0.0008435014,-0.0026881294,-0.00878743,-0.00088850944,0.0027911193,0.0053796377,0.007155548,-0.0057847644,0.0019399571,0.006049708,-0.0048193685,-0.0030209445,0.006757018,0.0016347906,0.00016328701,0.0034133114,0.00025602817,0.009685416,0.0050786287,-0.008981839,-0.007158201,0.0009156122,0.0064409
saint,-0.008664539,0.0036944365,0.005204977,0.005769475,0.0074554607,-0.0062572295,0.0011410405,0.0060652513,-0.0028658467,-0.0062221847,-0.00041625448,-0.008419523,-0.0055948514,0.0071048513,0.0033628966,0.007276301,0.0068646367,0.007476396,-0.0037851676,-0.00061559066,0.0023709375,-0.0045239707,0.008407527,-0.009891473,0.006738593,0.0029497172,-0.004960853,0.0043633343,-0.0017661855,0.006764746,0.009982105,-0.004329078,-0.000591391,-0.005716251,0.0038546878,0.0028419942,0.0068867053,0.0060658553,0.009560862,0.009197182,0.007874677,-0.007013812,-0.009175493,-0.00040815043,-0.0030614226,0.007855161,0.0059119784,-0.0015282119,0.0015405423,0.001771301,0.007840519,-0.009567736,-0.00021836892,0.0035001542,-0.000902031,0.008426825,0.009004376,0.0065237894,-0.00077801023,0.007722031,-0.008533499,0.003189824,-0.00465706,-0.0051549864,0.0035326777,0.005373513,0.0077789566,-0.0057427324,0.007432953,0.0066891597,-0.003697236,-0.008786984,0.0054577505,0.0065327715,-0.0007964819,-0.006727361,-0.0071073445,-0.0025188795,0.0050701182,-0.0036564097,-0.009345352,0.003806785,0.0048687747,-0.006340174,0.0012235161,-0.002073543,-1.2854289e-05,-0.0098617785,0.0027401727,-0.004774657,0.0011524006,-0.0015710177,0.002170666,-0.0078497315,-0.0026609835,0.0027309433,0.005327569,-0.0024682414,-0.009522464,0.004498377
nan,9.456396e-05,0.0030773198,-0.006812645,-0.0013754654,0.007668581,0.0073464094,-0.0036732971,0.0026427018,-0.00831713,0.006205486,-0.0046373224,-0.0031641065,0.009311357,0.0008733857,0.007490703,-0.0060740625,0.005160507,0.009922823,-0.0084573915,-0.0051356913,-0.007064837,-0.0048626517,-0.0037785638,-0.008536199,0.007955606,-0.004843938,0.008423613,0.0052625705,-0.006550026,0.0039578713,0.0054701497,-0.007426536,-0.0074057197,-0.0024752307,-0.008625725,-0.0015815723,-0.00040343284,0.0032996845,0.0014418805,-0.00088142155,-0.005594058,0.0017303658,-0.0008973718,0.006793691,0.00397359,0.0045294715,0.0014343059,-0.0026998555,-0.0043668128,-0.0010320747,0.0014370275,-0.0026460087,-0.007073783,-0.007805307,-0.009121787,-0.0059351693,-0.0018474245,-0.0043238713,-0.0064606704,-0.0037173224,0.0042891586,-0.0037390434,0.008378175,0.0015339935,-0.0072423196,0.0094337985,0.0076312125,0.005493282,-0.0068488456,0.005822679,0.004009093,0.0051853694,0.0042559016,0.0019397545,-0.0031701624,0.008353845,0.00961218,0.003792603,-0.002836995,7.1275235e-06,0.0012188185,-0.008458325,-0.008223945,-0.00023101569,0.0012372875,-0.0057433806,-0.0047252737,-0.0073460746,0.008328616,0.00012129784,-0.0045093987,0.0057017053,0.009180015,-0.004099872,0.007964682,0.005375434,0.005879123,0.0005125904,0.008213084,-0.0070190406
port,-0.008282601,0.009320169,-0.00018232198,-0.0019577928,0.004595778,-0.004105886,0.002777914,0.0069146594,0.006031805,-0.0075291507,0.009389441,0.0046174196,0.003972639,-0.0062966296,0.00847857,-0.0022078573,0.008843505,-0.0054276185,-0.008139774,0.006804335,0.0017228023,-0.0022025811,0.009568103,0.009545052,-0.009821778,0.002511188,0.006149173,0.0038014867,0.0019852319,0.00039928028,0.0007141558,-0.003832675,-0.0071414467,-0.002110923,0.0039346996,0.008816113,0.0092301145,-0.0060100043,-0.009433984,0.00974119,0.0034194973,0.005194036,0.0062534437,-0.0028195297,0.007348457,0.00279818,0.0028207994,-0.0024080034,-0.0030838428,-0.0023630701,0.00427248,6.72704e-05,-0.009642421,-0.009656942,-0.00622044,-0.0001246149,0.0020254336,0.009421287,0.0055765025,-0.004285162,0.00028680384,0.0049558785,0.007693606,-0.0011559314,0.0042750123,-0.0058316896,-0.00084955,0.008087344,-0.0023633682,-0.009703994,0.0057762247,-0.003887756,-0.0011916279,0.010029569,-0.0022434914,-0.004687479,-0.005338953,0.006991085,-0.005719805,0.002104293,-0.0053024027,0.006100594,0.004351051,0.0026685183,-0.0015454695,-0.0027233055,0.008976975,0.0052689784,-0.002119977,-0.009493901,-0.007418469,-0.0010201989,-0.000795629,-0.0025805116,0.00972307,-0.0004399848,0.005849856,-0.0075158444,-0.002520823,-0.005555338
citi,-0.0072027566,0.001290519,-0.007153089,-0.002262754,0.0037116895,0.0058301524,0.0012380047,0.0020875225,-0.004104038,0.0072477357,-0.006292875,0.004632506,-0.008167725,0.0020482154,-0.0049679554,-0.00425218,-0.003111239,0.005693642,0.0058330214,-0.005018327,0.0007257256,-0.0085303355,0.0078025497,0.009256061,-0.0027395636,0.00081698055,0.00070615753,0.0054883882,-0.008608549,0.0005719015,0.006890167,0.0022797484,0.0011697864,-0.00935516,0.00849602,-0.0062082047,-0.0029836567,0.0035202585,-0.0008357188,0.0014230525,0.0017727569,-0.0068334346,-0.009708013,0.009033092,0.0062721833,-0.0069342493,0.0033687314,0.00022411493,0.00473406,-0.0070940997,0.00403993,0.0043443083,0.009956298,-0.0045153815,-0.001358755,-0.0073511694,-0.009664462,-0.009092118,-0.0010314622,-0.006524274,0.0048619853,-0.0062299557,0.0024940693,0.0007755322,-0.003442242,-0.0010225949,0.010033955,0.00918725,-0.004470952,0.009149647,-0.0056051016,0.0058909226,-0.0030778719,0.0035037398,0.003041533,0.0069075637,-0.0023617563,0.008744476,0.0075700087,-0.009547896,-0.008055456,-0.0076424717,0.0028836806,-0.002777478,-0.0069037783,-0.008152166,0.008330626,0.0019836673,-0.009339354,-0.004801728,0.0031310217,-0.0047346265,0.005307484,-0.0042382046,0.002654702,-0.008033296,0.006193033,0.004802343,0.0008025378,0.0030191059
san,-0.008839076,0.0022034072,-0.00079821923,-0.009331246,-0.009489372,-0.0015052133,0.00445158,0.0037372978,-0.0065327752,-0.0069464594,-0.0050086086,-0.0023381643,-0.007319142,-0.009637086,-0.0027303477,-0.00842198,-0.0060161226,-0.005695317,-0.0023844359,-0.0017685025,-0.008901785,-0.0006824567,0.008159226,0.0076875123,-0.007281095,-0.0036688065,0.0031184147,-0.009613607,0.0014107473,0.006536296,0.005840204,-0.008686815,-0.004642512,-0.008207289,2.941045e-05,0.009350129,0.0059802765,0.0050135013,0.0050278627,-0.0033125782,0.009626818,-0.0074368655,-0.0072562764,-0.002348091,-0.0007623928,-0.0032449788,-0.0005843431,0.0074477447,-0.0006939893,-0.0016203537,0.0028075622,-0.008446748,0.007807445,0.008552129,-0.009750012,0.0025054973,0.009901195,-0.0077234334,-0.006987354,-0.00781193,0.008475005,-0.0006236921,0.00910015,-0.008167348,0.0037399307,0.0026687814,0.0007424898,0.002403492,-0.0075331363,-0.009406023,0.0023194375,0.006141763,0.008033719,0.0058105933,-0.00074780313,0.008426511,-0.009357039,0.0034257695,0.00019724129,0.003920741,0.0074571804,-0.006834556,0.005488437,-0.009413394,-0.0008505499,-0.008638482,-0.0051549505,0.009358357,-0.001831015,0.002922872,0.00913901,0.0089772,-0.008236188,-0.003025113,0.010005987,0.0051976684,-0.0015917163,-0.008753579,0.0029930102,-0.0067000585
south,0.008118676,-0.004435451,-0.001067927,0.0010218181,-0.00021052228,0.0011328142,0.00613979,-1.2736145e-06,-0.0032823852,-0.0015369871,0.005885522,0.0015314678,-0.0007300983,0.009343846,-0.004922481,-0.0008346704,0.009203994,0.006745782,0.0015002943,-0.008899811,0.001165028,-0.0022700336,0.009386005,0.0012408858,0.0014629848,0.002434398,-0.0018643851,-0.005016672,0.00023053985,-0.001999891,0.0066296295,0.008971071,-0.00066138845,0.0029796122,-0.006097899,0.0017047178,-0.006890525,-0.00868324,-0.0059042634,-0.0090018865,0.007285425,-0.0057756407,0.008297751,-0.007268566,0.0034307567,0.009691826,-0.007775381,-0.009960891,-0.0043155733,-0.0026481138,-0.0002601544,-0.008847143,-0.008652413,0.0028049026,-0.008259677,-0.009030023,-0.0023519332,-0.008618266,-0.0070579266,-0.008409321,-0.0002997043,-0.004548004,0.0066239135,0.0015331118,-0.0033474856,0.0061028474,-0.006022511,-0.0046802172,-0.0072210114,-0.0043382533,-0.0017983567,0.0064946325,-0.0027612029,0.004930925,0.0069069257,-0.0074467594,0.0045742504,0.0061335363,-0.002939616,0.006628434,0.0061076763,-0.0064566294,-0.0067991065,0.002556286,-0.0016150385,-0.0060595484,0.009478889,-0.005103208,-0.0065241084,-0.00015279301,-0.0026660669,0.00044301475,-0.003524607,-0.00043055526,-0.0007091572,0.00083315035,0.008194466,-0.005755096,-0.0016494803,0.0055874716
republ,0.008139102,-0.0044050985,0.009077882,0.008287484,-0.004469368,0.00022958768,0.004350345,-0.0038547595,-0.005535318,-0.00655678,-0.00074776914,-0.00036055176,0.0044518956,-0.0025077746,-0.00015324925,0.0024578092,0.0048950166,-6.0289687e-05,-0.0063233892,-0.009339774,4.2641295e-05,0.0067009768,0.0014601663,-0.008970238,-0.00799586,0.0065972344,-0.0037948228,0.0062073465,-0.0067343614,0.008523796,-0.006477145,0.0033198062,-0.0010589191,-0.0068185255,-0.0033647195,-0.0011261792,-0.0054793363,-0.0012471587,-0.0075769755,0.0025560397,0.009126875,-0.0023614443,-0.0009942758,0.0034747217,0.008713361,-0.0059472388,-0.0069375047,-0.0029865059,0.009203046,0.0008833652,-0.008687409,-0.0015313916,0.009427448,-0.0074844,-0.0054168445,0.009390663,-0.008991305,0.0038061016,0.0006264794,0.006656722,0.008331953,-0.0028662353,-0.0040529976,0.008878581,0.0020064893,0.006265662,-0.009481183,0.009623593,-0.0013907724,-0.006071353,0.0029671355,-0.00042969076,0.004716741,-0.0022329069,-0.0041402653,0.0022872286,0.008341662,-0.005035608,0.0026028245,-0.008021325,-0.0067829564,-0.0005140792,-0.008763964,0.0029274533,0.0015719188,-0.0023099578,0.0049760374,0.009848416,0.008492703,-0.0018925396,0.0021127854,-0.0039950707,-0.008287566,0.0063051116,-0.0018907777,-0.00060539437,-0.0018067771,-0.0046342523,0.0040892335,-0.004252026
new,-0.009633364,0.0089776935,0.004212355,0.009261671,0.006614842,0.0029063958,0.0098213805,-0.004410967,-0.006797091,0.0042009293,0.003741052,-0.0057282927,0.00975112,-0.0035627978,0.009572781,0.0008440674,-0.0063464018,-0.0019744432,-0.0073689753,-0.003031517,0.0010708482,0.009504852,0.009372086,-0.0066033253,0.0034718653,0.0022612647,-0.0025049958,-0.009294898,0.0010188266,-0.008192758,0.0063280887,-0.005803422,0.0055876025,0.009813796,-0.000196362,0.0045653754,-0.0018253946,0.0073399334,0.0039094198,-0.009040262,-0.0024075403,0.0036443975,-0.00012498075,-0.0012117279,-0.0010301833,-0.0016833127,0.00061199773,0.0041594706,-0.0042280825,-0.0038196708,-5.839671e-05,0.00026977086,-0.00015160018,-0.004766946,0.004286115,-0.00214864,0.0021101984,0.0006705662,0.005974711,-0.006837145,-0.006806035,-0.004467457,0.009434788,-0.0016010557,-0.0095036635,-0.0005719312,-0.004451737,0.006001688,-0.009601376,0.0028454077,-0.00929063,0.0012569593,0.006027744,0.0073972144,-0.0076446263,-0.006001054,-0.006846659,-0.007941803,-0.00952106,-0.002100752,-0.00085634144,-0.0072725276,0.006787331,0.0011322567,0.0057885097,0.0015292309,0.0008160371,-0.0073541743,-0.0021509337,0.0043296283,-0.0050987406,0.0011253508,0.0028609224,-0.0015023199,0.009952232,0.008375144,0.0023770754,0.0070817186,0.0059422995,-0.005578714
guinea,-0.005179778,-0.0066385185,-0.007781741,0.0083292145,-0.001993737,-0.006852906,-0.004095451,0.0051724943,-0.0029072682,-0.0037147708,0.0015950777,-0.0028163583,-0.0015535917,0.0010810248,-0.0029807303,0.008456542,0.0039377776,-0.009964514,0.006269334,-0.0068167388,0.00083302706,0.0044500795,-0.0050922423,-0.0021406095,0.008086979,-0.0042517274,-0.0076715653,0.00918765,-0.0021333455,-0.0047190194,0.008601574,0.004289155,0.004352174,0.0093191145,-0.008481944,0.0052939034,0.0020327407,0.0041733114,0.0016685681,0.0044086254,0.004494074,0.006081327,-0.0032071513,-0.0045581753,-0.0004284115,0.0025343148,-0.0032627287,0.006017978,0.0041869753,0.007789715,0.002570914,0.008104681,-0.0013762506,0.008071652,0.00367364,-0.008014309,-0.003890475,-0.002456667,0.004909618,-0.0008727872,-0.0028190436,0.007831819,0.009313858,-0.0016109952,-0.0051771854,-0.004723791,-0.004848038,-0.009599165,0.0013369666,-0.00429133,0.0025006162,0.0056353235,-0.004047875,-0.009604426,0.0015484275,-0.0066823745,0.002526072,-0.0037900868,0.0070998743,0.0006548501,0.0035492308,-0.0027185478,-0.0017075489,0.007696797,0.0013556087,-0.0057984665,-0.007831756,0.0012484187,0.0065401667,0.005550444,-0.008946231,0.008620966,0.0040479014,0.0074854055,0.009804206,-0.0072844448,-0.00905126,0.0058244276,0.009435812,0.003510374
st,0.0070379935,-0.0015516034,0.007975533,-0.009545325,-0.008073372,-0.006720628,-0.0039845435,0.004986913,-0.0038134344,-0.008350976,0.008409922,-0.0037979444,0.008633952,-0.004897083,0.0038756947,0.0049355035,0.002397363,-0.0028838348,0.0028486059,-0.008313538,-0.0027330443,-0.0025988636,0.007318289,-0.0034392923,-0.006608057,0.0043370286,-0.00049724284,-0.003601754,0.006867845,0.003865739,-0.0038838137,0.0007780573,0.009159377,0.0077611073,0.006378532,0.004721004,0.0023925684,-0.0018805997,-0.006417631,-0.00036616626,-0.0016035724,-0.0005835957,-0.006303585,0.0074242176,-0.0066046775,-0.0072700237,-0.0028013187,-0.0014861791,-0.007612742,0.0006945678,-0.00533136,-0.0013045802,-0.0073740734,0.0019489978,0.0032595797,-3.7232025e-05,-0.0054025375,-0.0017785259,0.007072344,0.0036970023,-0.0089043,-0.0034157068,0.0023499986,0.002149607,-0.009545766,0.0046033766,-0.008683313,-0.0073958263,0.0035130894,-0.0034688427,0.0035288343,0.008910585,-0.0035353552,0.009358571,0.0016930951,0.009898799,0.005721115,-0.00920051,-0.0033393526,0.0065501407,0.005582939,0.008710916,0.006945395,0.008117852,-0.009887509,0.004329274,-0.0050979345,0.0035554974,0.006069051,0.0043840725,0.00751647,0.0015424164,-0.0012503066,0.0057829577,-0.005604769,5.0553677e-05,0.009468437,-0.005526184,0.003823267,-0.008108386
town,0.009763201,0.008165218,0.0013227492,0.005096467,0.0014239098,-0.0064658094,-0.0014138762,0.0064453096,-0.004604538,-0.0040115924,0.004906024,0.002686253,-0.0018274816,-0.0028958193,0.006005653,-0.0057244333,-0.003215742,-0.0065083257,-0.0042215595,-0.00862432,-0.004437243,-0.008475687,0.0013974025,-0.008613199,-0.009928435,-0.0082203075,-0.0067978315,0.0066669732,0.003736549,0.0003537169,-0.0029474627,-0.007401075,0.00053344906,0.0005266214,0.00017904826,0.00088858587,0.0007767617,-0.000102476195,-0.008044187,-0.0058949236,-0.008357664,-0.0013162317,0.0018205106,0.007416676,-0.0019508515,-0.002330668,0.009462616,8.736956e-05,-0.0023994623,0.008629846,0.0026655758,-0.005360837,0.0065705045,0.0045263004,-0.0070974315,-0.00032877992,0.000862184,0.0057477546,-0.0017263078,-0.0028102358,0.0017566597,0.0008767496,0.0011895663,-0.0026325912,-0.006010983,0.0073190527,0.007606658,0.008289874,-0.008598176,0.0026235387,-0.0035781937,0.009628641,0.002909215,0.004641617,0.0023889681,0.0066385926,-0.00574372,0.007877306,-0.0024464766,-0.004555916,-0.0020278762,0.00971531,-0.0068670083,-0.0021564453,0.0069479845,-3.7444857e-05,-0.0063084913,-0.006374563,0.008960472,0.0063884035,0.00478776,-0.003258483,-0.009281311,0.003784408,0.0071932347,-0.0056167245,-0.007874723,-0.00300968,-0.00491557,-0.0023096302
french,-0.0019473091,-0.0052460385,0.009485638,-0.009333036,0.0045208754,0.005373728,-0.001416567,0.008995154,0.009866977,-0.0055106888,-0.0060543995,-0.0067784972,-0.00788064,-0.0030804002,-0.0055883965,-0.008366335,0.0008085716,0.0029880006,0.006451877,-0.0026444858,-0.0044255713,0.0012696366,0.00039395742,0.008108566,0.00013170579,0.007241876,-0.0082728965,0.008430372,-0.0019159975,0.0086946115,-0.0075810305,0.0018164724,0.0010444309,6.6516965e-05,-0.005135571,-0.009233615,-0.007284683,-0.007967403,0.0019213281,0.00044752518,-0.0018100282,0.0071164067,-0.002501983,-0.0013211651,-0.008907609,-0.009927405,0.008924393,-0.0057797693,-0.0063727703,0.0052113133,0.0066747023,-0.0068759164,0.0009801334,-0.0060287067,0.001628332,-0.004271219,-0.0034524207,0.0022041118,0.008640385,0.0067079416,-0.009683919,-0.0056241984,0.007849824,0.0020015095,-0.004246924,0.00060742174,0.009514644,-0.0010916545,-0.00944201,0.0016005856,0.006228976,0.006270413,0.0041277325,-0.0056534302,-0.0003755667,-4.3881202e-05,0.0045700166,-0.008062758,-0.008019347,0.00028164193,-0.008654396,0.005813304,-0.00042873542,0.009978143,-0.0053408165,-0.00049383106,0.007761694,-0.0040072887,-0.004982328,0.0015463631,0.002692587,-0.0025578593,0.0064252946,-0.007645192,0.0034049458,0.00051471655,0.008738531,0.005987523,0.0068454966,0.007819827
unit,-0.009540121,0.009579731,-0.00773909,-0.002623058,-0.004896714,-0.0049961694,-0.008001041,-0.007798343,-0.0045811487,-0.001295368,-0.0050982623,0.006134609,-0.009510016,-0.0053165806,0.009468215,0.0069994,0.0077157277,0.0042446395,0.0004970073,-0.006017067,0.006036515,0.0026390203,0.0077203005,0.0063844053,0.007958348,0.008653112,-0.009931171,-0.006806954,0.0013133682,0.006460348,0.00738002,0.005547389,0.0076399185,-0.0051485994,0.006598127,-0.0040915892,-0.009055798,0.009136872,0.0013234974,-0.0027812885,-0.0024722212,-0.004226925,0.004805555,0.004395095,-0.002646628,-0.0073696794,-0.0035820017,-0.00034835003,0.0060973163,-0.0028206613,-9.9103185e-05,0.0008530691,-0.0071059186,0.0020770552,-0.0014422678,0.0028054917,0.004836004,-0.0013583016,-0.0027916287,0.0077247713,0.005054437,0.006713472,0.004522386,0.008663298,0.007450756,-0.0010898486,0.008763963,0.004618591,0.0054397024,-0.0013837522,-0.002058565,-0.004427325,-0.008501264,0.0030712814,0.008907249,0.008916063,-0.0019606175,0.0060681696,0.003774135,-0.0042761476,0.0020635216,-0.005462317,0.008207273,0.0054427437,0.003194186,0.0040999856,0.00865254,0.007296845,-0.0008485836,-0.007086246,0.008429745,0.0072429306,0.0017381842,-0.0013307472,-0.0058721127,-0.004508232,0.00866369,-0.0031693662,-0.0063444953,0.009850975
singapor,0.0076992256,0.00909665,0.0011317445,-0.00831858,0.008434973,-0.003699734,0.0057500927,0.004405374,0.009684445,-0.009289587,0.009212719,-0.009291254,-0.0069054468,-0.009115576,-0.005543764,0.0073785805,0.009166881,-0.0033336058,0.0037241408,-0.0036475596,0.007890523,0.0058829524,2.9670607e-06,-0.0036331746,-0.007219974,0.0047813035,0.0014420116,-0.0026049379,0.007840734,-0.004044425,-0.009148361,-0.0022407568,0.00011302733,-0.006633907,-0.005498906,-0.008494803,0.009225514,0.0074310363,-0.0003175283,0.007345601,0.007939437,-0.0007868012,0.006605833,0.0037593858,0.005098316,0.0072721327,-0.0047350004,-0.0021900823,0.00089861744,0.004247239,0.0032855372,0.0050925617,0.0045777136,-0.008449868,-0.003182128,-0.007236575,0.00968466,0.005007252,0.00016772356,0.0041131554,-0.0076516806,-0.006295653,0.0030940725,0.0065277056,0.0039331536,0.0060143904,-0.001980305,-0.0033478495,0.00021305341,-0.0031789923,-0.0055185854,-0.0077958605,0.0065360633,-0.0010902303,-0.0018727793,-0.007812469,0.009352841,0.0008566351,0.0017667852,0.0024855947,-0.0074005686,0.0016362048,0.0029768818,-0.008564603,0.0049504666,0.002439972,0.0075016543,0.005052409,-0.0030313118,-0.0071649165,0.0071032173,0.0018913713,0.00520859,0.0063944436,0.0019098675,-0.006127231,6.422779e-06,0.008255084,-0.006094401,0.009441127
monaco,-0.007218877,0.0042788684,0.0022177084,0.0074674124,-0.004895679,-0.0046076323,-0.006117613,0.0032941764,-0.004493629,0.008530947,-0.004294833,-0.00914538,-0.004812397,0.0064424914,-0.006351085,-0.005298471,-0.007346897,0.0060489476,0.0033765084,0.0028580253,-0.00311576,0.006046829,-0.006137373,-0.0019845087,-0.0059869993,-0.0010320909,-0.0020330248,0.00848343,8.285004e-05,-0.00863793,-0.00542833,-0.006898199,0.002697075,0.0094718225,-0.0057865297,0.008276193,0.008514708,-0.0071144127,-0.0088793915,0.009497521,0.008405838,-0.0046676625,-0.0067774854,0.007851944,0.0037587173,0.008137233,-0.007595788,-0.009563008,0.0015668367,-0.009802403,-0.004830297,-0.0034534964,0.009691574,0.00865526,-0.0028493537,0.0058860155,0.008254362,-0.002302745,0.009533151,0.0071686036,0.0020548725,-0.0038764898,-0.0050828364,-0.0030633581,0.007884816,-0.0062303096,-0.0029205712,0.009182803,0.0034793208,0.0060973936,-0.008063632,-0.00075306284,0.005530933,-0.00470721,0.0075083515,0.009360975,-0.00041298635,-0.0020909891,-0.00060892507,-0.0057746656,-0.0084477365,-0.0015190319,-0.0025749772,0.004389493,-0.0069296244,0.005439506,-0.0067763925,-0.007876001,0.008513,0.008969539,-0.0034700397,0.003462766,-0.005817337,-0.008793167,-0.00552463,0.0067978217,0.0064441725,0.009469938,0.007066815,0.0067554694
kong,0.0013122421,-0.009805465,0.004592006,-0.0004989289,0.0063068704,0.0017786134,-0.003155349,0.0077587627,0.0015092709,2.8894967e-05,-0.004639733,-0.008415473,-0.0078064976,0.0086206,-0.008944953,0.00906158,-0.009270752,-0.00031347518,-0.0019830398,-0.008986878,0.008629975,0.0068332106,0.0030162714,0.00483655,7.578203e-05,0.009437941,0.007032792,-0.009933537,-0.0044677584,-0.0012684438,0.0030819688,-0.004343032,0.0014238891,-0.00787361,0.0027429792,0.0047586444,0.004936903,-0.0032488576,-0.008489726,-0.0092894565,-0.00068046903,-0.00732592,-0.0068230564,0.006159785,0.0072213584,0.002095803,-0.007920112,-0.0057067242,0.008078722,0.0039241705,-0.0052775056,-0.0074589467,0.00076398253,0.0034570901,0.0020652593,0.003161194,-0.0056176977,-0.0099176625,-0.007003108,0.00022524207,0.0046436586,0.0045674546,0.001904494,0.0051268213,-0.00013379006,0.0041320985,-0.0091456035,0.0077122967,0.006124998,0.0051256577,0.0072449925,0.008470829,0.00079216255,-0.0016949492,0.0005348299,-0.009324953,0.008440298,-0.0064098183,0.008431908,-0.0042531174,0.00067187496,-0.009205834,-0.009633932,-0.007831703,-0.0077433633,0.0003358781,-0.007235098,-0.0049599437,-0.0052396297,-0.0043206336,0.00700981,0.0048452322,0.008661683,0.0071417917,-0.0057052127,0.0072616152,-0.009333053,-0.0026201466,-0.0077570765,0.0042306604
guatemala,0.0017762363,0.0070630726,0.0029404284,-0.006990409,0.0077339415,-0.0059891567,0.009016454,0.0029535317,-0.004026778,-0.0046875756,-0.004421003,-0.0061762733,0.0093965,-0.0026545466,0.007807067,-0.009717206,0.002101696,-0.0012122876,0.0075461823,-0.009092501,0.0074220593,-0.0051030903,-0.006019072,-0.0056754556,-0.0033857927,-0.003417821,-0.0032205079,-0.007520275,0.0007175301,-0.00059858,-0.001634114,0.003781702,-0.0076083853,-0.0032253575,0.0051728934,0.008564648,-0.00983192,0.0072214166,0.005297646,-0.0038739736,0.00860236,-0.009273199,0.0072547724,0.0053267432,0.0013421994,-0.0052371174,-0.0041907877,-0.0033209512,0.0016141579,0.0015654509,0.0074221618,0.0099987555,0.008902026,-0.0040139756,0.009634602,-0.0006170751,0.004881106,0.0025252202,-0.00061880547,0.0036812983,-0.0053110393,-0.0057957596,-0.0076178825,0.0019205426,0.0065426207,0.00086489244,0.0012637592,0.003186198,0.00809519,-0.0077306842,0.002292674,-0.0075000487,0.0037308368,0.0095427865,0.007565107,0.0064464165,0.008047753,0.0065172017,0.006885071,0.008717782,-0.0050221984,0.009229102,0.005066066,-0.0021161472,0.008485147,0.0050697974,0.0096811205,0.0028489076,0.009861177,0.001178172,0.009127758,0.0035731196,0.006610478,-0.0036182217,0.0067831376,0.0072583035,-0.002171338,-0.001898062,0.0036412051,-0.0070117237
sudan,0.009712435,-0.009795443,-0.0065086936,0.0028020586,0.0064339754,-0.005377726,0.0027554466,0.009132334,-0.0068364483,-0.006098971,-0.0050180196,-0.00370169,0.0018297697,0.009666455,0.0064536724,0.00038434519,0.002500609,0.008403536,0.009121984,0.0055988547,0.0060066306,-0.0076000984,-0.003838813,-0.0056474814,0.0061879195,-0.0022481615,-0.008785524,0.007593124,0.008407876,-0.0033058585,0.00916003,-0.00072656263,-0.003658406,-0.0003943083,0.00019192269,-0.003493201,0.002848316,0.0057554585,0.006857258,-0.008978021,-0.002204901,-0.0054634414,0.007525504,0.0064598005,-0.0043419558,0.0022664156,-0.005970254,0.00024438155,0.009481379,-0.0026317174,-0.0052087414,-0.0074626347,-0.002930073,-0.0008922701,0.0035345089,0.009769981,-0.0034106607,0.0018800715,0.0096695945,0.0015473008,0.000980501,0.009839027,0.00929836,0.00769204,-0.0062040603,0.009971177,0.005837139,0.009076062,-0.0020031955,0.0033369337,0.006828663,-0.003882056,0.0066530537,0.0025677134,0.009305816,-0.003036596,-0.0031127152,0.0062272632,-0.009090635,-0.0072414908,-0.006507618,-0.00077908457,-0.002396377,0.0068652085,0.009212013,-0.0009264264,0.0013805957,0.002060201,-0.0020160882,-0.00804886,0.0074495156,-0.0042975876,0.0045522135,0.009120749,0.0030692765,0.0031270592,0.0040775016,-0.0027059955,0.0038198428,0.00035809868
hong,0.0056120395,0.0055236393,0.0018428467,0.005787272,-0.009006392,0.0065300683,0.009241116,-0.004223069,0.0015905665,-0.0052066525,0.0010440142,0.0028248343,0.008119541,0.0005119955,0.0025224641,0.0012798955,0.008390497,-0.005716069,-0.006297831,-0.0036584893,-0.0023075123,0.0050771176,-0.00811222,-0.0028356647,-0.008245543,0.0051698326,-0.0025931576,-0.009120705,0.0040533138,0.009058195,-0.0030346825,-0.0058049723,0.0030308552,-0.0004366094,-0.010004624,0.008441367,-0.0073586632,-0.004995149,-0.002687195,-0.0054767407,0.0017572128,0.009739113,0.0045639616,0.00812669,-0.00044330984,0.0006388642,-0.0026547352,-0.008794272,0.0034732553,0.002103795,-0.0094312765,-0.005007954,-0.00972822,-0.00574668,0.004044016,0.008671849,0.004112796,0.0023781965,0.0081573725,-0.001124069,-0.0013891528,-0.0087202145,-0.00013008574,-0.0026119014,0.00037543837,0.0072593293,-0.0070357854,-0.0039032556,-0.006700666,-0.0035436759,-0.0032979345,0.0021640097,0.0033734436,-0.0049863206,-0.0045410413,0.0011590637,0.0054655815,0.0053417217,-0.0030008322,-0.0042635896,-0.0056239576,-0.0005573623,0.0019053661,0.001532417,0.0073530204,-0.0027781844,-5.948416e-05,-0.0055102557,-0.0011589605,-0.0077055045,-0.000961307,0.0013323373,-0.008611316,0.008792133,-0.009194955,-0.00964058,-0.008517498,0.0073160813,0.0054511353,0.009266222
bissau,0.0025180287,0.0008218447,-0.002506543,0.009361357,0.0027882603,0.0041198395,-0.001177502,0.00088266574,0.006591453,-0.0007169119,0.0033631537,-0.00067370693,0.0052567148,0.003632414,0.0025810255,-0.0053435797,-0.004693384,0.0042861113,-0.0059197634,-0.00018656519,-0.0006343687,0.0035234282,-0.008452965,0.00879804,-0.0014509542,-0.005311735,0.004035584,-0.001974335,-0.007760107,-0.0045019127,-0.00040593036,-0.00891864,0.00056177087,0.0024436365,-0.003221469,0.0025819193,0.0025053623,0.009973649,0.0014456585,0.002002523,0.0028166904,-0.0020937999,-0.008704244,0.008017143,-0.001952743,-0.009712111,-0.0065444456,-0.0039386023,0.003969409,0.00503119,0.0061015943,-0.0067656715,0.00068794255,-0.002760587,-0.0052598985,0.0069934055,0.003962255,-0.003097654,-0.008306326,-0.0051272567,-0.0006317242,0.007855462,0.0060715824,-0.008493597,-0.009584695,0.0071139056,-0.0023135643,-0.0036785607,0.005764516,-0.005854171,0.005085969,-0.00023196566,-0.0069035976,-0.0003401178,0.006361427,0.009311099,0.0022211107,0.005030319,-0.0049856743,-0.00078212656,-0.0053276336,0.0012238352,-0.0017935417,-0.0036035145,-0.0070399484,0.009642468,0.0029648785,-0.002257077,-0.004165262,0.007711665,-0.006444029,0.0031182033,0.0007988662,0.00836066,0.0068753916,-0.0028896702,0.0025499398,-0.0017017713,-0.009456946,-0.0026156732
franc,0.0013027401,0.006554208,0.010014783,0.009074337,-0.008020531,0.0064722234,-0.0057181963,-0.00095771346,0.00047406988,0.0065486524,0.0044946917,0.004580988,0.0094875675,0.00037528216,-0.0060349596,-0.0063546197,0.00644267,-0.005237258,-0.0028594928,0.004041331,-0.0023149222,-0.0060220626,-0.0023163026,0.0011860202,0.0021870362,0.0061102537,-0.005217541,0.0030455461,0.0072289193,0.0022104455,0.0054178964,-0.0048412923,0.0061812196,-0.00761439,0.003476954,-0.009286577,-0.0026551436,-0.009106233,-0.0016022313,-0.0053777522,-0.003924179,0.001182886,0.0027959158,-0.0015373289,-0.008132057,-0.005916725,0.0008108348,-0.0039308085,-0.009397534,-0.0007886947,0.006654741,0.005968872,-0.009939622,0.0031307456,-0.006004299,-0.009172479,0.00016011087,-0.00039528645,-0.006977094,-0.006324448,-0.0024339075,0.0071068075,-0.0075870706,0.007678005,-0.0005166021,0.0011066102,0.009477592,0.004736475,-0.0035916828,0.003734514,0.003526002,0.006354586,8.7051e-05,-0.004432274,0.0013375657,-0.005361176,0.0014183501,0.0049121506,0.005146383,0.009183207,-0.0075146947,-0.005409737,0.00646436,0.0013523947,-0.006625261,0.0008947595,0.0027053123,-0.0024990572,-0.004947319,0.0050102053,0.009631332,-0.0073599503,-0.0001497085,-0.0025616013,-0.006329618,-0.0013306666,-0.0052809464,0.0090168035,-0.005802069,0.003718465
andorra,-0.00027184092,0.0042365207,0.0021324414,0.010001005,0.000616177,-0.0054825554,-0.0011781098,0.0020773346,-0.0033719025,-0.007870259,-0.0056087645,-0.006770033,0.006359254,0.0039004534,0.00823442,0.0064985813,-0.0061422153,0.0026890044,0.008472564,0.0015900283,0.0030253264,0.0058397395,-0.008854509,0.009127723,0.0068435706,0.008529332,-0.008264242,0.0061379573,0.006606696,-0.0013636189,-0.006293895,0.0053566196,-0.0068864026,-0.0053526103,0.0035409422,0.008082982,0.008710723,-0.0044452334,-0.0091759255,0.009592426,0.0063138274,-0.0039657643,-0.008463492,-0.004732138,-0.0039562206,-0.0032869037,0.0008156395,-0.00030142893,-0.0031369494,-0.0060324185,0.009455263,-0.0047662407,-0.0072559924,0.0077270805,0.0025035006,0.0086446805,-0.0044551594,-0.0069302632,0.0009583144,-0.0011746013,-0.009413403,-0.001602513,0.0030325018,0.0065474114,0.00681997,0.0032430638,-0.0044410117,-0.001833961,-0.003961886,0.005784711,-0.0063708196,0.0021131644,-0.0013530595,-0.005834275,-0.007231007,0.0058674053,-0.008385919,-0.00069917936,0.0028157448,0.007733098,-0.0073306756,0.0033244912,0.009833875,-0.006952569,-0.0035439942,0.005178832,0.005280417,0.0016475379,0.008003555,0.0008503232,0.0018631293,-0.0015999628,-0.008178133,0.003268551,0.0019985265,-0.008691824,-0.00069270504,4.5476103e-05,7.3946508e-06,0.008732156
congo,-0.0025181773,-0.0058895103,0.007509993,-0.007246393,-0.009017715,-0.0018028878,-0.008353919,0.00040936834,0.0019434146,-0.0025041807,-0.0064796605,-0.00031731045,-0.0011111681,0.0034812829,0.008137207,0.005852412,0.008475779,-0.00899466,0.009429054,-0.0024030597,0.008688494,0.0023876638,0.003584597,-0.009572003,-0.009486969,0.009023991,-0.002929606,0.0028080458,0.0063821566,-0.000274417,0.00975709,-0.0010177321,-0.009697422,-0.0070903394,-0.0010872472,-0.008657487,0.007427803,0.0035986705,-0.008764796,0.008473509,0.00895279,0.005844855,0.006932616,-0.009596679,0.00051214016,-0.009259967,-0.0036707355,0.00021510215,-0.00030459955,0.0014729858,0.0032769411,0.002083838,0.005305996,0.0075518694,-0.0059013492,0.007997869,0.0059715593,0.009805045,0.004633337,-0.003318934,-0.003723768,-0.00063723,-0.0017093552,0.0099154115,0.0010817298,0.0040021613,0.0033941017,-0.008862276,0.0067105913,0.008207131,-0.0016674681,0.0023466065,-0.0064791064,-0.0061351545,0.008233265,-0.003048461,0.0067185313,0.0015127715,-0.0019998834,0.0030532237,-0.004011172,-0.0018123203,0.0013695108,0.0049849013,-0.0014279605,0.0006717214,-0.007963405,0.009556878,-0.008742521,0.007056695,0.003949842,-0.0069786403,-0.0053336406,-0.00796484,-0.005108363,0.0070941662,0.009634289,0.0021120457,0.00066860404,0.009548023
spain,-0.0049927104,-0.0012907314,0.0032938928,-0.0063840416,-0.009695705,-0.009241414,0.009026088,0.005395925,-0.0048021157,-0.008348328,0.0013023076,0.0028462468,-0.0012348442,0.0012907732,-0.004311635,0.0047828406,0.0014622501,0.008865494,-0.009983464,-0.0052946876,-0.009094788,-0.0003384119,-0.007871404,0.005002171,-0.0063976278,-0.0059623667,0.0050386377,-0.008198885,0.0014407216,-0.0072373413,0.00987293,0.008624124,0.0017721701,0.005781167,0.0045808707,-0.005976713,0.009744006,-0.009689757,0.008054565,0.0027565116,-0.0030308845,-0.0035608008,0.009070985,-0.0054688104,0.008191264,-0.00603602,0.008390075,-0.0005550548,0.007957708,-0.0031566944,0.0059855855,0.008781837,0.0025500471,0.001345016,0.0050136033,0.008032963,0.008581965,0.008483104,0.007033428,0.00801202,0.008606634,-2.4313174e-05,-0.0010059115,0.0016637266,-2.2418028e-05,0.0006579522,-0.008604871,-0.009603357,-0.0023242235,0.008917904,-0.0036632558,-0.0069958745,0.0049096127,0.0010641654,0.0018486101,0.0036772098,0.0035103858,0.0056983866,0.0012465134,0.0008588615,0.009055053,0.0027446568,-0.004697939,0.006577719,0.0052183475,0.0029000521,-0.0031678926,0.0033352948,0.006392266,0.0070869336,0.0009663442,-0.008541237,0.00023522487,0.00039271094,0.003948705,-0.009458754,0.009684771,-0.007015432,0.0057766237,-0.009425061
marino,0.009605173,0.0073399926,0.0012629895,-0.0034249,-0.00047585365,0.00039494183,-0.006387934,0.0057105906,0.0023637237,0.0037619718,-0.007293077,0.00851218,0.00048130614,-0.00019252326,-0.009041008,0.004033546,0.0067851404,0.0073524485,-0.0064301426,-0.007883544,-0.005504401,-0.0005740238,-0.008323096,-0.008236162,-0.0019674813,0.0011405768,-0.009508713,-0.003756277,0.00062239147,0.0068294513,0.0017744225,-0.0006379461,-0.0075345533,-0.0067906566,-0.0006486578,0.0074934727,0.0054480927,-0.0014739167,0.0011711682,-0.009640362,-0.0013408639,-0.004677555,0.005807336,-0.0023685028,-0.0047721984,-0.00951837,-0.0012061592,-0.0071791685,-0.0016570654,-0.004089828,-0.0023282596,-0.0033068198,-0.008114725,-0.0012478797,0.001642571,-0.0040249126,-0.007666031,-0.0036051266,-0.009085947,-0.0007631023,0.005881526,-0.002948183,0.0031342448,0.0050199353,0.008491956,0.005668444,0.0095224865,-0.009605277,-0.007975966,-0.0067489264,-0.007443484,-0.008009784,-0.007786977,-0.0028841677,0.0013884477,-0.0028498142,-0.008815967,0.0050168093,0.0008727036,0.004678346,0.007212112,0.0075791385,-0.00086668186,0.0036698894,-0.005125205,0.001888189,0.004544647,0.009932066,-0.003211651,0.0028644803,-0.005715383,-0.0022057327,0.008099203,-0.003930687,-0.0011241743,-0.009234168,-0.009488618,0.008859406,-0.005720195,0.005027707
macao,-0.006993199,-0.0024561964,-0.008019016,0.0075094104,0.006115839,0.005270462,0.00836939,-0.0006850787,-0.009346139,0.009135696,-0.004943332,0.007855828,0.0055186916,-0.0010682743,-0.0076862527,-0.001460014,0.0062705725,-0.006974329,0.0014534851,-0.007957409,0.00875117,-0.002848876,0.009435924,-0.0057251924,-0.009712703,-0.008615848,-0.0040762825,0.0046775155,-0.0002673542,0.009238406,0.0031201236,0.0037384094,0.0030039314,0.008157704,-0.0023758726,0.007394208,-0.009566037,0.0028969257,-0.0006884453,0.00043044265,0.006844023,-0.0028481372,-0.0023760402,-0.00010768347,-0.0005087458,-0.0036134506,0.006235542,-0.0065730866,0.007902876,-0.00011041292,0.0026036196,0.0031952702,-0.000300642,0.0017251691,-0.0031456323,0.004786648,0.00025668088,-0.0032740114,-0.008729485,-0.009999845,0.0003114453,-0.005765097,-0.0011231292,-0.0041876403,-0.008690653,0.001052399,0.0059018745,-0.002213961,-0.0071583893,0.0031735988,-0.00039725096,-0.0055318107,-0.001076008,-0.0006358609,-0.0031893067,-0.009975142,0.0076421644,0.0037280985,-0.0025333832,0.0073412852,0.00045257426,0.0071879616,-0.0015615756,0.0075254566,-4.4172917e-05,-0.0060821404,-0.004721075,0.009658085,0.0006055742,0.001035405,0.008454549,-0.006301366,-0.0017838079,-0.008196473,-0.0066936994,-0.008573604,0.003906324,0.0027275532,0.0056372113,0.0025921548
pierr,0.0020951591,0.005723362,-0.002114189,0.0031970432,0.008467918,0.0003724919,0.0062909885,-0.006718626,0.0066092815,0.0046884953,0.005087054,-0.009935815,-0.00044959446,0.003228544,-0.005847301,-0.0066514295,0.00640169,-0.006822903,-0.005240581,0.008131167,-0.007034347,0.00854933,0.00064183323,0.0043606767,-0.0030097878,-0.0053928373,-0.008948193,-0.0006128828,-0.005146312,-0.003064062,0.008134204,-0.0076190904,-0.006313086,-0.0052692886,-0.0066022943,-0.008817075,-0.0011621834,0.009398465,0.008043874,-0.0052715563,-0.008150622,-0.0022449763,-0.009293483,-0.005058179,-0.00596721,0.0030355104,-0.0075568156,0.0012426272,0.002268919,0.0053378697,-0.002008558,-0.009801486,0.005210182,-0.0059136027,0.004891943,0.0019709708,0.008800276,0.0014867052,-0.001866316,0.0064356616,-0.007059258,-0.008357293,0.0037811575,-0.0026122076,-0.004191082,-0.0019381584,-0.009892125,0.0002610136,-0.0010458482,-0.0029841976,0.0025114315,0.0046733003,0.0063779512,-0.007929668,-0.0049864054,-0.008783459,-0.00892598,-0.0037914014,-0.0012802553,-0.0082288245,-0.0053519364,-0.0021562928,0.006327773,0.0015703527,0.008346299,-0.00830662,-0.004565401,-0.000835785,0.008823376,0.0010879447,0.001614204,0.0012829856,0.0029309804,-0.009360749,0.003278791,0.0055027856,0.0052679037,0.0044326256,-0.008106268,-0.0040455684
mexico,0.008377491,-0.00053473655,-0.009436202,0.004792464,-0.006049799,0.0066620917,0.00538148,-0.0050059953,0.002602673,0.00541691,-0.0035884972,-0.0015052385,0.009203324,0.009080312,-0.009382794,0.0075581106,0.009900609,-0.002808352,0.002478693,-0.002810767,0.008665344,-0.00026248398,0.0056905774,0.009227118,0.0041279164,-0.0071484447,-0.0019399958,0.0009982669,0.0020388875,0.0029708422,0.009485761,0.0043958332,0.009968342,-0.008677308,-0.00575121,0.0019909437,0.003639764,-0.0009900337,-0.006965962,-0.0031989685,-0.008566577,0.009438259,0.0037455268,-0.00787515,0.0032010707,0.0041801203,-0.00563197,-0.0059404834,0.001062847,0.008981922,-0.009653338,-3.022542e-05,-0.0068955384,-0.0009529876,0.0030278233,-0.0050339983,-0.0027635596,0.0006704384,-0.006400163,0.00730891,0.0043780594,-0.008572192,-0.002165361,0.0031820051,-0.0083425045,-0.007076141,-0.008452065,-0.0055098655,0.008853834,0.0070954924,0.0028870122,-0.008591716,0.005739633,0.004671181,0.00014601738,-0.008841535,-0.0018600624,0.0002027373,-0.0077500925,0.0024855442,0.0004702155,-0.0070431386,-0.008265058,0.0060383608,-0.0083674695,-0.0056062667,0.0055873147,-0.0004837888,-0.0030407112,-0.00518077,-0.0011686927,0.0052586887,-0.0059651267,-0.0049816766,-0.0049434067,-0.0047550234,-0.007995147,-0.009770885,0.007597654,0.008003987
georg,-0.0043003494,-0.009293206,-0.0018954509,-0.0037345893,0.00908448,0.0029429824,-0.005974432,-0.0033584074,-0.009908328,0.001947316,-0.0039978065,-0.0027079622,0.005193833,0.007564029,0.0043927925,-0.0068212296,0.0066763796,-0.0096811615,-0.006971914,-0.008032501,-0.0022378478,0.000495989,-0.0037663986,0.0018603767,0.0092304135,0.0066828784,-0.0010773137,0.009103504,0.0015666725,-0.00197401,-0.006626134,0.0064960034,-0.009052596,-0.0018663511,0.00768684,-0.0025647224,0.0016136388,-0.0073724133,0.004959552,0.007338859,-0.009328992,-0.003269863,0.007880608,0.0029068727,1.9466095e-05,0.00029536718,-0.009882271,0.009930303,-0.0020219076,-0.0049132886,0.002766773,0.0010317946,-0.0059438935,0.0058067855,-0.002514383,-0.006211474,0.007304716,0.006483713,0.008834889,0.0011660152,0.0005125402,-0.007937647,0.004667604,0.009355205,-0.0007044748,-0.0017432435,-0.0037954387,-0.0004947102,-0.0076273484,0.0056916946,0.0014860515,0.009298991,-0.0064436747,-0.0050916816,-0.0062223384,-0.0072729243,0.002750365,0.0048757815,0.0013287101,0.0035358567,-0.009392449,-0.0010467741,-0.007731745,0.0029558355,-0.0026917942,0.008889688,-0.0034712553,0.006846484,0.0041389954,0.0013711258,-4.383056e-05,0.008192992,0.0023685105,0.008263611,0.0033709735,0.005423058,0.0050932034,-0.0076401387,-0.005785328,0.0012211808
georgia,0.00016623235,0.002151947,0.0010890864,0.007565448,-0.0044158027,0.00032355456,0.0070242546,0.0022568135,0.004232527,0.004307425,-0.0012668897,-0.008339872,0.0030661663,-0.008862138,-0.0026493776,-0.009418728,-0.00045235074,-0.007864259,0.0074315923,-0.004886857,0.009939052,-0.009021155,-0.0042981924,0.0019210654,-0.00302401,0.0014213343,-0.0036826115,-0.00091057486,-0.0057089166,-0.00982051,0.006374436,0.00038336794,0.006512261,-0.0074696285,0.0036631306,-0.009889259,0.007615101,0.0059292023,-0.006129545,0.008195677,-0.005562684,-0.008558244,0.0014905602,0.003170037,-0.008107949,-0.008912322,0.009145654,0.0016310659,0.0008867338,0.002467815,-0.0035062311,0.0017385754,0.0019680592,0.009831048,-0.00561502,0.0022844814,0.0062948284,-0.006684675,-0.008958075,0.008645006,0.006852743,-0.0040188534,0.0057362686,0.00076658535,-0.005037794,-0.00136531,-0.004908431,0.006141557,0.0019496164,-0.008353609,-0.00014756958,-0.0026457605,0.006620644,-0.0011455273,0.007676057,0.001975925,-0.0038515432,0.008173681,0.0029516711,-0.0039620525,-0.005618192,-0.0031120528,-0.005127515,0.003460463,-0.00931395,-0.005814815,0.0033289515,0.00020565842,0.006021547,-0.0036190266,1.865059e-05,0.002469456,0.005453437,0.00160814,0.009842253,0.0037481217,-0.007190011,-0.0014288074,-0.008365277,-0.0053236713
gibraltar,-0.0021944928,-0.009702498,0.0093227,0.002004785,-0.0011768719,-0.005513387,-0.008500447,-0.009945568,0.008958314,-0.0024964954,0.004615911,-0.0045100953,0.0099623855,0.0036606404,0.0010383403,-0.004039123,0.0012179889,-0.0026691835,0.007350103,0.0044988184,0.0009640049,0.003486059,0.0037120362,-0.0067885187,0.008937183,0.0017480907,-0.005808334,0.0086697405,-0.0012954952,0.008172659,-0.0015059444,0.0070185196,0.0027047894,-0.0043534013,-0.0037428192,0.009216337,0.0016022648,-0.006050979,0.00033231144,-0.0019731699,0.001563719,-0.007751144,0.0074034836,0.0013490232,0.007882566,0.004476319,-0.0044133184,0.0037581439,-0.00066600123,-0.009876454,0.008269019,0.009664838,0.009671875,-0.0037865618,-0.008468234,0.004824721,-0.0076555186,0.008563124,0.0027681952,0.0056075663,0.006136495,0.000488592,-0.0021007666,0.0007851286,0.009865055,-0.0071494766,-0.0015519591,-0.0023806219,0.0048635844,0.0064549167,-0.0041764756,0.0036487526,-0.0045143436,0.003285554,0.008191935,0.0036432417,-0.004597552,-0.0030249325,0.007880163,0.009639506,0.005816014,-0.0032675965,-0.0018188193,-0.00625278,-0.0043162606,0.0034103093,-0.006531775,-0.0065953666,0.008120415,0.009495178,0.008148533,0.0015406484,-0.008806375,-0.007602573,0.0016145109,-0.009540935,-0.007437622,0.002043034,-0.002945038,-0.009198754
são,0.00642977,-0.008941041,-0.0073439134,-0.0018027484,0.0016751919,-0.0010771088,-0.005207543,0.006583822,0.0087956935,-0.0074932515,0.009797809,0.0073649823,-0.0074819056,-0.0019318403,0.004285862,0.007058805,-0.0036369686,-0.007027914,0.004713113,-0.009052169,-0.0058567757,-0.0012834724,0.0055384124,-0.0057018483,0.0047600474,-0.0004555169,0.0026414813,0.006375902,0.0013961005,0.007761244,-0.00030277664,-0.0082920585,0.009120549,-0.004902056,0.004725464,-0.0038639186,-0.0073453276,-0.0065255826,0.0046585198,-0.0006544782,0.001466568,-0.008920942,-0.00519833,-0.006069172,0.008463982,-0.00875668,0.005029648,-0.0008821267,0.00017186164,0.008796817,-0.003629456,-0.0069422973,0.0007300123,0.007760483,0.00910558,-0.0036619038,0.0027552813,0.004943262,-0.005342723,0.0068650153,-0.0064627705,0.0021360207,0.0045654406,0.004404764,-0.0046875575,0.0027011782,0.007265269,0.008619871,-0.009569148,0.0056398115,0.004930819,-0.0016205788,0.0092079295,-0.00417125,-0.0017360578,-0.0068851556,-0.0037943025,0.00022253762,-0.003309261,-0.005455673,0.006580976,-0.0053349943,-0.0063285474,0.007682858,0.009657514,0.004065891,1.4263558e-05,0.0008253467,-0.0009549251,0.00685898,-0.0062244744,0.00048450832,0.0042722146,-0.0021310507,0.0008857069,0.003722143,0.009694039,0.0021131278,0.009517362,-0.005838294
tomé,0.0048243594,-0.0035973734,-0.0042703534,0.0011770574,-0.0041873828,-0.0056739454,0.003149391,0.0083610965,-0.006518786,-0.009176796,-0.0032978065,0.0075297835,-0.009701794,0.009635257,-0.00040938184,0.0022956517,-0.0018142591,-0.005784086,0.0031125667,0.00615856,-0.007061231,-0.0011898685,0.0015895906,0.0042631268,0.0071369996,-0.0035736256,0.0072410647,-0.0055961167,-0.0021919892,0.009126989,0.0054280655,-0.0084931,-0.0016783134,-0.008882329,-0.001643462,0.005687434,-0.0074365586,0.0055071283,0.006064039,-0.003750732,-0.009658407,-0.002499556,-0.0025939466,0.0037597946,0.0089641195,0.0019694045,-0.0020965938,0.0029288877,-0.0067951516,-0.0012810378,-0.0015345501,0.009636899,-0.0058485353,-0.007008096,0.0023535765,0.002649786,-0.007084915,-0.0058814324,-0.0012293345,-0.0032630316,-0.008975469,-0.004042764,-0.0029732906,0.0065349317,0.00089500553,0.0016087233,0.00020484369,-0.00338277,0.0030383666,0.0007477665,0.0059658624,-0.0007936175,-0.008902876,0.00088004593,0.009934777,-0.0052822093,-0.0052497936,-0.002543677,0.008516399,-0.00086861267,0.009448545,-0.008357056,0.0090207765,-0.0096989395,0.009208026,0.001939445,0.0026272878,-0.0058227135,0.008436451,0.0060499064,-0.0054733236,-0.009551513,0.006952671,-0.005535129,-0.009339944,0.0026177925,-0.005021351,-0.007441943,0.00979341,-0.0015826283
salvador,-0.001585039,-0.004041668,-0.0043879733,-0.004626778,-0.005648312,-0.005344688,-0.008006432,0.009552871,0.0064158775,-0.0036583953,0.0024177898,-0.007679775,0.0075077163,0.00830596,0.00080920313,-0.0069035543,-0.0029626072,0.004739116,-0.0029386214,0.0031750505,0.00942017,0.0043704156,-0.0051597445,0.0054565463,-0.002900095,-0.006420063,0.006998749,-0.009263509,-0.0011646819,-0.001387412,-0.00836763,-0.0010417913,0.0055134324,-0.005304274,-0.007050439,0.0062917033,-0.0033818188,-0.007820735,0.00029534692,-5.3970183e-05,0.0075770267,0.0005495163,0.007891977,-0.009882411,0.00403934,0.006216568,0.0010457078,-0.0028829656,0.0010208839,-0.0008020566,-0.008049905,-0.006814192,0.0011715106,-0.0020474652,0.009488586,-0.000923392,0.006140999,0.00205277,0.008058372,-0.009306727,0.0024096342,-0.0014284961,0.0021345043,-0.00025180003,-0.0066825915,0.009084271,-0.0028380414,0.0019156914,-0.006459052,0.003742931,0.01003509,-0.0012170402,0.006583792,-4.9919854e-05,0.007980861,0.009693334,-0.00037200018,-0.0016547609,-0.009579209,0.009953791,-0.0024905656,0.0021194464,-0.0017604086,0.008363364,0.008316106,0.0015624055,0.002857308,0.0064748437,0.0022569995,0.0064713825,0.00020285217,-0.0022702962,0.0053143003,-0.0034669181,-0.0025860074,0.008826391,-0.009159905,-0.0034305549,-0.0029384445,0.0056463773
luxembourg,0.007922354,-0.0064634816,0.005811538,-0.00020970135,-0.009047135,-0.0024603393,-0.0015622055,-0.00447458,-0.0007966174,-0.0052467342,0.0059500714,0.0092984075,-0.0015999224,0.003400184,-0.00076534477,-0.00072483154,-0.0070093237,0.0014513561,0.0039131436,0.0069099567,0.0065645915,0.0035590476,0.0046670097,-0.007432697,-0.0013684726,-0.005832698,0.006801959,0.0078120073,-0.004302634,0.0011731808,0.0051203524,0.0018148875,0.0007850672,-0.006750705,0.009853752,-0.007253023,-0.006029465,-0.0056944895,-0.006365398,-0.003496298,-0.0094122,0.001178821,-0.0037641712,-0.0025677388,0.00580601,0.003557918,0.0018275781,-0.0013775086,0.009929767,0.0002882182,0.0050215353,0.009031571,-0.009778433,-0.009157965,0.00992672,0.00276535,-0.0018687904,0.0047235717,-0.0043403716,-0.0064149527,-0.008267524,0.00720529,-0.0024490794,-0.0075622145,-0.005948652,0.006164897,-0.0024942644,-0.006155862,-0.0016222799,-0.0014894984,-0.0032632852,-0.002086296,0.0041315584,0.0014669901,-0.003514217,0.0027254529,0.0052336245,-0.009195874,-0.0075840084,0.0062996945,-0.008934644,0.0005320905,-0.009014071,0.008399221,-0.0043131383,-0.006635738,-0.0013725935,-0.001114188,0.0075492794,0.009144138,-0.00034415294,0.0026973037,0.0047258455,0.0001662077,-0.0057566687,-0.0005806621,0.0021707711,0.008303974,-0.0035928115,-0.009868221
vatican,0.0053860745,0.009862546,-0.0070642647,-0.0005498003,-0.0050612013,0.006401324,0.009748284,-0.00029947428,0.005142096,0.00653346,0.004382009,-0.008071996,0.0031643182,-0.0014872669,-0.0021551973,0.0053601735,-0.0012749457,0.009979765,-0.00060947076,0.00022324898,-0.0022791247,-0.008537603,-0.009850617,0.0049725766,-0.0065910458,0.0029199908,0.0027501339,-0.0070002046,-0.0031586438,-0.0058098463,-0.008551197,6.372822e-05,0.009838605,-0.006656164,-0.004381234,0.0084026335,0.009280681,0.009882018,-0.009962942,0.005008331,-0.006626321,0.006860057,0.006150274,-0.003361803,0.006925814,-0.007866446,0.004530964,0.0046019685,0.005953069,0.005919778,-0.0026742027,0.0038459222,-0.006114663,-0.006520317,0.0027809122,-0.00949459,-0.0002673181,0.0011056684,0.008002936,-0.006992049,-0.0022900347,-0.0042013717,-0.005239024,-0.00044403784,0.0045428453,-0.0050389227,-0.0016402599,0.008662905,-0.0013474204,-0.003549107,0.0075045736,0.0011657483,-0.0003091379,0.009507562,0.00813767,0.0034908992,0.0034051258,-0.0022932554,0.008080667,0.0050616916,-0.0054231235,-0.006134378,-0.00063332135,-0.00791533,0.003393748,-0.009279913,-0.0015168409,0.0033853496,0.0030749354,0.0031717496,-0.009045276,0.003404091,0.0053639584,0.0034654057,0.0077682263,0.0016616894,0.006289323,0.008818533,-0.0009050885,-0.00085631356
kingston,0.0022157656,-0.007528305,0.005635687,-0.00501177,-0.0032704235,-0.0018420751,0.008229158,0.002249899,-0.000896009,-0.0028433965,-0.0021079562,-0.0012924719,-0.0050806603,-0.004131362,0.00020404242,0.004557164,0.0018004563,0.0069155083,0.0006416405,-0.003224721,-0.007388594,0.0059984475,0.006988489,-0.0060558454,0.0046859854,0.009506823,-0.006384809,-0.0028751595,-0.009067827,0.0032308488,-0.0034233725,0.0020616152,0.009419925,-0.008355243,-0.0093061365,0.0017152289,-0.00805245,-0.009098064,-0.009371266,-0.0002868513,-0.0010897055,0.0007262348,-0.0013493956,0.009063358,0.008789244,-0.006360599,0.00870988,-0.009045964,-0.0013428746,0.002522821,-0.00011688592,-0.0037988806,0.00048802252,0.0010202347,-0.009423839,-0.004907457,-0.007694471,0.0038193546,-0.0008948769,-0.0074841594,0.0056487713,0.00023886241,0.0026840381,0.0054153735,-0.004241454,0.007858309,-0.007871945,-0.0034336075,-0.007384413,0.0009817356,-0.007394718,0.00906629,0.005540881,-0.007227831,0.0061639063,0.0065995115,-0.0074171773,0.0046536983,-0.0077452348,0.009306392,0.004671772,-0.000236365,-0.008937464,-0.0009094885,-0.00025946915,0.0009171423,0.008663948,-0.0027966013,-0.00868179,-0.008857039,-0.0010518429,0.0013579412,5.7418747e-05,-0.0021994214,0.008555566,0.000116665404,0.0064280857,0.003973061,-0.0072063133,-0.0021292546
djibouti,-0.007796369,-0.0067640883,-0.003174556,0.0066380193,-0.0008421811,0.008894491,-0.002281987,-0.0052950364,0.0038872177,0.002223723,-0.00029442908,-0.0024502215,-0.0060611614,0.0040330766,-0.007630295,-0.00895449,-0.009178047,0.008424041,0.004007378,0.0071043526,0.00991675,-0.00723687,0.0040649073,0.0028429665,0.006161632,-0.0034045898,0.009345594,-0.0058246767,0.0070834067,0.006979079,-0.0003838821,0.0050563565,0.0066698208,0.0015597873,0.0073765717,0.002404659,-0.0015128021,0.007420798,0.0047046,-0.0032078326,0.001639217,-0.00013831725,0.004973772,-0.005456711,-0.00419009,-0.000981086,0.003828105,-0.0066336193,0.007889199,-0.003067189,0.0057573034,0.0028502534,0.0068310685,-0.0044861324,-0.0032101173,0.0030585546,-0.002737626,0.005952807,-0.005976748,0.0026372848,-0.0007195294,-0.00061441236,0.0025608088,-0.0022177645,-0.0042947144,-0.008576163,0.0025159558,0.0053662136,-0.005868343,0.009145726,0.004046755,-0.0052169394,-0.0012892582,0.0039536883,-0.0070164492,0.0020652188,0.0055110822,0.0062649925,0.005449646,0.0036511323,-0.0027433294,-0.006089113,0.008169182,-0.007294554,-0.0016307851,-0.0032911524,0.006476561,-0.0062986873,0.0034049102,0.002060395,-0.004046945,-0.008261533,-0.008038537,0.0035166084,-0.009568787,0.005720352,-0.002903948,-0.009181397,-0.005156901,0.007752725
korea,-0.0017917631,0.0064320974,-0.009265671,-0.009157906,-0.0052631213,0.0009184597,-0.007187457,-0.009414454,-0.008896577,-0.00050561107,0.007398799,-0.008399781,-0.005313799,0.0014911563,0.0033323315,-0.008491895,0.007895933,-0.008228635,0.00477501,0.009385787,0.00569742,0.00621137,0.0082140025,0.0034587332,-0.0071946704,0.0057592476,-0.008348131,-0.0057641524,0.0059143687,-0.007935773,-0.0058579063,-0.0035025454,0.0034102574,0.0052195187,0.0020763504,0.005124761,-0.0026288177,0.0043648155,-0.007077607,-0.0017047351,-0.007744371,0.00016126072,0.004675048,0.0047337296,-0.004636978,0.0017567967,0.0077952654,-0.005581456,-0.0037622724,-0.000563071,-0.0047016963,0.008692536,0.007554684,0.009232001,0.009362379,-0.008429138,-0.0004561957,-0.0076317117,-0.0048390245,-0.0088780895,0.0034103792,0.0001305117,-0.0069465227,0.007968496,0.0009202461,0.00031464003,-0.0035556417,-0.0033782849,-0.0026482912,0.0076263295,0.0024097236,-0.005197122,0.00477745,0.0009895033,-0.002738413,0.0077276435,-0.0039552376,0.0074417377,-0.004226229,-0.007351314,-0.0045117894,-0.00388836,-0.00070702593,-0.0017747945,0.005089209,0.005450877,-0.0017612968,0.0037698648,-0.0019797387,0.00073494023,-0.0013347154,-0.0024492717,-0.004700739,-0.004267664,0.00015527364,0.0016950021,-0.009501241,0.006056554,-0.0016626192,-0.0029455773
samoa,-0.004818862,-0.0043404005,-0.0047868867,-0.009816803,-0.00077721657,-0.007822878,-0.004796318,-0.0073551913,0.009915572,-0.0013727546,-0.007767426,0.0054800794,-0.008070183,-0.0019419795,0.0027331228,-0.0070954124,-0.008748156,-0.0066509773,0.0074839457,0.009066394,0.003955021,0.002403266,0.0041586678,-0.0040916502,0.009756275,0.0069174464,0.004091104,0.008965433,-0.008397293,0.00091398245,0.008892678,-0.0009174219,-0.006711289,-0.002291656,-0.0028221621,-0.0025046282,-0.0018544843,0.0072560767,-0.00034942076,0.004211094,-0.0037496912,0.008238652,-0.006532639,-0.009349264,-0.0041395267,-0.0074315,-0.004887019,0.0005096863,0.0023842219,0.0017326444,0.005018898,-0.0014375458,0.0022909709,0.00033366153,0.007831113,0.008034714,-0.001972603,0.0012518344,-0.006020132,-0.0047760936,-0.0069902716,-9.470563e-06,-0.0049403193,-0.004037385,0.0015205675,0.0026236563,-0.009137011,0.0017455203,0.0051185633,0.004191479,-0.0028984623,0.009507751,0.009476777,-1.4925734e-05,0.0008421964,-0.009260836,-0.004810621,-0.00013263972,0.0040346296,0.0001876232,-0.008772153,0.005808116,-0.0074327127,0.008585714,0.005520541,-0.0067503843,0.002859381,0.0077666203,-0.0061254045,-0.006562962,0.009231996,0.0017993452,0.009702684,-0.009890074,-0.0014642237,0.0069335136,-0.001483488,-0.0017874375,-0.007087651,-0.0056663486
panama,-0.0065615172,0.008958522,-0.0016201732,-0.008317284,0.008022143,-0.0029653122,-0.0013462036,-0.0006571079,0.0028183467,-0.0047352677,-0.0002793317,-0.0028292271,0.0087779015,0.006924512,0.0011064187,-0.006107645,0.003180724,0.0011562766,-0.0061531533,-0.005793419,-0.00309874,0.002357055,-0.008114275,-0.0050015957,0.00811708,-0.0036997506,0.007960016,0.00052522524,-0.0055295965,-0.0049733585,-0.0002026827,0.004635892,-0.0060611586,-0.005546329,-0.0068130842,0.006773374,-0.0023901165,0.0040509487,-0.0016386169,-0.0074360645,-0.0012649306,0.00042593756,0.0036090603,-0.008723284,-0.006837937,-0.006610683,0.002992849,-0.0037143815,0.0010122927,0.004160043,0.0044982308,0.0023510663,-0.0029230914,0.00065991003,-0.0054148845,-0.0063477117,0.008737147,-0.0040654074,-0.009324521,0.003760514,0.008510328,-0.00021525403,0.0022838789,-0.0035380572,-0.0042530526,-0.00863927,-0.007899845,-0.009099663,-0.0059971563,0.008518706,0.009458507,-0.0016831598,1.2349012e-05,0.00788855,0.0012699793,-0.0051672505,0.0026307483,0.0017667371,-0.0037513725,-0.004897096,0.009693565,0.0076538315,-0.008590123,-0.005546276,0.0014230262,0.0009074663,-0.008378467,0.009385637,-0.0054099862,0.004614275,0.0092579825,0.0010823895,0.004214701,-0.0027171907,-0.00967731,0.0006213198,-0.0010751999,-0.009978983,0.0070388936,-0.007402349
virgin,0.0050965236,-0.004409003,-0.009175939,-0.009042502,0.0062083616,-0.0052505364,0.0052529676,-0.0015803993,0.009720731,0.0071643335,0.009903655,0.008356852,-0.007825445,-0.009590518,-0.0055909636,-0.0008148978,0.0050173565,0.0036312672,-0.001983791,0.005032584,-0.0034051698,-0.0068010385,0.0047195177,-0.009881227,0.0008649981,-0.0049854503,0.0075564357,-0.0037167429,0.0027866608,-0.0062296432,0.009638874,-0.005581457,0.0035755585,0.003257051,0.008949958,-0.0055487324,-0.0044090976,-0.0062348633,0.0061386237,-0.004627166,0.004808761,-0.0008961514,0.0072280546,-0.006024759,-9.3811665e-05,-8.592839e-05,-0.008558629,0.008753327,-0.002086052,0.006446742,9.252065e-05,0.0050253645,0.0021955615,0.008863842,-0.0083673475,0.008440413,0.008678205,0.0010395906,0.0043833563,0.0038269511,0.0040603597,-0.0029194322,0.0028418007,0.0007442701,0.004829398,0.008413574,-0.0077632186,0.00014083376,-0.008766464,-0.001566477,-0.009051499,0.003139013,-0.0015841236,-0.0006733281,0.006465487,-0.008108444,0.0011166192,-0.0024404128,-0.0037290999,-0.007284033,-0.007979602,0.00827341,-0.00745969,0.004861585,-0.003811828,-0.0012175537,0.0027781567,-0.00857813,-0.005608211,-0.0077388226,-0.009368782,-0.004745665,-0.0031779076,0.00050685625,-0.00065938116,-0.007867864,-0.0037927055,-0.0027710926,-0.0063714213,-0.006360647
pago,-0.0026452967,-0.007945143,-0.008266429,-0.0076075145,0.0035448077,-0.0076115853,-0.0037181622,0.0066467095,0.0073951734,-0.006415217,0.006767525,-0.0078020426,0.00014974373,0.006601681,-0.0028380968,0.009244469,-0.00033769177,0.004683191,0.0069898753,-0.008581087,-0.006087975,-0.0072911843,-0.0011719716,-0.0071337502,0.00012068421,-0.008036154,0.0004759536,-0.00039142466,0.0064546037,-0.008884331,-0.003186714,0.0059329728,0.009256102,-0.0017935493,0.0007571035,-0.006091284,0.0007953212,-0.008159245,-0.007653857,0.0013509736,-8.4556654e-05,0.005563238,-0.009782805,0.0016431204,0.00157577,-0.005311637,6.305489e-05,0.0060815727,-0.0066372515,0.00028759424,0.0039004465,0.001688414,0.0028586586,0.008167617,0.006687146,0.003496601,0.008007332,-0.007698693,0.007551676,0.0038825916,-0.005923596,-0.004191386,0.0063767964,0.00581587,-0.009906587,0.0012651376,-0.00041780487,0.0008099933,0.007069048,-0.0071248105,0.009617682,-0.009429692,0.0062541193,0.009516326,-0.0038469427,-0.009415989,0.0061821467,-0.008999867,-0.008304037,-0.0008016318,-0.0066787982,0.008735563,0.007857929,0.00084576686,0.007990229,0.009871159,0.0051739593,0.0043380586,0.0053666644,0.0064157355,0.0047518206,0.0063959695,-0.0074384124,0.008893146,0.008320567,0.009409365,-0.00906243,-0.0034623032,-0.00033591088,0.0041858745
el,-0.008280807,0.00018381551,0.006081903,0.009595788,-0.0028853829,0.0017818379,0.00636473,-0.0019931807,0.0019597064,-0.009382357,0.00071568025,0.004546823,0.004486413,-0.009752648,-0.005186618,0.0029468073,0.0015890782,-0.004712588,0.0057989606,0.0034899397,-0.007818746,0.009870355,-0.0077235443,-0.0030405438,0.009663066,0.0011322481,-0.0055388613,0.0010894317,-0.0041602748,-0.0067307567,-0.007713037,0.0047663567,-0.009077596,0.0040592267,-0.00556535,0.0054651303,-0.0043685655,-0.0056085554,0.0063281828,-0.008704831,0.001340046,-0.002174703,-0.006702908,-0.0076824133,0.0067627584,-0.0044906395,0.004576229,-0.009662986,0.0019104435,-0.0019179533,-0.005890936,-0.0028322998,-0.008671645,-0.0035174894,-0.0026466507,-0.002258337,-0.005120016,-0.009270713,0.0053564333,-0.001366083,0.0061900606,0.0031016977,0.008566204,-0.0035790598,-0.008932026,0.001333664,-0.009012333,0.0060652737,0.008404332,0.00048326372,0.007733654,0.008558787,0.0042658374,0.0054552048,0.0091520585,0.0012048789,-0.008232605,-0.008346033,-0.0018228124,-0.0006328004,0.008855219,-0.009339285,-0.0026201548,0.00915234,-0.0014510815,-0.0090661375,0.0019800635,-0.0058194157,-0.0054619326,-0.0063368166,0.00015518624,0.007237083,0.0041450365,0.008163596,0.008893433,0.004579371,-0.0060472707,0.007056291,-0.00950108,-0.004832594
kuwait,0.008002856,0.0079092495,-0.0054187034,-0.007989391,0.008088854,-0.0038506761,-0.004037439,0.0071968497,0.0054022158,0.003821178,-0.0012294838,0.008688274,0.008479006,0.006958989,0.009059315,-0.0057740645,0.0010038345,-0.0016360029,0.006353933,0.009735129,0.005142076,0.0040363143,0.0065721087,0.00588694,0.00010619892,-0.008343132,-0.0021893117,0.00908666,-0.0050906767,0.0010082043,0.0048950384,-0.006923864,0.008236583,0.0014932352,0.0024413571,0.008330469,0.0014551802,0.00087871135,-0.009447051,0.009877435,-0.009872313,0.00856244,0.0051033664,-4.1153817e-05,-0.007875224,0.0093542645,-0.0014003947,0.0053602913,-0.0030482288,-0.0048918193,0.00016651268,-0.008033281,-0.006634498,-0.009484013,0.0053662644,0.00041364165,-0.0009256707,0.0051312945,-0.0019893085,-0.0074011744,0.0028600774,-0.0059971786,0.0005094647,0.00950037,-0.0009794268,0.0061328504,0.00449458,-0.0035314227,-0.005218041,0.008882213,0.0020958635,-0.00047009578,0.0008824264,-0.0048930305,0.0035458235,-0.0031068064,0.0042260448,-0.004552754,-0.0008004252,0.0039308383,-0.0071641044,-0.0025201642,-0.008703555,0.001551003,0.002025521,0.0023909155,0.0010952998,8.994267e-05,0.0022146055,-0.0009601016,0.0059255282,-0.0029572956,-0.0050851065,-0.005343391,-0.009633189,-0.008104166,0.002146791,0.0039953506,-0.0057616783,-0.009690386
asmara,-0.0061792205,0.004686022,-0.009061716,0.0050864844,0.006339202,0.006111172,-0.007627084,0.0028313547,-0.005457646,0.009044517,-0.0043186327,-0.0023544717,0.0052143997,-0.0008363236,0.005097908,-0.004235063,0.004992089,-0.009796589,0.0060719675,-0.0012508798,-0.005613048,-2.0917218e-05,-0.0012168168,-0.0007265907,-0.0017710229,-0.009275393,-0.007823596,-0.0068026334,-0.008644635,-0.00453075,0.00920263,-0.0018072986,-0.007588397,-0.0059060454,0.003599765,-0.002708765,-0.0015668864,-0.004250366,0.0059532374,-0.007844987,-0.0074991873,0.0075268964,-0.00696507,0.0021640586,0.00037972565,0.0096611045,0.0042365007,0.002067286,0.0027505022,0.00231518,0.0022076434,-0.002739393,0.00409136,0.0061193192,0.008938938,-0.0007319231,-0.0012217772,0.0064786533,-0.0084834965,-0.00064269174,-0.006679593,0.0047863587,-0.00895018,0.0032546215,0.00899978,-0.002070304,-0.008844069,-0.00816675,0.0032418538,-0.0053346055,0.0064507676,-0.001187025,0.007864538,-0.00049014477,-0.006220404,-0.005685748,0.00077047944,-0.0047875014,0.0065654493,-0.0035132847,-0.0056297816,0.0009457795,-0.0048853746,-0.008201726,-0.0052582463,-0.0018576983,0.00043187567,0.003654232,0.0068630995,0.0067347293,0.0058725625,0.0003288017,-0.005813321,0.009013083,-0.0006432463,0.0047368114,-0.0014188071,0.005787604,0.0053054085,-0.007303524
grenada,-0.0027582347,0.00011799532,0.0020209865,-0.009311106,0.004843352,0.003358444,-0.00016004115,-0.003504928,-0.007623434,0.007598347,-0.008608999,-0.007397342,0.0044638393,-0.00852877,-0.0032938188,-0.002064238,-0.0018932687,-0.006860216,0.0043116715,0.0009786178,0.0036603652,-0.0013299504,0.0069387727,-0.009525647,0.005843221,-0.0051406445,0.0016957042,-0.006935879,-0.0024747255,-0.0064434237,-0.0033622666,0.009751169,0.0026911164,0.0016250805,-0.0060811364,0.0055821748,-0.008106128,-0.0022913716,-0.0064758933,-0.0063942475,0.0022921802,-0.0032884446,0.0024253095,0.0039150426,-0.0062725423,-0.0017670719,-0.0027799427,-0.009783132,-0.009862097,0.0011024913,0.004382193,0.00023596684,-0.0048828567,0.0036404605,0.0016831412,-0.009443219,0.0072206827,0.00778456,-0.007711309,-0.0007606775,0.006014713,-0.0027903891,-0.00033686784,-0.004229992,0.006094008,0.0070028924,0.0020894334,-0.004710512,-0.0018144376,-0.003998426,-0.009762375,0.007820759,-0.0006062948,-0.0005922785,0.0070977025,-0.009049546,0.006338491,-0.007577862,-0.005357933,0.005082082,-0.0034844636,-0.003457505,-0.006306091,-0.0039125765,-0.0026662885,-0.00408624,0.009454263,0.009474641,-0.00037710645,-0.00028017117,-0.0056425417,0.007932871,-0.0049334015,0.005885547,0.009134804,0.005757947,-0.00094496907,0.0055185985,0.00695309,-0.0038823797
london,0.00066612713,0.006491942,0.005885934,-0.00018034596,0.0023917507,-0.00652485,-0.009361847,-0.0049595563,-0.005397988,0.0005932823,-0.0039616744,-0.00036493648,0.007631174,0.009737948,0.00787842,0.002388607,-0.0026939795,0.0024346437,-0.002700673,-0.008985176,0.0069028325,-0.008625887,0.0038032767,-0.0039540776,-0.0055375136,-0.0010452687,-0.006581641,0.008559906,-0.0068913484,-0.008973093,0.0057763997,0.0044596368,0.00473951,0.0024250487,-0.0037179599,-0.0051186127,0.0017592218,0.008348962,-0.0056595337,-0.002404352,0.0018575944,0.0067087025,-0.0063995467,-0.004526676,-0.00263266,0.0013251085,0.0053493935,0.0055524088,-0.008701125,0.007287942,-0.00249273,-0.002863401,-0.008864814,-0.005766747,0.009448396,0.0031063922,-0.008048547,0.0028019564,-0.0070709973,-0.009068005,0.003890179,0.0020339638,0.0012591259,0.008859665,0.006244228,-0.005087903,0.002707203,0.0025497095,0.0023965118,0.008341398,-0.006931322,-0.0022851862,0.0010088659,0.006388209,-0.0006430589,0.00793861,-0.0046550697,-0.009046106,-0.007057404,-0.0041488344,0.009590693,-0.0051344023,-0.004862527,0.008182569,-0.007443548,0.0020131692,0.0057160575,-0.007507436,-0.0002734545,-0.002366656,0.0055689714,-0.004575766,-0.006594588,0.009915744,-0.004620674,0.007614457,-0.008445181,0.0070200884,-0.0033863531,-0.007824395
tallinn,-0.0011863711,-0.0023714872,-0.00181375,-0.0011801122,-0.0065044,-0.003552292,-0.0031990842,0.0077519333,0.005869364,-0.00088986807,-0.004820985,0.005285993,-0.008843382,0.0016404773,0.0039905678,-0.0019557418,-0.004523768,-0.008229796,-0.008268432,0.0071261823,0.003634791,-0.00038908367,0.009730303,-0.008539153,0.00058699714,-0.0004502315,-0.008070073,-0.009105799,0.007188248,-0.0036378356,-0.00789019,0.007952942,-0.0062289257,-0.0031149222,0.0017737282,-0.0033415838,-0.007958063,-0.003934356,-0.009027809,0.0013944705,-0.004630352,-2.4006944e-05,0.002722695,-0.0023737845,0.008834338,0.0070430473,-0.0005506288,-0.0006256972,0.00084197905,0.0067627938,0.008973276,-0.0019375244,-0.0016038086,-0.0029831403,0.0004978896,-0.0064803855,-0.001874002,-0.008661253,0.00066079467,0.0014138807,0.0036999292,-0.0028785653,0.0059313094,-0.007091185,0.009816925,0.00053054735,0.0023043773,0.0043570274,0.00040591834,0.0026020522,0.0016219212,-0.009615654,-0.0031464845,-0.002589697,-0.009264964,0.0034311593,0.004804293,-0.0020884764,0.007427543,-0.0011971925,-0.00026879125,0.005793797,-0.008477249,-0.0069118096,0.0073646815,-0.0065851966,0.008464756,0.005349388,-0.008062049,0.008413213,0.0063270233,-0.006711416,-0.008462667,-0.008853103,0.003839465,0.0063582812,-0.0021147253,0.0013415853,-0.00840407,-0.0051104585
egypt,0.004708185,-0.009061289,-0.009241912,0.0010067942,-0.008607806,-0.0069465507,0.004759371,0.0080161365,-0.007376572,0.008110236,0.009387897,0.00471274,-0.004405883,0.009673425,-0.00774042,-0.0039024104,0.0019363455,-0.00763689,-0.009896473,0.0028699962,0.008194725,-0.005109634,-0.004293198,0.003916653,0.0006813134,-0.008534171,0.0065566283,-0.0031643016,0.0035824347,0.003156462,0.00887229,0.008735335,0.0073183076,-0.008276889,0.0011994069,-0.0009664322,0.00087088987,0.008915593,0.00476238,-0.008940129,0.009836877,-0.00088154274,0.0004100677,0.0049573616,-0.0062189894,-0.00041400074,0.0013663366,0.0070475666,0.004280222,-0.0019383908,-0.008475161,-0.0038991468,0.008778995,-0.009502995,0.009844734,-0.00014244164,-0.0011325092,0.009608628,0.009577651,0.008272244,0.009015552,-0.009995399,0.007507098,-0.009382883,-0.007721488,-0.008838599,0.002151281,0.0071974304,-0.006329145,-0.0027216785,-0.0023557572,-0.004480691,-0.0013062288,0.004869241,0.00372099,-0.0032384074,-0.0037226619,-0.0023510759,-0.0032374994,0.0039687674,0.009760083,0.007837561,-0.0075686453,-0.006460806,-0.009141867,-0.005939033,0.003638174,-0.0060183643,0.0017195622,0.008895474,0.0033492686,0.0011983515,0.008919835,0.0064245723,-0.0014293786,-0.0062084924,-0.0010569339,0.0072720153,0.0074974555,-0.0040423255
kingdom,0.009942253,0.0024386395,0.0051307003,-0.005656279,0.0043537836,0.00025806073,-0.009573717,0.005051813,-0.009048951,-0.006486327,0.0027799096,0.009280567,-0.002133388,0.0069614775,0.0050763674,0.0040544104,-0.0061861984,0.005074123,-0.008339055,-0.004348517,0.0054944945,-0.008132084,0.005741713,-0.0034948569,1.446004e-05,-0.00733005,-0.0062563634,-0.0033345437,0.008592803,0.005351026,-0.009683061,-0.006561938,0.00341987,-0.008534439,0.0066535533,0.006158695,-0.009298198,0.008667756,0.007840635,-0.0018331249,0.0017777956,-0.0057228836,0.0062326356,0.0076899603,0.004051356,-0.008868801,0.0049597174,-0.0030814025,-0.0021812678,0.0061231675,0.0018430605,0.004614741,-0.0062967264,0.0052231182,-0.0035543453,-0.00036243754,0.006200486,0.0040765074,0.0074598156,-0.0039119544,0.003565935,0.007318955,-0.0032780245,0.005768795,-0.009423876,0.008844855,0.003745884,0.0053319167,0.0046304897,0.0045589977,-0.00332246,-0.006192365,-0.0022948608,0.0013918065,-0.0029302377,-0.008457707,-0.006303419,0.008349339,0.009344762,0.005968691,-0.004095573,0.0006728958,-0.008592185,0.006658563,0.00045365837,0.007363161,-0.005375521,-0.0028527312,0.0028767507,0.0034641786,-0.0065380284,-0.0073843584,0.0020321854,-0.009008945,0.0058204476,0.005480017,-0.0038173634,-0.005643011,-0.008334142,-0.0019019743
estonia,0.006955778,-0.00020054363,-0.007930524,0.008887831,-0.008562601,0.0055501955,0.00648068,0.00097285234,-0.008713635,0.0061660022,-0.0078590745,-0.005016515,0.009627401,-0.008287136,-0.007618839,-0.0048991917,0.003456807,0.0019065038,-0.0055770315,-0.0032855636,0.008602884,0.009767088,0.009942947,0.0010484841,0.004030486,0.0013802747,0.0016599653,0.0048366254,0.002211728,0.0003093988,-0.003153223,-0.006519626,0.007975533,-0.0059753302,0.002778553,-0.0009246644,-0.0036493603,-0.004925089,0.0032118373,-0.005860984,-0.007501796,-0.0026508314,0.0047039795,0.0060352916,-0.0014622589,0.007288775,-0.007600403,-0.0047341306,-0.007857164,-0.0060463566,0.007301503,-0.009294758,-0.008652054,-0.009848671,0.00919826,-0.0026767242,0.0010016712,-0.006139681,-0.0025435446,7.75443e-05,-0.0025123723,-0.0073796236,-0.0061802687,0.002532698,-0.009488866,0.0011310468,-0.001970069,0.008296507,-0.00040756265,0.006246483,-0.007091562,-0.0075733443,0.0055394387,0.00095382024,-0.0050870692,-0.0026737335,0.008780158,-0.009184323,-0.0036906917,0.0010061101,-0.0002278542,0.009515076,-0.0019410567,-0.0071009286,-0.007673128,-0.009920073,-0.0078412155,-0.0060263774,-0.0059448546,-0.0014032645,-0.00053883035,-0.0047157235,0.0021472594,0.0038397703,0.009038728,-0.00464674,0.0051396587,0.007261618,-0.0037482134,-0.0074335444
ecuador,-0.0033478849,-0.006888472,0.006503107,0.009389685,0.008268364,-0.008536318,0.005063858,0.0051036924,0.0056220316,-0.00832429,3.691905e-07,-0.006848861,-0.008903397,0.00248555,0.009941334,0.0064854138,-0.007067794,0.0023263607,-0.003902944,0.0099378945,-0.008801824,0.009742224,-0.0065159667,-0.0070108096,0.0016207707,-0.00067580986,-0.008520014,-0.00063183793,-0.00036953884,-0.006262843,0.005759282,0.0031892871,0.008393581,0.007399881,-0.0066539114,0.004799625,0.0056994027,0.0057702237,0.005210263,-0.0047751046,0.0043144273,0.001305775,6.373736e-05,-0.0064553833,0.0015152626,0.005267617,-0.009231935,0.008606863,0.0029974296,-2.9610406e-05,-0.0033487452,0.00035191723,0.006080428,0.0047604227,-0.005973803,0.007883759,-0.00062234286,-0.008174644,0.008879877,0.0050992263,0.0036217168,0.007926686,-0.007527758,-0.005839867,-0.0020109871,-0.0040967325,-0.0016111918,-0.00060823525,-0.008397188,0.0018917847,0.0025726717,-0.00083133933,0.0048738946,0.0014732251,0.0060025486,-0.002232415,0.008526359,-0.0015782169,0.0030760416,-0.0037733307,0.006125412,0.003078604,0.00054100493,0.008770961,-0.007851656,0.009732854,0.0007788795,-0.0023555132,-0.0041302936,-0.009109575,-0.002218635,0.0026994678,0.00659796,0.009067013,-0.0087383585,0.009074393,-0.008845951,0.0037117328,0.008029447,-0.0025324048
quito,-0.007871025,-0.008339481,0.0011579561,-0.0007639333,-0.009522174,0.0030954739,0.0022642245,0.004454457,0.004439988,0.0032371383,-0.009810896,0.0057176226,0.0042767636,-0.007748065,-0.0021353115,0.00034517274,-0.0006428753,-0.0009773924,-0.0055355085,6.096366e-07,0.004430536,-0.0006818732,0.0008014791,0.002085078,-0.0039842543,-0.007879603,0.009173059,-0.009807928,-0.0024664782,-0.0012666488,-0.0076645846,0.0017743045,0.007946328,-0.0015046613,0.008100073,0.0003161525,-0.0057868175,-0.0019765315,-0.00073268125,0.006251469,0.0071272664,0.0062166806,-0.0059984117,-0.0069882767,0.006089696,0.002469796,0.00533616,0.00044870676,0.007874668,-0.008873426,0.009879023,-0.008243961,-0.0017066058,0.006275373,-0.009228401,0.0043303147,-0.0069607883,-0.006867422,0.002292636,0.001716143,-0.0028060074,0.007877405,-0.007028072,0.00045451222,0.008727728,0.0020194591,-0.006851831,0.0035390558,-0.0050351513,0.00057141046,0.002852435,0.0075820386,0.0073903506,-0.0048875376,0.009530255,-0.0054976456,0.0076379916,-0.007995377,-0.0078339735,-0.0011131422,-0.008156605,-0.00346121,-0.00049692014,1.764461e-05,-0.009977084,-0.0065037846,-0.007419964,-0.00037586104,0.005195288,-8.014695e-05,0.009983696,-0.0038791308,0.008059841,0.0060904,0.008263065,0.000116378,-0.00043371355,0.0018899771,-0.009929975,0.009061612
algier,-0.0023944103,0.007537993,0.0020562946,0.0029078298,-0.0012361902,-0.009905609,0.0014056739,0.0028899244,-0.009806255,-0.0039131413,-0.0023616238,-0.005075759,0.0039665457,0.0021033103,0.004343013,-0.0064774374,-0.005995787,0.004722921,0.006762207,0.0055172457,0.004800216,-0.0072304667,0.008155526,-0.0069665825,-0.007653854,0.008499133,-0.0024712803,-0.009407737,-0.0030986562,0.00597061,-0.002888318,0.004923332,0.00011426018,0.004071165,0.0011865287,-0.009327658,-0.003646657,0.008841532,0.0015316969,-0.0059137084,0.007004672,0.007471648,0.0072561996,3.6239041e-06,-0.009148131,-0.003485704,0.005134147,-0.0065187,0.00975977,-0.009754456,-0.008145776,-0.0053295605,0.0060113254,-0.0076791113,0.008638396,-0.009856417,0.0034883935,0.0032886672,6.436619e-05,0.00955735,0.0051054987,0.00030261502,0.0048190732,0.0064340164,0.00302091,0.009407011,-0.0013497425,-0.0083855605,-0.004481205,-0.0014935117,-0.00727557,-0.001556263,0.00793703,-0.0050227116,0.0050981147,0.0043624584,-0.00070094765,0.0010720412,0.0057447245,-0.006662819,0.0038986728,0.008911315,-0.0034959961,-0.0076059923,-0.009208116,-0.009009853,0.003877528,0.005137939,0.007044557,-0.0014554745,0.0009788363,0.003058362,-0.009896103,-0.009400152,0.004611009,-0.008399569,-0.0031861742,-0.00432265,0.0059262137,-0.0034357444
algeria,0.00997964,0.0005505624,-0.0051393113,-0.0036202858,0.0012655167,-0.0053719548,0.0074155554,0.009018622,0.0043105464,-0.00736332,-0.0059365523,3.0988213e-05,-0.0010105819,-0.005519148,0.007939665,0.0062311403,-0.004201319,0.0023759098,0.0051276186,0.0024050714,0.008571605,-0.0012931828,-0.0065138717,-0.00084198243,-0.0083339475,0.009856294,-0.008620695,-0.0015266989,-0.0028450156,0.0031530906,0.004982718,-0.008240299,-0.004403985,0.0004922413,0.0039897594,0.0051084873,-0.00139456,-0.00061899127,-0.007845618,0.004548456,-0.0076518604,0.0032944062,-0.0034169643,-0.007792333,0.0068953284,-0.0004417715,-0.009550813,-0.009385979,0.0005942292,-0.0081932405,0.003742053,0.003486085,0.0033663916,-0.0056235245,0.0079881195,-0.008986247,0.0074601634,-0.00061504776,-0.0014813179,0.0039595426,-0.0024844892,-0.004412685,-0.0024295656,-0.006182026,-0.00035977457,-0.0053928164,0.004615057,-0.009525163,-0.004354335,-0.009157885,-0.009606419,-0.0007552894,-0.008084614,-0.005693,0.002792229,-0.0014371569,0.0030963812,0.008267369,-0.00964686,0.006086175,-0.007959776,0.006534558,0.007473505,0.0085956035,-0.007963678,0.0033405335,-0.007841856,-0.0012548226,-0.0052028093,-0.008552155,0.0049347132,0.004413308,-0.0040703868,-0.0077824784,0.0035609095,-0.00392438,-0.008875027,-0.004396792,-0.0021691625,0.008760511
domingo,-0.006456461,0.00734102,0.006138119,-0.004929229,-0.0017679186,-0.0025446545,0.0031322532,-0.00042242534,-0.0027653617,-0.009060808,0.006414595,-0.009622303,-0.008658646,0.0013867335,0.0029547173,-3.4393452e-06,0.00036812306,0.0025628384,0.0018053108,0.0075709894,-0.0034336026,-0.0072232285,-0.007897544,0.0079154875,0.001928467,-0.005807871,0.006377836,0.008452223,0.007918575,-0.0068325507,-0.0051307785,-0.002000193,-0.0066091185,0.00470724,0.005647289,-0.0060010767,0.0071821343,-0.0076793404,0.006196277,-0.004644009,0.0019908806,-0.003285204,0.003385069,0.0077155936,-0.0013993994,-0.0050040837,-0.008574934,0.0036425402,0.004242533,0.0066956687,-0.0042835334,-0.009746422,0.006821976,-0.004514534,0.004413897,0.008083414,-0.003934585,0.0016389852,-0.0035949717,-0.0066240462,-0.005690749,-0.00013608737,-0.0075595886,-0.001998674,-0.0025161144,0.0067264503,0.0013548819,0.005851637,0.0038128223,-0.0035237384,-0.005085566,0.009649743,0.007075586,-0.009045467,0.0052593965,0.008194051,0.009208334,-0.008061951,-0.0020380265,0.0011011855,0.0029090277,-0.0016008619,-0.004698211,0.0065075248,0.006931481,-0.00038593198,-0.0058422117,-0.004347165,-0.005151662,0.004258284,0.000533363,-0.002354655,-0.009100383,-0.0014922284,0.0064545223,0.006358026,0.0042327964,-0.0029079504,0.0090506235,0.0006060109
tbilisi,0.0011269579,0.0061884797,-0.006588483,0.006560798,0.009779823,0.003674509,0.0034171436,0.0042009894,-0.0019525499,-0.008094419,0.001477077,0.00090137636,-0.0068144696,0.0019595253,0.0054576024,-0.0072114393,0.0025101912,0.0077639497,-0.008650435,0.0035128682,-0.008558478,-0.007934726,0.007103914,-0.0075668646,-0.0013628282,-0.007927096,-0.007879223,-0.0071311523,0.00041263187,0.0018159542,-0.007899256,-0.008053211,-0.0031849984,-0.001835738,-0.006177851,-0.004238613,0.0036142643,0.0030867031,0.0066053085,0.0042538014,-0.00087155966,0.0027506892,0.009061502,0.0019166667,0.0018098147,0.0011353111,-0.009292897,0.0053379633,0.0050615566,2.4482504e-05,0.009227048,-0.005723799,0.0032571116,-0.0078041437,-0.008949291,0.0020107627,0.004745497,0.0061142957,-0.008722473,0.0043723155,0.002392154,0.0041508884,-0.00068791717,0.0055376915,0.0072909305,-0.008384623,-0.00993477,0.0070247464,-0.0009717711,-0.009376069,-0.0040933597,0.0011780529,0.008441008,-0.0016946689,-0.0010204626,-0.007362652,-0.0076633613,0.0014712379,-0.00047694123,-0.0077049043,0.00087825075,-0.0089994045,-0.0024883342,0.004211375,0.001114429,0.007828087,0.006585789,-0.0011809237,0.0049550664,0.006155362,0.008743868,0.009066274,0.004910438,0.0046057925,0.007187681,-0.0015565342,-0.0056459233,0.008875004,0.0012045574,-0.005049553
santo,-0.0008851915,-0.005219824,0.00915836,0.0034217963,0.0042700726,0.0064830813,0.008202451,-0.004743177,-0.0063609686,-0.003762949,-0.0037375526,-0.00946459,-0.000593563,-0.008117334,0.009753079,-0.003418234,-0.0063098376,-0.008128371,-0.0035589756,-0.009555332,0.00083491,0.005451759,-0.0028588476,0.0076663154,-0.0018908244,-0.007274867,-0.0031386528,-0.0031624492,-0.0071328115,-0.009692334,-0.0040254937,-0.0015981003,0.0050436747,-0.0076427157,-0.0050275167,0.0013590497,-0.001702211,0.0035266865,-0.001888517,0.0042836126,0.007991021,-0.007902908,0.0037560973,0.0059762183,-0.00058039284,0.0067586377,-0.005453992,-0.00460598,-0.007842723,0.009499846,-0.009411783,-0.0032733271,-0.00043855916,-0.004843642,0.009465669,-0.0068132016,-0.008032574,0.009230079,-0.008317678,0.009669915,-0.00411341,0.0056717023,-0.00044147152,-0.0040089064,-0.0075263665,-0.0063094846,0.006821233,0.0063034217,0.0001560101,0.0063503003,0.0038482447,0.003856365,0.002739655,-0.00969241,0.009247049,-0.00818982,-0.0030264815,0.0014191616,0.0052426057,-0.009236166,0.0016993512,0.006360861,-0.008753054,0.009623946,-0.0052576093,0.009576865,-0.0065260525,0.0066283476,0.009416728,-0.009249375,0.00031798775,-0.007727808,0.008111194,0.009586374,-0.0060256366,0.00087212294,-0.0022383174,-0.0078097647,0.00083901087,-0.009888632
dominican,0.0026127952,-0.0076845493,0.005704509,0.0075564925,-0.002566024,-0.0040529496,-0.009599424,0.004953187,0.002906954,0.008732723,0.003281593,-0.0029078654,0.0035476384,0.008635462,0.009211452,0.00763409,-0.008554065,-0.0075957254,0.007262905,-0.007444379,0.0032655653,0.0080376025,-0.0032192366,0.006756839,-0.008172911,0.006491803,0.0055802097,0.0033353558,-0.008152877,0.009159191,0.008238035,-0.0015552668,0.0041154176,0.006349255,-0.0017613895,0.005478409,-0.004052988,-0.001299644,-0.0012174246,-0.0041834586,-0.0006796107,-0.0077169994,0.0036361103,0.00905769,0.0047759074,0.0063687367,-0.00474819,0.0048697656,-0.0066681886,-0.004969905,0.009874424,0.0063897185,-0.00498917,-0.0060646255,0.0072233463,0.0027349386,0.0065951375,-0.006751829,-0.0009808927,-0.00095771643,-0.00022739173,0.0022251548,-0.0067968275,0.0043768818,-0.002776778,0.008368514,-0.001039129,0.00915805,-0.0008472583,0.005205842,-0.0075851534,-0.009107236,-0.0003370921,-0.0022575767,0.009984572,0.0045261784,-0.0055550267,0.007354889,0.0005637427,-0.00953902,0.005719089,-0.0019873825,-0.009413193,0.008745783,0.007247823,0.008555015,0.00036215878,0.007700458,0.005181903,-0.006939027,0.009302405,-0.003555006,-0.00975339,0.008565427,-0.005281236,0.00843092,-0.007844177,0.009239956,-0.00591666,0.0040042317
roseau,0.009774217,0.0042120097,-0.0021366475,-0.0049437936,-0.009720028,0.0042042327,0.0074386774,-0.0047314875,0.0059196684,0.006835582,-0.009031424,0.002091388,-0.0068511944,-0.0043305526,0.00085390755,-0.007032478,-0.0041319886,-0.0075159115,-0.0070261136,-0.006961165,0.009918749,0.008324743,-0.00017986285,-0.0026365204,0.0062452173,0.0013258394,-0.0089984,-0.0070629455,0.0010353508,0.007945991,0.0032103376,0.009849644,0.0065532634,0.0003141742,0.008669836,0.0090166,0.008072034,0.009407021,-0.009388368,0.0035189914,-0.007814109,-0.007146335,-0.008436027,0.0032012588,-1.230415e-05,-0.0063381214,0.005556342,0.007910225,0.0043176864,0.007829024,-0.004258796,-0.006407353,0.0039648945,-0.0029260362,-0.007184239,0.0036933522,-0.0033228823,-0.005203907,0.0026124003,0.0068689887,0.006383015,0.00015174027,0.00865048,0.002943454,0.006575747,-0.0009005665,0.002105354,0.0061707525,-0.009804056,0.005828818,0.0012680183,0.0060657007,-0.0014502137,-0.0026802171,-0.005580102,-0.002856765,-0.0025748634,-0.005150096,0.00097402156,0.007998335,0.0051373513,-0.0076673003,-0.007409337,-0.0028740873,0.0039019163,-0.009314439,0.0061095217,0.0031230133,-0.00281629,0.009189009,0.008081608,0.0007183422,0.0048377053,-0.009316831,-0.008788648,-0.0029560186,0.009278411,0.0032193882,0.0056127277,-0.006770795
librevil,0.0042379424,0.00039384136,-0.00088515936,-0.003242422,0.0049697524,-0.009119388,0.0051137023,0.005677819,-0.0024364518,-0.00422182,-0.0074018603,-0.0063852794,-0.005124407,0.0031481155,-0.004806571,-0.0011995478,-0.008908541,-0.0035161222,-0.000783635,-0.00795014,0.003258523,0.009776694,0.0044004316,0.0018396543,-0.0048752367,-0.0011448647,0.0022291201,0.0017342629,0.008814188,-0.0009316657,0.0070070405,0.0057754614,0.0030327693,0.0073192534,-0.0049489825,-0.0039647026,0.006977207,0.008612904,0.0031552503,-0.0041120956,0.0076422393,0.0027175487,-0.00024807517,0.008859003,0.004327388,0.0039444966,-2.2706052e-05,-0.008928346,-0.0031340807,0.0024468862,-0.0056039393,0.0071303984,0.007463793,-0.008947773,-0.00539873,-0.0059732716,-0.00067381153,-0.0018241956,-0.002053599,-0.0022089733,0.003569082,0.009616743,-0.0045730947,-0.008300431,0.0037474672,-0.0064641717,0.0066764713,0.0026813266,-0.007870839,-0.0077711786,-0.009258706,0.0023529518,0.002743276,0.0026440741,0.0001913124,0.0010659625,0.0030695167,-0.0015738034,-0.008030602,-0.00062977424,0.0037094438,-0.00258769,-0.0021361825,-0.0022450762,0.007265266,-0.0030427503,0.009449711,-0.0038483231,-0.009983701,-0.006559233,-0.0043570274,0.001236653,0.005126406,0.0021339352,0.009079898,0.00091607514,0.0056406413,0.00013673122,-0.002123743,0.0062176683
pari,0.0020166924,0.008251516,-0.008291118,-0.008750295,-0.0005476274,-0.0019065022,-0.002348971,-0.0005979994,-0.005073071,-0.008023099,0.008254169,-0.0033531298,-0.0028458752,-0.0016407443,-0.0012284005,-0.009196867,-0.0018006355,-0.0013494848,0.008645726,-0.007972327,-0.004749922,-0.0019013333,0.0028884693,-0.0060157543,-0.005543921,-0.00795694,0.005535125,-0.008714155,-0.0032560376,0.0003010242,0.0014340177,-0.009921032,0.008664096,-0.0020510496,0.00035050986,-0.008810392,-0.008167597,0.003775367,0.003998489,0.002995281,0.005837988,-0.006926615,-0.0012381506,-0.0027321433,-0.0014253936,0.0044900463,0.0013764728,-0.007451457,0.0032477605,0.0062575345,-0.0060994527,0.0032134068,-0.004321589,0.008828105,0.0041328864,0.0020496976,-0.001016527,-0.009109249,0.008643488,-0.0018054135,0.007392274,0.0037627637,-0.008260002,-0.0006104748,0.0027165578,-0.0025527158,0.009727564,-0.0049872273,-0.0071569877,0.0038112416,-0.0035768782,-0.0069118333,0.002036342,0.0052611646,-0.005500466,-0.004376553,-0.00717556,0.0015663458,-0.0047662547,0.008434052,0.0007184567,0.0018594342,-0.0033355309,0.0073936842,-0.00067520817,-0.0081988815,-0.0073327445,0.00020712151,0.007743506,0.0030874892,-0.0053116726,-0.0067542554,-0.00986439,0.003929924,-0.009532773,0.0031923358,0.0016641436,-0.000821254,-0.009958484,0.0058893934
cairo,-9.607179e-05,-0.009926356,-0.00755165,0.008579805,0.0018937741,-0.008170248,-0.00081395794,0.005404955,-0.009331241,-0.006874638,-0.0010247269,-0.009777944,0.00047930342,0.0019523968,0.008540209,0.0009856983,0.001301714,0.004888691,-0.004299268,0.0072387927,0.00015329239,-0.0006822475,-0.009712919,0.00050130096,0.0067941467,0.0017716666,-0.0080932975,-0.0033353758,-0.0060356227,0.006028604,-0.006472276,0.0052803447,-0.0052541895,-0.006835754,-0.0075876913,0.0038183725,-0.0087883,-0.0057137413,-0.0070663784,-0.0043072407,-0.004034267,0.0014959142,0.00649189,-0.0011936586,-0.0054993345,0.0015568091,0.0056485143,-0.0053013735,-0.005341815,0.005165441,0.0062594833,-0.007775321,0.008212439,-0.009854783,-0.00742109,-0.0058691646,0.0018229911,6.953026e-05,0.0034559183,0.007032492,0.004797147,-0.003206213,-0.0064299554,-0.008255686,-0.00047784578,0.009728364,-0.0076708924,0.0036515684,0.0043734265,-0.004332418,-0.0069728126,-0.005454992,-0.0050552394,-0.006989778,0.0059494004,-0.0077767433,-0.0029521347,0.0043935115,0.00017972848,-0.007687612,-0.0046893666,0.0035861968,0.0025513645,-0.00195796,-0.0007325919,0.002555371,0.0014273777,-0.0026407333,0.0053584464,-0.00767059,0.0063824034,-0.009982547,-0.0022678105,0.006683366,-0.0036215768,0.006539557,0.0054219733,-0.0074019684,-0.00024970932,-0.0044895494
gabon,-0.008081337,-0.00089459756,0.0063968776,0.008732373,-0.0050440496,-0.0026724008,-0.006043872,0.0011739956,0.0026666084,-0.009861211,0.0024116659,-0.008828825,0.00039998716,0.004763705,-0.005253206,0.00025584744,-0.0021826043,-0.008705458,-0.0024048244,0.00445868,-0.008571196,-0.0059107835,-0.00054441125,0.008049491,0.0014080259,0.009767853,-0.007687419,0.0089827115,-0.004740596,-0.0063603735,-0.007844726,0.0018525891,-0.0027497355,0.0075535243,-0.000521752,0.0025111663,0.0059676636,-0.00866067,-0.0020738677,-0.0047973515,-0.008682383,0.0034222011,0.0024001368,-0.0023994173,-0.0019130948,-0.006729138,-0.0032692042,0.0013130725,0.007740025,0.0070723663,-0.0035916166,0.0036112124,-0.0025899012,-0.0047288137,-0.0036193947,-0.006146285,0.0034928431,-0.007796338,-0.007514615,-0.0045111654,0.007397361,0.001826308,0.0054648877,0.008228886,-0.0062410817,-0.0046263244,0.0076707895,0.0049363836,0.0046577337,0.009005527,0.008801282,-0.002663113,0.0010404374,0.0054855957,0.008891517,0.0098682465,-0.008271175,-0.0051451637,0.004993572,0.00095966144,0.0001621858,0.0075150277,0.006398307,-0.0072347536,-0.0026086015,-0.008486029,0.0070528025,0.0027875951,-0.0022269923,0.0018711234,0.0076798387,0.008136876,0.006171885,0.003180594,0.0015757028,0.008150616,0.0013182164,0.0004332263,-0.00955967,0.0025296216
ethiopia,-0.008483209,0.006502433,-0.005793623,-0.0017537109,0.00096745184,-0.0018816707,-0.00912228,0.0039832527,-0.006581303,-0.008805988,0.003910116,-0.00076193974,0.0065163914,-0.0070377286,0.0007926327,-0.00070473604,0.005751961,-0.009749726,0.0059149736,-0.008988248,-0.007762501,0.0007375588,-0.0026800218,-0.0038968907,-0.005317176,0.0041116583,-0.009310143,0.0011540514,0.0041830903,-0.00028246327,-0.0005036234,0.007176396,-0.009571099,-0.009048988,0.0044391695,0.008731829,-0.0077983877,-0.008308538,-0.0006524594,-0.009046616,0.0021133968,0.009228313,-0.0061322646,-0.0067610913,0.0089297155,-0.0007635362,-0.0037403132,-0.0027169068,-0.008743402,-0.0046356134,-0.004149194,0.00025206635,0.00071527483,0.007616452,0.006809536,-0.0015311886,-0.0099664,0.0026173186,-0.0061521786,0.00910849,0.0038152444,-0.000996638,0.0066271406,-0.003514063,-0.0036981683,-0.00033125104,0.008410901,0.005950693,0.0015708116,0.0037809499,-0.0029983334,0.0092520155,-0.007129501,-0.003223935,-0.005295073,0.008729635,-0.0031362844,-0.002373918,0.0071412823,-0.009703363,-0.0029129344,0.0028835884,-0.0062912703,0.008772107,0.0011494991,-0.0052265357,0.004940879,0.007986475,0.00093803037,0.006821756,-0.0068333847,-0.0036209903,0.009933264,0.0056770057,0.0015966542,-0.0034721475,0.004405942,0.002496206,0.00836694,2.2681038e-06
addi,0.008579759,-0.005835625,-0.0076117082,-0.0014099185,0.0029862414,-0.0020009342,0.005899631,-0.008402777,-0.009014271,0.0075600827,0.006332538,-0.0041142427,-0.004005637,-0.0035829763,-4.0061725e-05,0.009062976,0.00095549604,-0.0020730358,-0.0034347752,-0.0021269044,-0.009190879,0.006824819,-0.0090374835,-0.00307321,-0.007137182,0.009071079,0.0057830955,-0.0004970821,0.0039033494,-0.002419735,0.009809206,-0.0036274781,0.004875525,-0.0037906065,0.009539984,0.009513765,0.006224579,-0.00025698743,-0.0017082634,-0.008673378,0.009336239,-0.008450025,-0.006567714,0.0055960733,-0.0022682273,0.007960834,-0.007898432,0.009198166,0.002258633,-0.008567018,0.003940657,-0.004970998,0.006385961,0.0065716607,-0.008770161,0.0064712525,0.005287443,0.006504072,-0.007074971,-0.006557421,-0.008858824,0.0052617197,-0.0040096417,0.004790475,0.0047800518,0.008098061,0.0022445912,-0.0010759773,0.0014544675,0.0029990189,-0.008780476,-0.0059998,-0.00094463956,0.004900509,-0.0001711352,-0.009655413,-0.00064175826,0.007148619,0.006333193,0.003481472,-0.0046153353,-0.0037245322,-0.0021077732,-0.0059874346,-0.008609332,-0.00054831634,0.0018089166,0.0048420453,0.003618079,0.008560494,-0.0067641386,0.0092708375,-0.003332819,0.000820944,-0.00424,-0.0040436788,-0.0014880474,-0.0075395997,0.008979464,0.004560138
ababa,-0.002277537,0.0019272891,0.007796821,-0.005604372,0.0038017887,0.0007184729,0.0028858583,-0.0021305555,-0.009888403,0.0058799223,-0.0014352695,-0.008321161,0.0007232557,-0.0061894273,0.00769566,-0.0064210873,-0.0016354038,-0.00041787777,-0.0042855605,-0.0034161503,0.0073506813,0.0018633881,-0.009401774,-0.000282142,-0.009537136,-0.0031696432,0.0049658795,0.0036900067,-0.0057540494,0.0014642192,0.005821851,-0.007492116,-0.0033744262,-0.0024889223,-0.008897961,0.002105506,0.006508763,0.0024409455,0.0023664373,-0.0008212261,-0.0008133147,-0.006284082,-0.0005031693,0.006578709,0.0029783659,0.00053591724,0.007843086,0.0028083655,-0.0074231625,0.0072945068,0.009566698,-0.009077326,0.0072359913,-0.007605151,-0.00037459013,0.0046067443,-0.0057366146,-0.0079423,-0.00732092,-0.009893313,-0.006662298,0.009566526,0.002933917,-0.00907589,0.008499732,0.0072251894,0.007856343,0.009615214,-0.008683074,-0.0021997942,0.002094922,0.0024241975,0.004842717,-0.007724665,0.004811851,0.009939537,-0.008976793,0.007912915,0.0032118675,-0.0041582035,-0.0015517913,-0.008530067,-0.007502192,0.00552508,-0.0031599302,0.009988205,-0.008013404,-0.007026756,0.006161624,0.007893589,0.003686411,0.0072453916,0.0064835125,-0.0057737557,0.008696417,-0.0063114357,-0.00288076,-0.0060147773,0.0061081187,-0.0043790955
finland,0.0030561471,-0.0015894121,-0.001187909,-0.005856188,-0.005766021,-0.0035795989,0.00033326264,0.0014811798,-0.0033124993,0.00194674,-0.005683614,0.00999254,-0.00083528244,-0.0069719073,-0.001849409,0.007956007,-0.0010898887,-0.0051517785,-0.008051067,-0.005865515,-0.0031881775,0.007718104,-0.0072229067,0.0014345098,-8.065303e-05,0.0039434438,-0.00794799,0.007946128,-0.0027895314,0.005292162,-0.009505102,0.005100427,-0.008259416,-0.0032620898,-0.0011791515,-0.0036337199,-0.0007392523,2.9301056e-05,0.004513574,-0.002248362,-0.0040223505,-0.006178274,0.008331936,0.004607215,0.009110394,0.00548002,-0.0046117306,0.008288117,-0.0069724503,0.0030402706,-0.0033552304,0.00025616406,0.0037682795,-0.002816411,-0.0044234525,-0.0019401485,0.00051402807,0.0064596166,-0.0058490695,0.004685656,-0.003714215,-0.007954356,-0.0056065316,0.0018670976,0.008797675,0.007871984,0.009183507,0.0069028377,-0.0029742005,-0.0024347783,0.008822474,0.006482541,0.006023457,0.0068855747,0.0016268549,0.002399924,-0.008210968,0.007559642,0.009436766,-0.007081444,0.0011484604,0.008737302,0.0036685346,0.0069518825,0.0076184445,-0.0019210138,0.0088606225,0.0060053654,-0.0018812545,4.9256523e-05,0.009724656,0.0058279447,-0.0066871,-0.0034812517,-0.0034659517,0.0031376642,0.0010983001,-0.008615819,0.0021720976,0.009624115
helsinki,0.0023468877,0.004295483,0.0019692879,0.008130098,0.008879571,0.0031527232,-0.0024386148,0.0036306118,-0.0077197044,0.008022527,-0.0039994903,0.009922548,-0.009591567,-0.0025544616,0.008893361,-0.0040825563,-0.00195362,0.005028064,0.009292706,-0.0003695744,-0.0068091457,0.009996505,-0.0095375925,0.0012456015,0.0055705938,-0.007842969,-0.0056209047,-0.009140544,-6.66291e-05,0.004989949,-0.008206461,-0.0030842847,0.008398996,-0.004458395,0.0031796605,0.00351894,-0.0035668958,-0.0051963204,0.008319019,-0.002532942,0.008956151,-0.0024400663,0.003048551,0.0055956417,0.0005718309,0.004401509,-0.0059617236,0.008429168,-0.0016489072,-0.004426311,0.00510742,0.009920605,-0.005663605,0.0008419914,0.00432435,-0.002769149,0.0006426358,0.008826059,0.007720667,-0.006464789,-0.003193079,0.0092282,-0.00031753126,-0.009573901,-0.0007203245,-0.006820099,0.00091942435,0.00081945845,-0.0044013234,-0.0045895586,0.008800523,0.0045828926,0.0025790727,0.0018432821,0.0082383985,-0.00499681,0.00611802,-0.0010006339,-0.007655103,-0.00969404,-0.0016745867,0.008121648,0.0021952584,-0.008988361,0.0012326651,-0.0036311068,-0.0040714704,0.008131496,0.0058187633,0.00036335585,0.002448748,0.00090691226,-0.009919577,0.002991094,0.0071830885,0.0039867247,0.0024659717,-0.0035555868,0.0023594883,-0.0076215146
eritrea,0.004220754,0.0024018886,-0.0004102485,-0.0006102953,0.0026480756,0.0021995788,0.0014776966,0.009140774,0.003536171,0.0013783927,-0.0029279273,-0.006069033,-0.009327792,-0.0032622248,0.004352895,0.0075772987,0.0006408667,-0.0048095123,0.0036036032,-0.0039200843,-0.0007542861,0.008884364,0.008172687,-0.000399332,-0.0059113693,0.003698191,0.009805109,0.008682906,-0.0019212501,0.0071561043,0.009281396,-0.009574245,0.008880588,1.754576e-05,-0.005202871,0.0036749176,0.0089679975,-0.007257402,0.006875499,-0.0064388947,-0.0077878404,0.0055033094,-0.004568598,0.0047540506,0.007372566,0.009657287,0.0057183495,-0.008874037,0.003269154,-0.008995566,-0.00037930507,0.0097780805,-0.0051138,0.00409933,-0.005719375,-0.008045174,0.008018975,0.0032442939,0.0073797363,0.0029421542,0.0011809297,0.0037417996,-0.008426219,0.0065904506,-0.004497091,0.0046122777,-0.0054675085,0.0010445865,0.0040227887,-0.0024666255,-0.007533158,-0.0060428362,-0.009941308,0.009678335,-0.004400518,-0.0010618108,-0.009029463,-0.0045869797,-0.0048905113,0.0030125538,0.005658964,0.003494556,0.009852829,0.001899271,0.009866408,0.0075526866,0.0027419215,0.0021528974,-0.0075240773,-0.00237657,0.005647073,-0.008153405,0.0022580072,-0.007573597,0.009654295,-0.00011938765,0.00091439206,-0.0047941864,0.0061218413,-0.0071201795
fiji,-0.007413779,0.0066344356,-0.0033953565,-0.00090457074,0.0053442894,0.0045594345,0.0062039676,0.0070522656,0.0056185643,-0.0089180935,0.0051348475,0.009118507,-0.004011206,0.0010882517,-0.0032805065,-0.0034165867,0.008690461,-0.0002880901,0.003409007,-0.0055382987,0.005795077,-0.0033761193,-0.0049567157,0.002191526,0.0097366525,-0.0061350376,0.0035561763,-0.001013756,-0.007186935,-0.004330846,-0.008222873,0.005591048,-0.0027487967,-0.0051957094,0.0010034704,0.0045965025,0.009496072,-0.009738971,-0.00028105685,-0.0012377239,-0.002700231,-0.0005094317,0.0081260735,-0.0018914313,0.00934727,0.00037272123,-0.001061725,0.006894388,0.0069613294,0.0004640272,-0.00029876368,0.006346284,-0.003842342,0.0046038544,-7.789534e-05,-0.006080295,0.0064469962,-0.0040347627,0.0022061933,-0.0068718134,0.0026961728,0.0055843177,0.005115001,-0.008086984,-0.0059441826,0.007134935,0.0031204945,0.0011187892,-0.0061955703,-0.0013847428,-0.009247467,0.0012446175,-0.0045784074,0.00075663725,0.004488912,0.0024007328,-0.0071279006,0.00084380887,-0.006746339,-0.003899124,0.0018990105,0.007973156,-0.0065096808,0.002358469,0.008136611,0.009923634,0.006167288,-0.0073979716,0.0038581735,0.008827493,0.0041630864,0.0025203137,-0.0015917902,0.0035918572,0.0041720485,0.008822421,-0.0038138807,-0.008774955,0.006502884,-0.006227828
suva,-0.0005989283,0.0014269676,-0.0011843829,-0.004045425,0.00085997145,-0.0096847685,0.0014115928,-0.0041699735,-0.005798658,0.0037975404,0.0014695444,0.003627967,0.00090178975,-0.0095225675,0.0100032715,-0.003539213,-0.0021952465,0.00714673,6.7919565e-05,0.0030403875,0.0022710569,0.0023795124,0.0067807636,0.009470239,-0.00057812565,-0.0034222226,0.0045800568,-0.0083590755,0.00847135,0.0024038753,0.0059955264,0.0027983452,-0.0013352969,0.0009577487,-0.004789059,0.009095633,0.0050198054,0.0036045245,-0.0050256653,-0.00865172,0.007943151,0.0029560153,-0.004257793,-0.00868576,-0.003954834,0.0014066378,-0.009202806,4.7694895e-05,0.0028127285,-0.009947535,-0.00015761469,-0.0060992525,-0.0036061166,-0.0016361688,-0.009975625,-0.0036189624,-0.007026346,-0.007358985,0.0015783175,0.0023403305,0.009301173,0.008869982,-0.0064089852,-0.009222891,0.007903218,0.005434116,0.0069396044,-0.0029294067,-0.0052358084,-0.0045699654,-0.008345355,0.005874784,-0.0034516298,0.008649366,-0.005687872,0.009654667,-0.0045067966,0.0086608315,-0.005419751,-0.0075254296,0.0076561407,-0.0098004555,-0.008777567,0.0049655694,-0.009758823,0.0053031403,0.003658927,-0.0070297024,0.0031517812,0.0014571693,0.008654787,0.0028831963,-0.005141392,-0.002354872,0.0068627093,-0.006624546,0.0092997085,-0.0032168434,-0.0046568685,-0.0043793204
falkland,0.0030913323,-0.009838858,0.0032120883,-0.004478958,0.009680757,-0.0050401436,-0.00802415,0.003518645,0.00896813,0.0027444828,-0.0022865317,0.003515041,-0.008925655,-0.004138682,-0.00436152,0.0018816515,-0.00630096,-0.007590602,-0.0065323096,0.0052808775,0.0027572718,0.008815076,0.0023248398,0.0053012255,0.004349609,0.0046301223,-0.004960487,0.0014336115,0.00031073156,0.005263731,-0.0065979324,-0.0007010712,0.0040322775,-0.0048338217,-0.008507653,0.0055769845,-0.000859708,0.00033705102,-0.006079682,0.008521492,0.00089803303,0.0017393229,-0.0003942726,0.00068797066,0.0058076237,-0.009249101,0.0023553374,-0.0055659795,0.009451218,0.0043631475,-0.005507343,-0.001208095,-0.0055244802,0.008517054,0.009090442,0.0023069372,0.009661754,-0.0047164126,0.0028156424,-0.00509849,-0.008768483,-0.0041600093,-0.0013816658,-0.0056618764,-0.0045648757,0.0006299102,-0.00012267112,-0.008299782,0.0069229575,0.001581823,-0.009529819,-0.001433505,-0.0076347566,0.0075867167,-0.0010548026,0.007822429,0.0050344453,-0.0040623033,-0.009091016,-0.0061950213,0.008883942,-0.0015772864,-0.00031728693,0.0001394542,-0.00825517,0.004221114,-0.008228581,0.009425872,-0.008131183,0.007884213,-0.0019853844,-0.0020733722,-0.0022765056,0.000993663,0.0024590658,0.001620407,-0.0005922416,0.0075620282,-0.006436526,-0.00790649
