,0,1,2,3,4,5,6,7,8,9,10,11,12,13,14,15,16,17,18,19,20,21,22,23,24,25,26,27,28,29,30,31,32,33,34,35,36,37,38,39,40,41,42,43,44,45,46,47,48,49,50,51,52,53,54,55,56,57,58,59,60,61,62,63,64,65,66,67,68,69,70,71,72,73,74,75,76,77,78,79,80,81,82,83,84,85,86,87,88,89,90,91,92,93,94,95,96,97,98,99
incom,-0.07892714,0.22929178,0.117679946,0.025216931,-0.032984994,-0.31943548,0.1463149,0.27169815,-0.106148295,-0.117646,0.0072211795,-0.2628776,0.02806685,0.06329772,-0.014950785,-0.16772671,0.14164902,-0.14563696,0.018185647,-0.43717062,0.04021339,0.20223036,0.14613199,-0.09382729,-0.10760871,-0.015223895,-0.23983592,-0.11957068,-0.18582702,0.06329119,0.20335013,0.16937777,0.05686233,-0.07446077,-0.12774552,0.23468591,-0.0028178475,-0.19432048,-0.19103798,-0.34319717,0.016941756,-0.09913736,-0.10510283,-0.034461766,0.17373362,-0.09200442,-0.10671416,-0.11535234,0.069606215,0.11110963,0.038537495,-0.22638428,-0.1424599,-0.0021599664,-0.19046332,0.06388598,0.14533953,-0.084103934,-0.21847582,-0.03804797,0.082816705,-0.03717703,-0.042237703,-0.060298756,-0.22102688,0.1122406,0.04477435,0.053299103,-0.2692499,0.22805253,-0.110852815,0.024298644,0.18311647,0.03139865,0.080400616,0.04019319,0.052704122,-0.110152535,-0.21664645,0.16658978,-0.110834345,-0.17117469,-0.14776906,0.27638036,-0.048918087,0.11238142,-0.08264249,0.21656686,0.16243768,0.07608502,0.2133767,0.04219439,-0.020548284,0.11155368,0.34025168,0.17158775,0.008336904,-0.22061111,0.04030904,0.04912878
ida,-0.07812316,0.17074658,0.092745796,0.008715381,-0.0044558314,-0.22772262,0.09940913,0.18745555,-0.07796637,-0.09345252,-0.0054703224,-0.19202763,0.011137813,0.05100523,-0.0104208905,-0.10814153,0.10467355,-0.0876867,0.03540139,-0.3019427,0.0234259,0.12976313,0.10116634,-0.08391067,-0.08274768,-0.0028322835,-0.18630342,-0.08317276,-0.12809798,0.06820095,0.16734794,0.13497646,0.02930139,-0.054780386,-0.08963546,0.17230996,-0.011589353,-0.13016933,-0.12838475,-0.23066883,0.046281952,-0.09627305,-0.0738113,-0.01583888,0.11182564,-0.0647351,-0.0613083,-0.09811334,0.051771097,0.06201401,0.053404957,-0.17877798,-0.0973444,0.00077461964,-0.16479942,0.06475357,0.110312715,-0.035459395,-0.16059874,-0.036255162,0.045643784,-0.026238892,-0.031408194,-0.044893812,-0.15343727,0.09002889,0.0669728,0.027126966,-0.18298171,0.17668632,-0.09363658,-0.014338822,0.14024013,0.05437154,0.05451399,0.02781665,0.026404632,-0.076230645,-0.13995375,0.13272955,-0.094529435,-0.13611595,-0.102044776,0.18586338,-0.02616529,0.07973002,-0.051665064,0.15622549,0.12178494,0.036820557,0.15831807,0.022956436,-0.02154981,0.059473664,0.22806723,0.12358453,0.030630304,-0.16033292,0.025798893,0.033957385
island,-0.09838961,0.27296874,0.105094984,-0.0059801526,-0.021392575,-0.3219025,0.15263963,0.2757811,-0.13778432,-0.10318728,-0.035414953,-0.28394938,0.063186765,0.060346972,-0.009094391,-0.21002458,0.16799755,-0.14288455,0.043276098,-0.47478446,0.012545811,0.21918201,0.1315662,-0.12529352,-0.116789825,-0.01647125,-0.25440544,-0.14258212,-0.21207465,0.07962415,0.23565057,0.20350134,0.025549442,-0.058680683,-0.15656474,0.25899893,-0.03288571,-0.22505769,-0.21587935,-0.37281102,0.018650083,-0.10590099,-0.08777215,-0.032052852,0.19649687,-0.09667361,-0.09254403,-0.16134058,0.055736303,0.092406824,0.062059835,-0.26984763,-0.17049663,-0.027516754,-0.23866051,0.06520138,0.15133066,-0.09000005,-0.2511093,-0.068421416,0.10762694,-0.03582102,-0.034615934,-0.064155295,-0.24602248,0.14363247,0.06896646,0.039778974,-0.3016706,0.25796613,-0.13627979,0.017086376,0.21594565,0.05169282,0.08564774,0.07064758,0.07231905,-0.122049004,-0.24251704,0.22770686,-0.12029542,-0.22724429,-0.19510372,0.31621775,-0.034621567,0.1160759,-0.093761094,0.24660702,0.21093525,0.05389279,0.2370293,0.05907361,-0.014563835,0.12557147,0.36912614,0.19398771,0.042834707,-0.23282082,0.067178614,0.052330356
africa,-0.08850623,0.22440347,0.10443649,-0.0034295763,-0.012598985,-0.28692585,0.12779607,0.24519475,-0.0729599,-0.124083474,0.012640958,-0.22286206,0.030945046,0.040941406,-0.0010809343,-0.15341459,0.13354118,-0.13958728,0.028979886,-0.37370154,0.022116803,0.16708422,0.14241892,-0.07882989,-0.11420109,-0.005212039,-0.20972988,-0.101658896,-0.14976166,0.07322365,0.18882453,0.17066933,0.037084732,-0.065303095,-0.11116161,0.2288425,-0.0100895725,-0.18748097,-0.19189905,-0.2804253,0.041513775,-0.10129104,-0.06840785,-0.028966099,0.16726948,-0.07248987,-0.07935309,-0.12351168,0.055958226,0.07794997,0.063234836,-0.20411381,-0.14181072,-0.01459704,-0.2068198,0.0641245,0.12440182,-0.039298713,-0.19151384,-0.05274514,0.077627376,-0.028862543,-0.019847134,-0.047612105,-0.18867311,0.08989307,0.060230546,0.053428568,-0.246466,0.19633771,-0.09948709,0.0077999136,0.16240184,0.061751924,0.0641173,0.032209,0.03370833,-0.08180478,-0.1942486,0.16787711,-0.10157486,-0.16516556,-0.13708414,0.24586326,-0.03833267,0.10566539,-0.060145546,0.21823749,0.14858617,0.043625683,0.1845694,0.035914443,-0.030395659,0.085780635,0.30604097,0.1477655,0.035933897,-0.2003283,0.042108946,0.022107424
ibrd,-0.07607447,0.16064069,0.074416235,0.0005150084,-0.010629363,-0.19819951,0.09539609,0.17249633,-0.07540763,-0.07266816,-0.018257953,-0.16496257,0.0073029394,0.04592627,-0.022004118,-0.12164035,0.08536858,-0.08197833,0.042257436,-0.28867272,0.016827943,0.114182435,0.09584355,-0.054783374,-0.08809249,-0.0035328364,-0.16951963,-0.07675491,-0.12799431,0.061172932,0.15319325,0.13473329,0.03281456,-0.055405993,-0.07562335,0.14952035,-0.020436807,-0.12282254,-0.12836617,-0.22437914,0.03703298,-0.08315034,-0.07331319,-0.0057747597,0.11453739,-0.07613022,-0.06152727,-0.09452752,0.057941966,0.047178406,0.05146767,-0.1525379,-0.07982613,-0.010395297,-0.15311031,0.04274246,0.08099025,-0.051665157,-0.15363207,-0.047071908,0.057301927,-0.033921685,-0.021485645,-0.030672545,-0.15083994,0.074522436,0.06278754,0.03921106,-0.18587156,0.17086959,-0.09055188,0.0024069506,0.12029355,0.044696305,0.052824296,0.039882008,0.03218842,-0.05788249,-0.12975496,0.11928495,-0.08436307,-0.14381337,-0.10004627,0.1783722,-0.03470598,0.06312588,-0.040890913,0.1581754,0.104873896,0.03646329,0.15012003,0.014880544,-0.015827592,0.05447291,0.22112237,0.099517494,0.031170761,-0.13764718,0.036381237,0.03460312
asia,-0.067941494,0.14644615,0.07357078,-0.011259078,-0.026806444,-0.1916222,0.09191174,0.1722254,-0.07509881,-0.08518946,-0.016389715,-0.16342872,0.0077444324,0.024918094,-0.014988171,-0.1098632,0.07811164,-0.09295411,0.028635733,-0.26384327,0.008118003,0.11417084,0.09388902,-0.053104304,-0.08653689,-0.0059388094,-0.14867765,-0.09205708,-0.10796175,0.0571638,0.14235704,0.10837874,0.021097142,-0.05048085,-0.08030262,0.15547298,-0.008310886,-0.10757127,-0.113438465,-0.21136826,0.042092465,-0.07540124,-0.0674473,-0.019616287,0.101503044,-0.06529195,-0.06803496,-0.07625643,0.046207085,0.053839706,0.04144265,-0.16012079,-0.072966695,0.016865626,-0.14694938,0.042893387,0.09788431,-0.04756669,-0.14222975,-0.05044021,0.057827502,-0.022702703,-0.0069245547,-0.03455139,-0.1356029,0.077537544,0.046502784,0.02908696,-0.17830768,0.12990962,-0.074757434,0.013067862,0.1228034,0.036083564,0.047150906,0.03935939,0.020182492,-0.057365417,-0.123688556,0.11883116,-0.06057046,-0.12760691,-0.09077749,0.15325293,-0.025539441,0.05058717,-0.05795541,0.15558866,0.09768197,0.039733034,0.15120639,0.034443025,-0.030377073,0.0547082,0.22063963,0.10903425,0.020269029,-0.14302315,0.029812688,0.021459041
rep,-0.07509927,0.21813922,0.09995991,-0.010320844,-0.019158784,-0.2976819,0.15612674,0.23554501,-0.114962235,-0.0980899,-0.013247537,-0.24822292,0.036022145,0.06862883,-0.030896207,-0.18149263,0.1360057,-0.13870293,0.06398268,-0.41921234,0.027041564,0.1963352,0.14946707,-0.10205518,-0.097112045,-0.0183434,-0.23586567,-0.13844848,-0.18545544,0.05691902,0.21898383,0.21785462,0.028801162,-0.04814167,-0.14453653,0.22559479,-0.05579102,-0.21280204,-0.19531976,-0.3461176,0.047268044,-0.114855655,-0.060067747,-0.048704635,0.16891941,-0.07807091,-0.10866279,-0.16385862,0.03794436,0.07273592,0.06162384,-0.22612399,-0.16596352,0.0009044751,-0.20798281,0.04891572,0.1346155,-0.088299915,-0.23092781,-0.07777376,0.081247255,-0.051764924,-0.03822206,-0.07149713,-0.20528072,0.120167166,0.044709247,0.0144988885,-0.2537281,0.20905398,-0.1408207,0.023097523,0.18034545,0.053124957,0.10005026,0.022241838,0.06037284,-0.10456313,-0.20697257,0.21680857,-0.094607286,-0.20505632,-0.18146789,0.27500397,-0.030819854,0.10016301,-0.05124716,0.22668959,0.16423462,0.056206618,0.19763501,0.044547256,-0.029857557,0.10132793,0.30749717,0.17862469,0.051495805,-0.21920876,0.054467596,0.04562172
countri,-0.07790433,0.22133397,0.12333007,0.018697452,-0.029599532,-0.29184914,0.13872306,0.23311277,-0.10629552,-0.11854807,-0.011366511,-0.23624466,0.03800113,0.048151184,-0.022725046,-0.15979171,0.13523006,-0.12828597,0.042560786,-0.41077217,0.01972648,0.18707581,0.12210833,-0.10592827,-0.13442218,0.00093020796,-0.24061693,-0.11268241,-0.18040232,0.08978891,0.19060987,0.18985532,0.04155083,-0.07174649,-0.12622684,0.22245218,-0.03606146,-0.17772071,-0.19330812,-0.31388208,0.05733039,-0.10887838,-0.078011654,-0.014697043,0.16262823,-0.10080732,-0.103828914,-0.14288001,0.07817356,0.08684731,0.049766574,-0.22479066,-0.12172361,-0.01458793,-0.21431726,0.08175532,0.1165876,-0.053594783,-0.2096139,-0.0502022,0.08318912,-0.03527042,-0.03913828,-0.046631627,-0.19865078,0.117225006,0.058269117,0.05531841,-0.25748235,0.21031635,-0.11367608,-0.0071322466,0.17375487,0.05043628,0.06636005,0.054581705,0.05697031,-0.10872305,-0.19312383,0.17815046,-0.115207925,-0.18185987,-0.15382132,0.2646453,-0.028586889,0.10282043,-0.07211815,0.2378194,0.16877154,0.056391496,0.20575775,0.02722972,-0.043125365,0.10722824,0.30155724,0.15386133,0.03110622,-0.21130933,0.056989975,0.034297094
middl,-0.06500768,0.1551201,0.069484554,0.017583076,0.0031369906,-0.1849164,0.09789957,0.15407814,-0.071531326,-0.06583697,0.0034328632,-0.16987406,0.030073026,0.02467364,0.006635709,-0.0995285,0.07650759,-0.09153754,0.009707926,-0.25448543,0.018540962,0.13041864,0.09887633,-0.068546526,-0.06552662,-0.0061435783,-0.14410658,-0.087046325,-0.10194799,0.03075425,0.13561107,0.10012798,0.029304005,-0.026132165,-0.076130524,0.14455727,-0.014608906,-0.10133975,-0.11101026,-0.21177827,0.017381344,-0.06084692,-0.05146738,-0.01992308,0.10542822,-0.054903205,-0.05452486,-0.067946054,0.028190343,0.045833066,0.031751756,-0.13610935,-0.083774626,-0.0072715604,-0.12334714,0.03561321,0.08776738,-0.045546245,-0.12314089,-0.045033034,0.044439346,-0.03099589,-0.010799914,-0.031531397,-0.1418695,0.06549252,0.02498384,0.036743045,-0.16698903,0.13796529,-0.08200682,0.011821294,0.11737297,0.041215718,0.036740836,0.016798139,0.014290348,-0.07467601,-0.14164273,0.10346151,-0.06770502,-0.11979421,-0.08256521,0.1594883,-0.022787675,0.06455584,-0.049792703,0.12915017,0.09193144,0.04309147,0.121110715,0.025060084,-0.009614737,0.06583933,0.20838377,0.11414543,0.015888102,-0.11691198,0.032488856,0.015642023
central,-0.06847172,0.12791897,0.06225474,0.012380425,-0.021035276,-0.19962887,0.079536006,0.16191238,-0.07034013,-0.07242542,-0.01255494,-0.15861793,0.017801113,0.040199637,-0.015985798,-0.085134745,0.090345174,-0.099969156,0.045877285,-0.26329958,0.015594273,0.12524873,0.0751602,-0.07333037,-0.06277393,-0.0072841384,-0.16693091,-0.06311332,-0.11753891,0.038047392,0.14902729,0.12830853,0.036847983,-0.021059258,-0.09042253,0.15041012,-0.012980983,-0.11528072,-0.117096364,-0.19274175,0.03635658,-0.05882575,-0.05867491,-0.02110819,0.10298809,-0.053024724,-0.06488216,-0.07610502,0.05140057,0.060371973,0.039829377,-0.13076206,-0.08517262,0.01678033,-0.12564878,0.026706442,0.07854585,-0.043056473,-0.12815759,-0.04191724,0.04704614,-0.016254196,-0.0069178194,-0.03376897,-0.13841777,0.059095487,0.03441741,0.010830087,-0.16052704,0.13511626,-0.07253443,0.013497081,0.1073128,0.013072386,0.04953338,0.022267222,0.032540288,-0.07230873,-0.113146864,0.12123414,-0.06007145,-0.12000367,-0.09826117,0.1777992,-0.02858855,0.055527408,-0.06654742,0.14314465,0.11290825,0.04575542,0.12374571,0.03385912,-0.013081901,0.06071812,0.2189622,0.096481696,0.010494759,-0.12326172,0.044577748,0.030708438
east,-0.03221873,0.11027922,0.060738318,-0.013250003,-0.015902381,-0.15315774,0.063580655,0.12903823,-0.052074518,-0.06838425,0.009596961,-0.12464798,0.024931213,0.0163677,0.003226571,-0.06546522,0.07488984,-0.06618745,0.020054523,-0.20868674,0.008191438,0.08151053,0.070703916,-0.050870035,-0.061306316,0.007997199,-0.10704573,-0.062838316,-0.06561815,0.04030522,0.09370568,0.08928893,0.03246243,-0.015947573,-0.04832416,0.11482154,-0.0054886388,-0.0923933,-0.102057725,-0.15139468,0.020010266,-0.05131047,-0.051564727,0.002538195,0.07291894,-0.04727715,-0.051621806,-0.06442594,0.019952146,0.04720775,0.022722522,-0.10617941,-0.074253336,0.005239536,-0.09946326,0.0318768,0.054368462,-0.027231198,-0.08995824,-0.0201475,0.023948254,-0.018134816,-0.010991756,-0.014139361,-0.116830185,0.059688725,0.02305763,0.016523182,-0.12092296,0.1008999,-0.051546976,0.015380487,0.08016989,0.039553948,0.038020216,0.02985337,0.030637104,-0.05439272,-0.1008459,0.08301859,-0.045532115,-0.07564847,-0.06335574,0.13006534,-0.035135906,0.055152606,-0.045988917,0.107832104,0.083315924,0.03188034,0.112904385,0.022961192,-0.010851569,0.053057905,0.14542317,0.07795454,0.024879195,-0.10160003,0.029089764,0.009521615
high,-0.031483755,0.15850982,0.07741895,0.010533283,-0.010275372,-0.21305506,0.08897613,0.18475164,-0.066328384,-0.082891464,0.0059149205,-0.1702254,0.013609872,0.0324901,-0.0010805285,-0.11228958,0.088661954,-0.11131855,0.009763757,-0.2892887,0.012438377,0.12032775,0.095481746,-0.07474734,-0.08792438,-0.02245173,-0.17195348,-0.06604981,-0.111564115,0.04906408,0.1415655,0.097263224,0.027062051,-0.046639536,-0.08131194,0.15478203,-0.0058392924,-0.12105012,-0.1374013,-0.2289487,0.0058781025,-0.07144643,-0.066657946,-0.0039433674,0.11243054,-0.07091577,-0.053906873,-0.081264585,0.03734479,0.07976398,0.031570796,-0.16523503,-0.073254615,0.0072182436,-0.14803618,0.04578744,0.09426967,-0.038698904,-0.14214678,-0.036101334,0.05816556,-0.02355263,-0.012696143,-0.031802353,-0.15268482,0.08352214,0.04914057,0.047458343,-0.18931955,0.14870836,-0.076641485,0.03196741,0.12769783,0.03316594,0.054661717,0.0325079,0.01561101,-0.057542175,-0.1406371,0.105549455,-0.07304251,-0.1008361,-0.11550312,0.16779149,-0.020444151,0.07009973,-0.0708669,0.13586117,0.12005887,0.055719666,0.14918278,0.023617608,-0.025114402,0.06802975,0.22838736,0.10281432,0.00075723405,-0.14394045,0.017677963,0.022223616
state,-0.055251647,0.1445361,0.083916605,-0.016760485,-0.0081962515,-0.16335894,0.095122956,0.16758136,-0.047321916,-0.0754328,-0.028479751,-0.1681546,0.011113123,0.027811293,-0.020003336,-0.1292024,0.09460286,-0.07931607,0.038431045,-0.26700065,0.0014481924,0.13350545,0.07236208,-0.045628138,-0.07953484,0.012397851,-0.17316337,-0.07515873,-0.11841486,0.06428972,0.10997223,0.1186422,0.029546611,-0.030051317,-0.09514007,0.12480251,-0.03660222,-0.14314663,-0.121947326,-0.20735249,0.021767262,-0.04240667,-0.04946513,-0.0119773215,0.0817862,-0.08653403,-0.040598314,-0.10461902,0.021688603,0.0635839,0.040444486,-0.16968901,-0.08365771,-0.021430958,-0.13015169,0.034138825,0.08362475,-0.03724985,-0.12526135,-0.01878738,0.034680374,-0.030894138,-0.007882575,-0.036170892,-0.1423501,0.0780373,0.0534864,0.013084993,-0.18497674,0.13865578,-0.06606538,0.013634395,0.13280633,0.01150761,0.049730524,0.034726933,0.050169896,-0.07756917,-0.15443748,0.11979217,-0.09442776,-0.10614465,-0.10528183,0.19239794,-0.025855051,0.06860684,-0.028712915,0.13182773,0.1020741,0.028007094,0.14232223,0.023670362,-0.0060946443,0.053447604,0.20552534,0.09361153,0.033281144,-0.115073085,0.049087055,0.05450447
st,-0.09790495,0.21463558,0.07932653,-0.006938358,-0.028189423,-0.26362336,0.11283866,0.1879087,-0.0956036,-0.094329596,-0.027302803,-0.19975646,0.023270529,0.048454404,0.001330074,-0.14029695,0.11972824,-0.10797615,0.0415659,-0.35775524,0.027395658,0.16689348,0.10906464,-0.075559385,-0.08820781,0.0034909747,-0.2172682,-0.11661942,-0.15414238,0.06704413,0.17765608,0.17408124,0.040707573,-0.049758133,-0.102909714,0.18829642,-0.035780556,-0.15749864,-0.1642744,-0.283742,0.01980893,-0.08919217,-0.045160796,-0.024383478,0.12754452,-0.08095043,-0.080184154,-0.1163592,0.05624041,0.06083863,0.047153853,-0.19652024,-0.13935985,-0.009438703,-0.17880714,0.06340614,0.12589394,-0.060725424,-0.19112779,-0.03987612,0.08775094,-0.020263528,-0.030750243,-0.04590081,-0.16191202,0.089085884,0.055861153,0.03272357,-0.20747879,0.19544095,-0.110157855,-0.008798599,0.14265473,0.042443607,0.07939636,0.050205566,0.037695587,-0.08763211,-0.17346196,0.16393793,-0.08199861,-0.1615553,-0.12213521,0.23871244,-0.024009094,0.10213331,-0.053382795,0.21120334,0.14525688,0.039171793,0.20035708,0.038310293,-0.02112518,0.08971316,0.2463098,0.13874127,0.03603204,-0.18917003,0.036625955,0.057014696
north,-0.036273595,0.14242011,0.061675984,-0.012772736,0.003968198,-0.17212644,0.087119885,0.14476356,-0.03643717,-0.08312469,0.011308038,-0.15278605,0.006779891,0.014784285,-0.013768421,-0.079629414,0.08753848,-0.08023949,0.024424735,-0.23481998,0.019942,0.10784995,0.07321315,-0.052430406,-0.07831082,0.0031297123,-0.12395339,-0.07034915,-0.07758121,0.037553817,0.10375722,0.094251074,0.02233745,-0.045008138,-0.07700482,0.11491812,0.0040419195,-0.09042192,-0.10466481,-0.17350715,0.030485153,-0.0636873,-0.036698017,-0.00692771,0.098474994,-0.0385659,-0.057408497,-0.07433513,0.036854398,0.05483139,0.03706812,-0.115245625,-0.069432855,-0.013826008,-0.12106279,0.029624538,0.08620141,-0.028599396,-0.12018292,-0.024124445,0.038649026,-0.026437586,-0.014771235,-0.02084811,-0.11055151,0.0657938,0.03475193,0.024981087,-0.1426726,0.11628448,-0.069023676,-0.00056732,0.106039494,0.026089046,0.040021844,0.00920599,0.033769347,-0.0507396,-0.11282947,0.097569175,-0.06766248,-0.09408411,-0.07597935,0.12903735,-0.013143575,0.06295141,-0.035374217,0.13013425,0.08380308,0.02364295,0.12745413,0.023789378,-0.002713441,0.06472495,0.17771308,0.081508726,0.013151264,-0.100038484,0.017858546,0.032529544
republ,-0.07813064,0.20069242,0.09494102,0.0135119,-0.025742015,-0.2494436,0.09961166,0.19995156,-0.09849787,-0.06817332,-0.02621981,-0.22413544,0.027372887,0.05713308,-0.024694627,-0.15444478,0.090668194,-0.10475661,0.052201606,-0.32256112,0.011749714,0.1709845,0.09175633,-0.08497409,-0.10896213,-0.011457747,-0.2029928,-0.09011907,-0.1477877,0.03870244,0.16297963,0.15273301,0.0313468,-0.022204302,-0.10642273,0.19958307,-0.011232851,-0.1690929,-0.16706826,-0.24298503,0.045861427,-0.08857877,-0.070941456,-0.011533322,0.1369656,-0.05681305,-0.08710438,-0.12851632,0.05517653,0.043753408,0.045285072,-0.18941666,-0.10630733,0.009245311,-0.16528985,0.07031836,0.12713155,-0.05901832,-0.16730295,-0.032200146,0.07669165,-0.034712277,-0.04460385,-0.06227784,-0.15297031,0.069847085,0.04585748,0.035874464,-0.20771141,0.18776931,-0.11377447,-0.0063413093,0.15252773,0.031155529,0.08195641,0.058428407,0.036695477,-0.093475364,-0.16654918,0.16096695,-0.09766074,-0.15456834,-0.13439783,0.22689223,-0.041344397,0.10152255,-0.07877523,0.17870675,0.16472119,0.06321813,0.16738,0.038034834,-0.037465226,0.06578043,0.2390649,0.15115494,0.022001578,-0.1554758,0.05108788,0.052914042
exclud,-0.038352653,0.13228114,0.07923565,0.005444571,-0.004205385,-0.20346357,0.08085561,0.19053651,-0.050768074,-0.080944926,-0.0049172486,-0.18616693,0.0014622622,0.04567648,-0.01809243,-0.08556134,0.07970946,-0.1021522,0.016997786,-0.28908473,0.02825322,0.13667671,0.09823003,-0.05187636,-0.07278824,0.0035754375,-0.14989042,-0.0838644,-0.11935396,0.04025481,0.14429756,0.09860436,0.032051135,-0.054485746,-0.077329986,0.1582871,0.002025285,-0.12744595,-0.13215764,-0.2267267,0.023330986,-0.07779206,-0.08306664,-0.008475956,0.124694,-0.063563466,-0.07799918,-0.08695627,0.050470352,0.07452041,0.02587838,-0.15998086,-0.08430723,0.011688633,-0.13164718,0.04863803,0.0786758,-0.060517997,-0.1499598,-0.030485598,0.05862787,-0.022280674,-0.015915887,-0.018067706,-0.14564876,0.083392434,0.020547586,0.0419008,-0.16697124,0.15172452,-0.06412033,0.027665893,0.12092833,0.025995977,0.05045035,0.014927122,0.032771587,-0.0763154,-0.123279415,0.10193996,-0.069122694,-0.12548886,-0.11804265,0.15912937,-0.04090209,0.07119143,-0.06674365,0.13071536,0.10054558,0.036730323,0.14535993,0.030064095,-0.006723954,0.06920219,0.21352574,0.12010302,0.0019540298,-0.13837513,0.010387755,0.02466028
arab,-0.053923767,0.16390938,0.07825757,-0.014877314,-0.005191029,-0.19707772,0.10770075,0.16315895,-0.07973303,-0.07297115,-0.019038599,-0.1742229,0.04236323,0.036405083,0.00054939877,-0.13341689,0.08709289,-0.09467048,0.048695765,-0.27111617,0.027943458,0.11677559,0.07504901,-0.07431238,-0.077741645,-0.017276,-0.1629732,-0.09791383,-0.12134887,0.04759265,0.13473293,0.13548124,0.007480624,-0.042131364,-0.06669116,0.16193944,-0.041789524,-0.118741326,-0.11110686,-0.21285637,0.034876928,-0.0787356,-0.028297788,-0.015782932,0.107900664,-0.06453599,-0.066839255,-0.095893726,0.041761152,0.048040386,0.04736107,-0.12733684,-0.08184661,-0.010750526,-0.10991787,0.047581404,0.09716837,-0.04793174,-0.14776638,-0.029033577,0.05032769,-0.03222798,-0.041640144,-0.044775657,-0.11960967,0.06378827,0.044513255,0.025974693,-0.14938575,0.12296748,-0.07877743,-0.010187945,0.123939864,0.04759916,0.07569014,0.042963684,0.0479635,-0.060429923,-0.12211723,0.15111054,-0.07529623,-0.10664385,-0.0933873,0.17252572,-0.013840616,0.08064304,-0.035501126,0.15092897,0.1324868,0.041294783,0.14453614,0.038760167,-0.004375799,0.05789343,0.21321529,0.124026105,0.006463604,-0.14596297,0.03297354,0.021773513
pacif,-0.021899393,0.08899898,0.038401175,0.0034827162,-0.0007372834,-0.13514318,0.06278135,0.124891,-0.053699214,-0.06202387,-0.012096422,-0.11504685,0.011295508,0.032718964,0.0037666447,-0.07053204,0.06360419,-0.04838101,0.02610428,-0.17346877,0.01932535,0.071185276,0.051613204,-0.048530515,-0.046259005,-0.0020205732,-0.11758023,-0.047957413,-0.058896508,0.026522858,0.0976323,0.07215744,0.016604535,-0.02309008,-0.051544297,0.090327464,-0.0028250106,-0.07441263,-0.073112145,-0.15225741,0.01353709,-0.051570512,-0.027904207,0.00539686,0.062448345,-0.044279903,-0.047085855,-0.059322756,0.037181627,0.035897847,0.01608907,-0.11565016,-0.05878731,0.0012862297,-0.08393366,0.04094884,0.05511146,-0.021261182,-0.07621903,-0.019562874,0.034706105,0.0019679477,0.0029036205,-0.0100681,-0.10445829,0.069622435,0.034243476,0.028098062,-0.11619396,0.098395035,-0.038608134,-0.00020295249,0.09103585,0.025557231,0.047076903,0.017430494,0.02278272,-0.033706725,-0.099090725,0.064603336,-0.063485496,-0.077364065,-0.069339916,0.11833034,-0.006582898,0.04525006,-0.028855598,0.09698587,0.06822642,0.012336103,0.10856746,0.012409787,-0.005743751,0.061259136,0.1458711,0.069353946,0.019100474,-0.09397257,0.029001493,0.02302786
small,-0.034999058,0.12643203,0.05413423,0.008472726,-0.02596606,-0.124855965,0.08840308,0.11368477,-0.051341888,-0.05496084,-0.016991705,-0.11885337,0.03006601,0.027535211,-0.0059646927,-0.08984287,0.085092865,-0.07399079,0.008420498,-0.20886172,0.0031298369,0.10822682,0.04392339,-0.04905781,-0.074433066,0.007154174,-0.12865092,-0.08507471,-0.08461141,0.052727383,0.09141702,0.08004442,0.02928834,-0.025132986,-0.08214435,0.11681504,-0.031050822,-0.11128562,-0.10077014,-0.16992585,0.021047372,-0.031622518,-0.022586832,0.0025348337,0.06659362,-0.0593857,-0.044234853,-0.09073645,0.024799775,0.04405229,0.0045752395,-0.12958837,-0.083107315,-0.01961595,-0.09628558,0.042210627,0.07693502,-0.028786931,-0.09119348,-0.021785153,0.03330068,-0.028819915,-0.014933149,-0.03533376,-0.102058224,0.07421179,0.019494453,0.0016736831,-0.14224073,0.0956424,-0.063060954,0.003220244,0.10269387,0.009409631,0.034454353,0.027609145,0.038890485,-0.043486,-0.11710769,0.08636687,-0.07335069,-0.09101169,-0.08059387,0.14359862,-0.0031695087,0.04780884,-0.029959476,0.100928895,0.08040256,0.0035570106,0.104172505,0.02352854,-0.027799435,0.06459835,0.14036937,0.05715995,0.00067766104,-0.0845971,0.041385513,0.04890718
caribbean,-0.041733123,0.1605987,0.07735661,0.023554683,-0.00689254,-0.19874646,0.09444954,0.1710984,-0.0490933,-0.074257486,-0.010647448,-0.16686107,0.023478078,0.045734987,-0.014972499,-0.123482764,0.0937457,-0.087396294,0.010832179,-0.2927118,0.00845221,0.1523391,0.06878385,-0.04019694,-0.09651724,-0.010980239,-0.17269063,-0.094570495,-0.14216532,0.045993995,0.14070308,0.09615743,0.028271312,-0.043933548,-0.097037025,0.15856174,-0.0106411595,-0.11190045,-0.13053532,-0.2291212,0.03021023,-0.073474385,-0.07820299,-0.0043257796,0.096029475,-0.09906395,-0.08141183,-0.100835286,0.047016934,0.074516885,0.038113676,-0.18097445,-0.09265543,-0.015911803,-0.15401563,0.06213853,0.09912968,-0.05877728,-0.164903,-0.04554421,0.05072756,-0.024378749,-0.011250202,-0.050637007,-0.1581631,0.10038769,0.032285575,0.012404013,-0.18180728,0.13963693,-0.07511357,-0.00092235813,0.11551792,0.020695861,0.062418275,0.047671307,0.028183507,-0.05615423,-0.15808071,0.12831639,-0.08661132,-0.11672795,-0.1065496,0.18214467,-0.031156734,0.08879792,-0.04995403,0.14905806,0.11322519,0.053265344,0.1279392,0.027766472,-0.013131488,0.076976664,0.23092923,0.10164687,0.019992007,-0.13829483,0.006843648,0.0350874
south,-0.03449528,0.09891014,0.05259033,0.009135379,-0.020806748,-0.11369363,0.044215247,0.09450307,-0.035271756,-0.040499706,-0.00073799456,-0.08759774,0.027211398,0.026220396,-0.011395494,-0.07378321,0.06037816,-0.058813285,0.015704334,-0.15237965,0.007076991,0.066020414,0.05116519,-0.035714597,-0.044101156,0.00293335,-0.10253176,-0.04217563,-0.055467013,0.02950345,0.08479055,0.06608203,0.023210395,-0.032603204,-0.04638055,0.07987959,-0.016189681,-0.086092986,-0.07574698,-0.13404545,0.008918909,-0.038483065,-0.025557462,-0.011033301,0.050890774,-0.04117151,-0.034196172,-0.059392035,0.016377242,0.030689673,0.031896185,-0.08330372,-0.062439416,0.0027400216,-0.088634536,0.016015684,0.055448335,-0.024520483,-0.09442291,-0.029731799,0.027488457,-0.0040236562,-0.024078023,-0.012412551,-0.08073436,0.047984254,0.035676226,0.022069147,-0.10924566,0.098371275,-0.042454824,0.0062262993,0.07464346,0.017170412,0.030212382,0.01327742,0.020200215,-0.037217174,-0.073656976,0.08732427,-0.05219278,-0.08026077,-0.05121584,0.106904596,-0.024714042,0.047012243,-0.027605925,0.08713134,0.056921426,0.034737885,0.09343903,0.004148152,-0.0057083583,0.03724454,0.11775672,0.064903155,0.0042849425,-0.071670175,0.008489359,0.022876296
dividend,-0.072819985,0.20181291,0.08388446,0.010417147,-0.016782066,-0.25900114,0.119895205,0.19904427,-0.08124555,-0.11664263,-0.030191611,-0.19796912,0.060050443,0.057430603,0.014089982,-0.12144631,0.09585129,-0.083581254,0.04784424,-0.30668744,0.009793528,0.17058039,0.06927916,-0.04097011,-0.07722717,-0.012017115,-0.19660021,-0.08489669,-0.11357421,0.050167523,0.15274581,0.16114244,0.020603215,-0.050340988,-0.09045836,0.2012689,0.0065702824,-0.17039484,-0.16929263,-0.2213303,0.036178034,-0.08317684,-0.06304359,-0.04746623,0.10576193,-0.08683117,-0.059437253,-0.097421564,0.03048761,0.03269997,0.07575386,-0.1962833,-0.14969985,-0.00077606377,-0.1473267,0.08077871,0.105422094,-0.07652598,-0.14773613,-0.048080225,0.053339694,-0.036834646,-0.03593394,-0.029421115,-0.15059586,0.09273205,0.02439813,-0.003440829,-0.21940017,0.19721986,-0.111662626,-0.007734955,0.13901347,0.023178063,0.03861366,0.052414935,0.03410703,-0.086298354,-0.16018106,0.17323577,-0.09348695,-0.12946835,-0.1036467,0.2049199,-0.017406527,0.112880364,-0.051679935,0.19161999,0.15265667,0.058541827,0.17409194,0.009730753,-0.053247612,0.07435073,0.2403579,0.081435464,0.039564107,-0.1711819,0.035170592,0.0484311
europ,-0.04365073,0.09633318,0.07006413,-0.00862253,-0.026612261,-0.14541674,0.049020518,0.11813931,-0.04579387,-0.05627263,-0.02398479,-0.115899704,0.015093032,0.030632032,0.004881903,-0.06656548,0.07508414,-0.075053684,0.0455856,-0.19610694,0.018576836,0.09062275,0.06350958,-0.06468064,-0.06883635,0.016016765,-0.12421766,-0.057123955,-0.07480582,0.035302423,0.115631774,0.09202637,0.011194672,-0.03704681,-0.06056669,0.096067205,-0.005304614,-0.08311035,-0.098977834,-0.14038451,0.037258524,-0.039974257,-0.037419345,-0.01977487,0.077005185,-0.06019585,-0.052677635,-0.06053825,0.03436088,0.041465458,0.031395275,-0.10915782,-0.054329876,0.015334788,-0.104324184,0.04328007,0.07170618,-0.017914051,-0.09606474,-0.036329146,0.030840766,-0.019010983,-0.017922077,-0.0065340954,-0.10137149,0.053594835,0.03597373,0.0063010775,-0.1182616,0.11582345,-0.059216253,0.008719351,0.07730923,0.011130653,0.046564464,0.020878358,0.03167779,-0.047219127,-0.09579173,0.092916004,-0.05385366,-0.08888319,-0.07483674,0.1323126,-0.024584683,0.046273716,-0.051564015,0.12064659,0.06834029,0.038663395,0.10923024,0.008038293,-0.023665829,0.032138888,0.15330291,0.09255969,0.02705225,-0.09572539,0.01998962,0.028010573
demograph,-0.07575767,0.18927513,0.08717098,-0.01728989,-0.03247364,-0.2676037,0.14022242,0.20119119,-0.08870576,-0.116289444,-0.01958634,-0.18292986,0.049745664,0.05457942,0.0010016852,-0.12655932,0.10270403,-0.08403314,0.022904586,-0.31938335,-0.0039054726,0.16489318,0.07540593,-0.051027358,-0.09686303,-0.03006209,-0.17869946,-0.10621771,-0.12804338,0.041300453,0.17864095,0.16644044,0.03537638,-0.03670665,-0.082302734,0.18133645,0.009286765,-0.18178913,-0.15152252,-0.23617445,0.026630504,-0.08518029,-0.03615571,-0.047905445,0.123523004,-0.09156419,-0.04681878,-0.1018945,0.048801243,0.035276886,0.07344625,-0.17619441,-0.13926017,-0.012223935,-0.14424971,0.08147834,0.12567204,-0.053264458,-0.14408834,-0.037032895,0.08382615,-0.035766315,-0.04155792,-0.037795994,-0.15758476,0.09048561,0.021696802,-0.012990771,-0.21712825,0.20340979,-0.10609476,-0.018945629,0.14797363,0.03498363,0.052552566,0.0516058,0.04885538,-0.08188178,-0.16612507,0.16621666,-0.07054931,-0.13618958,-0.12851597,0.22796793,-0.0072277985,0.10901067,-0.06143361,0.19615987,0.15356424,0.069341056,0.16761382,0.0035871887,-0.042630173,0.07335252,0.24259241,0.07990015,0.05347563,-0.18592596,0.041234925,0.01742091
america,-0.024209414,0.15272373,0.07079728,0.002972072,-0.009401797,-0.18391128,0.073020965,0.15846534,-0.05300705,-0.063246325,-0.023013579,-0.14002074,0.019209193,0.03915382,-0.030614875,-0.09463287,0.09564824,-0.078060895,0.01008168,-0.27870727,-0.0040965276,0.1285371,0.05982009,-0.062320907,-0.09153041,-0.0075824144,-0.17127755,-0.084370725,-0.11846631,0.056976546,0.12983654,0.10267673,0.011271707,-0.05331764,-0.089459054,0.16055635,-0.006358846,-0.11299063,-0.11602764,-0.2225714,0.024959158,-0.073524386,-0.052363016,-0.013207565,0.084336795,-0.08522242,-0.0727116,-0.095059715,0.0359914,0.05005803,0.028738644,-0.15627566,-0.10330446,-0.014959968,-0.12980793,0.041180734,0.0727788,-0.054451678,-0.14829959,-0.03592909,0.059212897,-0.03370342,-0.010655349,-0.027287783,-0.11441567,0.08606316,0.04517132,0.00095719605,-0.18099165,0.11954451,-0.088194184,-0.010761759,0.094659396,0.017622765,0.054080978,0.024576074,0.0129020745,-0.052501224,-0.1321534,0.12288959,-0.058004797,-0.09367618,-0.096865475,0.17017318,-0.027239963,0.074950255,-0.041363996,0.15235065,0.102609836,0.043779884,0.1143662,0.014764579,-0.0014154142,0.05755052,0.19353028,0.08320658,-0.0012272089,-0.11408319,0.0064004143,0.03998455
guinea,-0.06284881,0.13744599,0.050833132,0.0040722652,0.0031281153,-0.16898625,0.09534887,0.14579035,-0.078107215,-0.04656942,-0.02526207,-0.14390211,0.03357756,0.035817545,-0.024063326,-0.11315577,0.09600016,-0.09891423,0.029360408,-0.27101862,0.023371482,0.116875224,0.08325936,-0.068731174,-0.088659294,-0.020022256,-0.15334354,-0.07486854,-0.10885022,0.056118846,0.12267819,0.12946898,0.021024667,-0.020443916,-0.08552015,0.1544577,-0.035811953,-0.11307191,-0.11532821,-0.19868013,0.023857463,-0.069345996,-0.040141914,-0.018653106,0.103795834,-0.057754114,-0.044547975,-0.08858589,0.05313455,0.047940947,0.034711167,-0.13080865,-0.09548677,-0.008632638,-0.13087313,0.049385384,0.08527322,-0.045315955,-0.14582762,-0.04894015,0.05291202,-0.032093875,-0.030188033,-0.042057585,-0.13872997,0.06539141,0.047812648,0.01580576,-0.16981019,0.14331633,-0.07331633,-0.0027547672,0.1051536,0.024775209,0.03914649,0.014536502,0.043417867,-0.06032116,-0.13630524,0.13277452,-0.06341794,-0.09926114,-0.10053074,0.18349837,-0.021883318,0.065016046,-0.05653386,0.16555606,0.11021915,0.0418005,0.1465667,0.015216058,-0.017057834,0.054708146,0.1792917,0.086412005,0.026474506,-0.13127929,0.045651462,0.03438449
latin,-0.021649225,0.1001038,0.04465808,0.010580977,0.0058995257,-0.119596675,0.063873336,0.09052685,-0.02469468,-0.038397513,-0.002226369,-0.11302948,0.011308811,0.03197943,-0.01985441,-0.075168595,0.06496137,-0.06473807,0.006039502,-0.16844663,-0.0029023371,0.101033755,0.047012303,-0.021391237,-0.06401723,-0.009104031,-0.11651583,-0.056015547,-0.08908417,0.027850967,0.0955775,0.05246861,0.0074030557,-0.03652164,-0.06650597,0.08673459,-0.008957252,-0.05921708,-0.066598445,-0.14343163,0.007180521,-0.045734487,-0.0544227,-0.014611605,0.049922675,-0.047521684,-0.05662194,-0.053744398,0.02519518,0.04648823,0.01624775,-0.11612118,-0.050223935,-0.015318933,-0.08616025,0.040037487,0.06385952,-0.03144747,-0.0939361,-0.02117419,0.023616081,-0.030952107,-0.008751424,-0.02659918,-0.09085997,0.053012673,0.0043648803,0.008882877,-0.11606702,0.08606986,-0.04426175,0.0060209124,0.08070447,-0.0011243789,0.023125494,0.010908302,0.0013095464,-0.04398096,-0.091276854,0.067953594,-0.0547611,-0.07530881,-0.052998066,0.109710015,-0.0011418585,0.036492873,-0.037721448,0.09164888,0.0789431,0.027335474,0.08195612,0.0116146235,-0.0036245584,0.030175323,0.1329333,0.07430248,0.018683977,-0.079041444,-7.772414e-05,0.02074927
china,-0.052503116,0.19485007,0.054314215,0.016236497,-0.043254226,-0.21498723,0.12063815,0.17212404,-0.09379513,-0.066801235,-0.023288162,-0.20366608,0.047330692,0.06689566,-0.0331434,-0.12512156,0.1283335,-0.12914443,0.05248867,-0.3225177,0.027102724,0.1587296,0.121888764,-0.06225135,-0.08097477,-0.022003248,-0.20732424,-0.10668158,-0.13488646,0.065957986,0.17554162,0.17130168,0.062018856,-0.06534376,-0.1129027,0.18082327,-0.01475725,-0.14692225,-0.16150096,-0.27219868,0.003324036,-0.06606588,-0.04559405,-0.036220487,0.13196604,-0.06216617,-0.08413358,-0.12764905,0.04416383,0.08362708,0.014921421,-0.1695617,-0.12998559,-0.003044602,-0.14015704,0.037674144,0.10428827,-0.061561,-0.18584935,-0.034678843,0.089374,-0.042838126,-0.047668412,-0.04152191,-0.18497881,0.05730427,0.025753492,0.011368775,-0.19307607,0.19601345,-0.09234088,-0.015737275,0.16692407,0.05011865,0.061977826,0.029071307,0.030369228,-0.08260857,-0.19035031,0.16943757,-0.08050798,-0.16497436,-0.13643844,0.23689446,-0.043416303,0.086771175,-0.05595586,0.190564,0.13136181,0.037070684,0.16695751,0.042135615,-0.043437622,0.06934284,0.23257145,0.118946254,-0.00088598207,-0.1852265,0.058037616,0.04563036
new,-0.059925202,0.12756655,0.06628872,-0.013839132,0.010442899,-0.17557988,0.076445185,0.14354225,-0.082624435,-0.06235434,-0.019448416,-0.15850374,0.03444017,0.045345157,-0.008848044,-0.120506056,0.09429852,-0.09817104,0.02149167,-0.26487434,0.010397598,0.120982565,0.06868488,-0.055484515,-0.06337408,0.0036120196,-0.1500992,-0.06900777,-0.10809899,0.042211518,0.11209266,0.13832964,0.007443644,-0.03671005,-0.066354275,0.14174522,-0.017970929,-0.13050973,-0.11053109,-0.18977505,0.0005522597,-0.06819057,-0.024411868,-0.013870359,0.103058614,-0.053163882,-0.06507559,-0.068122335,0.036712453,0.03565314,0.034990516,-0.13724306,-0.101867795,-0.00688867,-0.1342949,0.036121145,0.09591202,-0.029813653,-0.11893018,-0.030948836,0.052150995,-0.03385103,-0.018519811,-0.01856118,-0.12699105,0.06384615,0.03392973,0.018341988,-0.17172098,0.15013994,-0.07481888,0.019050179,0.100411125,0.02015181,0.038649887,0.018482722,0.037829198,-0.05967618,-0.13191667,0.13100322,-0.07736266,-0.11473723,-0.11250642,0.1781917,-0.028646182,0.08798463,-0.05284699,0.16092567,0.115768366,0.04195718,0.13720678,0.038761836,-0.009917955,0.07547885,0.19635548,0.106200136,0.026153173,-0.14747238,0.029252183,0.034027994
unit,-0.03145059,0.09814951,0.045608778,0.0071862508,-0.013438651,-0.117791004,0.07071768,0.10133315,-0.036207527,-0.03800151,-0.01182655,-0.11238907,0.021139214,0.010625421,-0.007874883,-0.08665426,0.049875915,-0.068723045,0.031070463,-0.1677842,0.02562725,0.06997543,0.04307081,-0.036758,-0.049445257,-0.004390762,-0.10242239,-0.056052867,-0.08103775,0.014769612,0.08842247,0.07808494,0.024271969,-0.027945435,-0.043935847,0.07917771,-0.005357746,-0.075326025,-0.08710362,-0.11960688,0.006772112,-0.04835026,-0.024024662,-0.0071650282,0.05361636,-0.049620576,-0.026104793,-0.05859944,0.022464635,0.033041675,0.01789204,-0.084432125,-0.056388177,0.0066578817,-0.08335746,0.029075054,0.06630026,-0.03747589,-0.101073384,-0.0066872477,0.0421351,-0.020140996,-0.011625322,-0.02742447,-0.08776503,0.039156634,0.019976107,0.015194656,-0.101416916,0.06837072,-0.050395407,-0.0026716318,0.084612265,0.018044641,0.04623484,0.023240212,0.019232484,-0.030685734,-0.088309936,0.07866233,-0.0547322,-0.07694065,-0.0736637,0.11772815,-0.028137129,0.04003143,-0.023406003,0.0917534,0.08008169,0.014768045,0.086526066,0.023384798,-0.0043195765,0.04025701,0.1396785,0.068539985,-0.0015210734,-0.086195804,0.009533426,0.014551144
sub,-0.04138123,0.088627435,0.06414133,0.0039755367,-0.010313983,-0.14224967,0.04923162,0.10316551,-0.022651555,-0.057543065,0.00883784,-0.11794258,0.025707072,0.028314913,-0.0022783787,-0.08490216,0.05919538,-0.06888085,0.029517876,-0.17493382,0.017087655,0.08528151,0.06863394,-0.053722166,-0.03374671,-0.005559267,-0.11700643,-0.03177913,-0.078176156,0.046691336,0.08791595,0.096614785,0.027135415,-0.041119315,-0.0603097,0.11946027,-0.0076836175,-0.10089632,-0.09184127,-0.14562318,0.022586608,-0.06208973,-0.03037543,-0.011661448,0.08864785,-0.028904414,-0.042788647,-0.056350358,0.03467955,0.025630984,0.041016277,-0.081548825,-0.050223187,-0.006025199,-0.11017013,0.035551626,0.045041308,-0.012660423,-0.09614869,-0.016025817,0.05002555,-0.016427271,-0.01702222,-0.023145763,-0.07938877,0.033079807,0.02871151,0.018917691,-0.111255296,0.10855261,-0.05519703,0.011694133,0.07211681,0.029085863,0.043624528,0.022874057,0.014102859,-0.05048583,-0.0777306,0.097030304,-0.035046816,-0.09080099,-0.07266187,0.11091853,-0.022955244,0.05619953,-0.04440223,0.08947259,0.08695289,0.035781883,0.10299747,0.021019792,-0.027770467,0.026464328,0.14398953,0.056257058,0.0004882536,-0.09360181,0.01746574,-0.00063573295
saharan,-0.032331616,0.10272377,0.046765063,0.00034322107,-0.010346075,-0.16506456,0.05846343,0.15288144,-0.02268319,-0.07954651,0.0204239,-0.115394756,-0.0038199334,0.023972481,0.0017696552,-0.07289635,0.06306076,-0.08449662,0.0321595,-0.22930507,0.0025597343,0.09333775,0.085788585,-0.060625244,-0.04985724,-0.0056588505,-0.12096459,-0.03888542,-0.08295218,0.06345842,0.10286555,0.081554145,0.04095308,-0.04806241,-0.05752976,0.11713557,-0.02374432,-0.11734511,-0.09351542,-0.17184281,0.02706382,-0.08006847,-0.054734677,-0.0250002,0.1120251,-0.056715406,-0.03567685,-0.076209106,0.039994426,0.06772828,0.02691201,-0.12807232,-0.06900139,0.010600859,-0.09395448,0.028454531,0.073555134,-0.020562502,-0.12529469,-0.015618257,0.033817634,-0.017720072,-0.0126255555,-0.015078321,-0.11890078,0.056333933,0.054756407,0.042159773,-0.15553857,0.13198417,-0.048849806,-0.0012865736,0.10840235,0.024657363,0.03380199,0.00703623,0.014988299,-0.048846576,-0.107328855,0.08454744,-0.03557504,-0.10836118,-0.09470132,0.15450983,0.0038797082,0.07108419,-0.039905872,0.11510595,0.08214691,0.047790527,0.09675151,0.019631496,-0.011921987,0.036499046,0.1688648,0.0909552,0.02976057,-0.10551803,0.04188218,0.002959049
congo,-0.025063688,0.07589673,0.027482502,-0.0057206685,-0.013208043,-0.12140893,0.06297497,0.10179724,-0.047700975,-0.048699055,-0.0092367,-0.08298671,0.0025666934,0.035058305,-0.00839921,-0.06590523,0.042643506,-0.067051426,0.028556934,-0.14487216,-0.0026700466,0.07483619,0.05683529,-0.03238867,-0.02370576,-0.016867688,-0.07637084,-0.058525916,-0.075499,0.03561795,0.090833366,0.0700586,0.0034362935,-0.031834293,-0.057261452,0.08927883,-0.03392931,-0.06800562,-0.06178452,-0.13472971,0.00019374155,-0.045948457,-0.029683415,-0.012912245,0.07571174,-0.033340678,-0.04014498,-0.055309836,0.0053700036,0.025308749,0.021565957,-0.06626678,-0.069325745,-0.012528719,-0.06824432,0.027065372,0.042711914,-0.03840345,-0.084174834,-0.032624897,0.015662305,-0.021253498,-0.023541689,-0.024211448,-0.074496284,0.04730059,0.019549934,0.002299243,-0.08410754,0.082713395,-0.045457818,0.0077293916,0.057348114,0.01769219,0.04539958,0.0028260034,0.016565735,-0.047895752,-0.060848214,0.0778592,-0.024127454,-0.085665196,-0.058309525,0.091141075,0.0052188025,0.040728446,-0.020411016,0.07675153,0.074732155,0.02652072,0.063925005,0.0029990165,-0.0024585486,0.034884576,0.1011455,0.074649915,0.010287865,-0.09103086,0.03448059,0.009989089
sudan,-0.035090152,0.075814374,0.02608604,-0.00981554,-0.017734343,-0.11518197,0.031913318,0.105143204,-0.024052644,-0.04189581,-0.000689541,-0.102097526,0.026430443,0.034632128,-0.006354475,-0.0721238,0.04006297,-0.042674106,0.010591028,-0.13937059,0.024696982,0.0774488,0.03490471,-0.022994688,-0.047447633,-0.016624024,-0.06971836,-0.062214505,-0.06193718,0.02204754,0.058205478,0.065408565,0.020927839,-0.02916792,-0.057937987,0.090252995,-0.015956007,-0.08360939,-0.06557978,-0.12132712,0.025967319,-0.036226,-0.010215583,-0.029690528,0.06350139,-0.018198384,-0.025910543,-0.049937442,0.02419193,0.02684556,0.0024836797,-0.092839144,-0.04814177,-0.0066156005,-0.056902476,0.021583974,0.062421154,-0.021636222,-0.060314946,-0.038612083,0.03166255,-0.01120753,-0.009968382,-0.020778928,-0.08414365,0.055741668,0.019009111,0.015252279,-0.1041855,0.08976843,-0.024199005,-0.0017563365,0.07808946,0.01599708,0.037156343,0.03517573,0.016092202,-0.039898124,-0.09133772,0.08795393,-0.042554285,-0.0644086,-0.05560988,0.111301646,0.003577119,0.044767834,-0.022042727,0.09217869,0.06430408,0.033898123,0.07381138,0.011429908,0.0005071372,0.0285475,0.10579803,0.07467069,-0.006815537,-0.079393834,0.01293578,0.027789272
world,-0.013728249,0.07034826,0.04971507,-0.0013010823,-0.023865765,-0.10533949,0.042691976,0.07185183,-0.039805185,-0.04341836,0.00178024,-0.07042858,0.0145966625,0.024282759,-0.007956088,-0.06620519,0.0323006,-0.048375584,0.025136877,-0.12756614,0.021750318,0.07288281,0.054729562,-0.041174985,-0.04238926,-0.016112825,-0.070188016,-0.032461885,-0.07376061,0.02352022,0.07872016,0.074497476,0.014249586,-0.03134899,-0.0234899,0.06588315,-0.021924278,-0.07981301,-0.078046374,-0.11809868,-0.0021235575,-0.032441534,-0.030634547,-0.014824444,0.064416006,-0.02352462,-0.028642949,-0.050262317,0.038093776,0.027082028,0.029708069,-0.059847977,-0.07072253,-0.020528989,-0.05048963,0.032573525,0.04564807,-0.016248366,-0.08608914,-0.025732148,0.01653308,-0.0010170069,-0.021702247,-0.039163593,-0.08240547,0.045869984,0.0169724,-0.0013065008,-0.09178525,0.06755032,-0.048760716,-0.00084087625,0.07140985,0.021567624,0.025037212,0.02342702,0.026266294,-0.052470304,-0.08709696,0.0874157,-0.054862525,-0.063913785,-0.07229529,0.110265546,-0.026272448,0.028580464,-0.028387016,0.080650724,0.07767007,0.036855344,0.07512492,0.023705076,0.0004711787,0.03470175,0.09675357,0.058241483,0.011590901,-0.060188204,0.010423713,-0.002797178
lao,-0.039249066,0.14320639,0.040784545,-0.0032047054,-0.016168382,-0.12241687,0.092313714,0.1204412,-0.047684353,-0.036406606,-0.0013098508,-0.13342874,0.03196748,0.024326053,-0.01396476,-0.06634011,0.066973895,-0.04117038,0.03537241,-0.21428238,-0.005986088,0.08305857,0.04235396,-0.035018828,-0.08161237,-0.007937487,-0.11736009,-0.081520244,-0.10326531,0.012221623,0.07902391,0.11389486,0.047968544,-0.04463784,-0.07048965,0.13337892,-0.0014525161,-0.07380624,-0.12474812,-0.14992027,0.013733856,-0.034175713,-0.018562999,-0.024347348,0.090807,-0.05998584,-0.029070824,-0.060364757,0.03963287,0.053424858,0.020756543,-0.11254945,-0.09518647,-0.011189533,-0.0917511,0.016814714,0.07467945,-0.03727827,-0.088693574,-0.049080353,0.04824353,-0.03678983,-0.033493187,-0.029213669,-0.0991677,0.03566538,0.026237637,0.026530197,-0.13436751,0.10163955,-0.043403033,0.00992225,0.09566914,0.037921388,0.05753881,0.036058784,0.045690015,-0.06274648,-0.07902932,0.12144496,-0.06570014,-0.100185454,-0.0721096,0.1136673,-0.0031155734,0.028244657,-0.035614274,0.13299605,0.09137765,0.03670026,0.08433357,0.030173393,-0.0062290095,0.06358491,0.17358471,0.08180516,0.037536107,-0.08385252,0.013691003,0.03043167
nam,-0.037188727,0.09246036,0.062115006,-0.017230274,-0.018642081,-0.13605839,0.07803637,0.11548419,-0.048228018,-0.049813673,-0.011429614,-0.11380748,0.012859085,0.015527334,-0.008100058,-0.06766601,0.06548807,-0.04895304,0.027366014,-0.19202742,-0.0073083,0.10148454,0.06633886,-0.058033384,-0.04420957,0.012085709,-0.121446446,-0.060099542,-0.09847458,0.0404342,0.08180266,0.09202143,0.03602017,-0.03854776,-0.07952871,0.10751655,-0.027672082,-0.10669432,-0.10737382,-0.14973183,0.014437289,-0.042081792,-0.036272533,0.0037763976,0.09402166,-0.055318546,-0.022572823,-0.07546195,0.0224691,0.03877747,0.02620593,-0.10912813,-0.060651723,-0.002277845,-0.109438375,0.02019661,0.044550482,-0.027939223,-0.10242885,-0.043472163,0.050504994,-0.014422581,-0.015654067,-0.018138515,-0.097273156,0.06450861,0.011559816,0.007252783,-0.13000846,0.10599569,-0.070395686,0.02009952,0.09185819,0.0048955884,0.05040815,0.034377843,0.0076855444,-0.043730736,-0.10918847,0.10884955,-0.039165653,-0.08010135,-0.08971183,0.124523774,-0.018628765,0.053989407,-0.013858556,0.09967453,0.061625678,0.013220321,0.0936529,0.01797208,-0.010788907,0.039917327,0.15702811,0.07508889,0.024565713,-0.08680091,0.006945087,0.015046005
total,-0.03078958,0.030330742,0.014598146,0.01129139,-0.007582897,-0.038374085,0.020682296,0.031988375,-0.01252079,-0.015824424,-0.00088526367,-0.04426169,-0.0042331186,0.016523104,-0.016631218,-0.041535936,0.00419477,-0.010852341,0.01890223,-0.058717865,0.019193312,0.018736754,0.026482947,-0.010766524,-0.013997589,-0.0053160554,-0.030055268,-0.029660592,-0.018038468,0.024832778,0.031039624,0.044741593,0.017568601,-0.012286045,-0.009226464,0.039619107,-0.008775494,-0.016241739,-0.02447197,-0.06279504,0.011068753,-0.01819908,-0.0068304185,-0.013228686,0.020474432,-0.015903365,-0.008355908,-0.032948144,0.028771581,0.005234092,0.020268744,-0.034207884,-0.009344774,-0.0113935135,-0.043673985,0.015468214,0.017770685,-0.00070452195,-0.04971277,-0.005924996,0.011307103,-0.009657386,-0.0039960486,-0.010587505,-0.04352808,0.0033646289,0.017919702,0.017164616,-0.052774645,0.05527652,-0.015369877,-0.011651674,0.02499154,0.01660355,0.0025273764,0.010622938,0.017298836,-0.007106435,-0.024304507,0.038790222,-0.025959367,-0.047035143,-0.013380122,0.035587303,-0.0066931983,0.015213716,-0.0021623771,0.033580627,0.032824066,0.014589901,0.029975884,-0.0065360214,-0.018075194,0.022788532,0.03512276,0.034130637,0.002332251,-0.049353622,0.0029277946,0.01796911
sar,-0.069958635,0.2016603,0.06053561,-0.010139187,-0.040476028,-0.21891926,0.09781164,0.15721968,-0.10668108,-0.07060309,-0.0022416718,-0.21622814,0.021794884,0.0551962,-0.012328379,-0.14858304,0.12866616,-0.13830508,0.051743113,-0.2875951,0.028724756,0.16612513,0.11647339,-0.08114747,-0.09435443,-0.00094197993,-0.21528262,-0.113618426,-0.12646736,0.051455572,0.14159709,0.15701099,0.044731274,-0.04575172,-0.10356996,0.1752458,-0.028416097,-0.1397336,-0.15069062,-0.2618174,0.0019501315,-0.078435875,-0.03833228,-0.021276562,0.120705694,-0.066696025,-0.06445384,-0.11786681,0.037242416,0.06431983,0.020208048,-0.14821702,-0.10414387,0.01989884,-0.12313238,0.02173432,0.10190234,-0.065322384,-0.17415491,-0.052162822,0.08698426,-0.026479606,-0.056997675,-0.035895288,-0.1589585,0.062281843,0.036469214,0.019846635,-0.20626509,0.18333513,-0.0866524,-0.016785817,0.15294549,0.043300573,0.057291713,0.051751327,0.025034245,-0.066138126,-0.18106517,0.14894624,-0.08761793,-0.16080338,-0.1168282,0.21980627,-0.026298605,0.10219099,-0.06739943,0.18977578,0.123821646,0.038072053,0.16305579,0.033812426,-0.03741705,0.06847655,0.23130521,0.11818336,0.0010068946,-0.15278515,0.042399794,0.02212689
korea,-0.039945375,0.08413562,0.0305882,-0.019989017,-0.0062301992,-0.13398616,0.055188913,0.09111672,-0.03148346,-0.04004664,-0.017000334,-0.09431537,0.0029502362,0.020597113,-0.0043270374,-0.082285896,0.03899041,-0.07192901,0.037403442,-0.15436718,0.013398161,0.08588374,0.06448752,-0.048405383,-0.02161295,0.0008745868,-0.09139237,-0.042497434,-0.090139195,0.030541306,0.10296123,0.08268732,-0.00036769192,-0.026634656,-0.062422052,0.0877422,-0.027717188,-0.06961268,-0.07762041,-0.13574259,0.0067849807,-0.034331407,-0.037424777,-0.027099703,0.06406608,-0.048738424,-0.04595188,-0.06320558,0.018489417,0.03414546,0.030532911,-0.08921021,-0.0608034,-0.0017640358,-0.06992105,0.03483691,0.053030062,-0.03142142,-0.09851231,-0.035159625,0.018803263,-0.017616905,-0.026635932,-0.037214868,-0.079005554,0.054831937,0.011321893,0.010755032,-0.09036651,0.09447159,-0.062125105,0.022049455,0.08876794,0.017254775,0.035865966,-0.00018081086,0.015696937,-0.050885893,-0.07467911,0.08329428,-0.05369217,-0.072742395,-0.08374209,0.12440506,-0.0002042708,0.032542154,-0.02444028,0.1031433,0.06019282,0.013669047,0.09332776,0.016935209,0.0013411428,0.031555608,0.122946024,0.0857044,0.014425759,-0.09120742,0.014939912,0.007036406
french,-0.06674312,0.16742091,0.07220135,-0.016915815,-0.0009256242,-0.19810212,0.08923707,0.14311902,-0.065288946,-0.07281717,-0.014192125,-0.16276045,0.043929197,0.058133904,-0.006654994,-0.1265519,0.09335007,-0.08646444,0.017576516,-0.27693024,0.01724736,0.12775742,0.0667319,-0.06868366,-0.06670939,-0.012467001,-0.13831784,-0.081081614,-0.12623456,0.039018925,0.12997082,0.13219266,0.014615027,-0.042022474,-0.09395808,0.15823498,-0.020068042,-0.11821843,-0.12919909,-0.22202918,0.016450016,-0.0644694,-0.040992867,-0.033355083,0.085583955,-0.0646684,-0.047310248,-0.09262242,0.04122323,0.06424656,0.043034106,-0.14303553,-0.10918279,-0.006310277,-0.12930945,0.03835412,0.097293176,-0.052993566,-0.15658516,-0.031716745,0.078363724,-0.017725546,-0.022218255,-0.050057195,-0.13310099,0.04763162,0.023421261,0.0047518536,-0.17190187,0.15647824,-0.06810691,-0.0014417818,0.11920496,0.039327852,0.05030169,0.02696109,0.03273415,-0.068613485,-0.14911939,0.11942477,-0.044168636,-0.10672359,-0.11399794,0.17116484,-0.027397934,0.07768382,-0.065340124,0.16703339,0.10516133,0.050221335,0.15453206,0.0248387,-0.012342045,0.06660863,0.1766661,0.102086246,0.01650943,-0.15628502,0.0448595,0.023371216
isl,-0.025382869,0.08417445,0.029325927,-0.011950003,-0.0041746455,-0.12797302,0.063666314,0.08923048,-0.024555698,-0.025486222,0.0036648032,-0.083120085,0.0006433544,0.0033948557,-0.018898545,-0.069848105,0.061957113,-0.049560625,0.018318271,-0.15529901,0.0041144425,0.06774168,0.053674437,-0.05662652,-0.044084996,-0.012442652,-0.08441998,-0.05783549,-0.065678775,0.016468974,0.0969846,0.06750133,0.02010355,-0.010046955,-0.035533827,0.07946928,-0.0208256,-0.088156685,-0.06495212,-0.13998678,0.021987265,-0.040963043,-0.017629871,-0.022179278,0.06487244,-0.031767275,-0.048378076,-0.039308064,0.015947377,0.043063782,0.019618588,-0.07864215,-0.05156314,0.008800606,-0.09386468,0.040345587,0.07055571,-0.025376564,-0.080016516,-0.016552951,0.03731038,-0.023940716,-0.012352097,-0.024084592,-0.07335113,0.053822227,0.014548253,0.012232295,-0.115067065,0.086745225,-0.061518107,0.0043743527,0.07198536,0.017073017,0.041995786,0.0077188294,0.022861224,-0.04651861,-0.089832224,0.07151726,-0.057285253,-0.056300662,-0.071468934,0.116539314,-0.022658158,0.040545017,-0.023262084,0.07736141,0.05468678,0.010730758,0.06789288,0.005560734,-0.015385788,0.041108575,0.11971698,0.04775038,0.0043110694,-0.082873054,0.0082690595,0.00881977
samoa,-0.045342587,0.08294213,0.029109303,-0.013526981,-0.0050582606,-0.14020622,0.048703115,0.114178255,-0.029411769,-0.055523865,0.0075867805,-0.12072222,0.017606998,0.033971205,-0.012801891,-0.056259394,0.054909185,-0.049367953,0.03792028,-0.18783028,-0.0040085665,0.065802515,0.048035663,-0.058355276,-0.04655872,-0.018417714,-0.10208704,-0.051217135,-0.060781896,0.008520582,0.07729672,0.09562984,0.03814572,-0.024568236,-0.05327118,0.07964538,-0.008656995,-0.103791274,-0.09683777,-0.13342492,0.012665138,-0.032829862,-0.0476778,-0.01437061,0.06924403,-0.05137773,-0.038718,-0.04813494,0.017447518,0.03381127,0.032140393,-0.0920483,-0.05449924,0.015018875,-0.07054699,0.03565146,0.0707374,-0.045558386,-0.07872771,-0.014654361,0.028814461,-0.026726492,-0.005120833,-0.015595823,-0.104235575,0.044977065,0.023631442,0.016643656,-0.09267505,0.077257335,-0.029725531,-0.01656637,0.09114957,0.039296567,0.025026888,0.0009788828,0.033471685,-0.066628374,-0.105250515,0.08213507,-0.055586956,-0.06434187,-0.053297427,0.118450895,0.002933132,0.070867434,-0.021774301,0.10904695,0.08708937,0.03815553,0.10141235,0.029745586,-0.02641931,0.06133899,0.15001287,0.08914497,-0.006267519,-0.0994233,0.02053823,0.027332578
virgin,-0.052701786,0.11629924,0.057880063,0.013294385,-0.023018764,-0.1435178,0.07953347,0.11457438,-0.051177006,-0.061101995,-0.012484521,-0.11190484,0.030371953,0.008414375,-0.011932734,-0.08194145,0.073674776,-0.07503106,0.03813773,-0.19936685,-0.0032084621,0.11371386,0.047719732,-0.058020737,-0.04212535,0.0037396888,-0.11913002,-0.06161899,-0.094343334,0.019756485,0.08962907,0.1023589,0.00018831863,-0.02232574,-0.06963418,0.11897529,-0.015703868,-0.10766692,-0.08254699,-0.1726951,0.011061974,-0.048895564,-0.04932546,-0.033928555,0.09923906,-0.04848366,-0.03237147,-0.08192536,0.03187172,0.037536774,0.017231202,-0.119240016,-0.08931629,-0.013854208,-0.10328127,0.029751588,0.054535065,-0.049972236,-0.095936455,-0.030659944,0.05819734,-0.0038130812,-0.0039078337,-0.03594936,-0.11499907,0.06367033,0.0105503425,0.02453137,-0.112407975,0.11064693,-0.053253416,0.019346775,0.095267326,0.028620953,0.056802116,0.026964277,0.010548033,-0.07162871,-0.10619015,0.101981014,-0.037977286,-0.109041676,-0.086176895,0.15769823,-0.019344106,0.034857385,-0.036996428,0.10345048,0.08047804,0.0115158735,0.10954688,0.0321393,-0.008730343,0.071616165,0.17097998,0.08960818,0.007623186,-0.087433964,0.008779523,0.018737856
pre,-0.024179736,0.1048827,0.03161089,-0.016388198,0.002852987,-0.13198504,0.057935245,0.10227547,-0.026784418,-0.055250045,-0.01720693,-0.07210596,0.041593872,0.034180947,0.019521972,-0.069200195,0.04920011,-0.03816615,0.024759902,-0.12949874,0.0062937224,0.086801544,0.04395306,-0.010248314,-0.041067228,-0.029541472,-0.08816323,-0.028550219,-0.062317662,0.025180694,0.08372697,0.061767276,0.024661385,-0.018435722,-0.037632592,0.10382564,0.0062659625,-0.08123397,-0.09146341,-0.09283196,0.0036906977,-0.024112863,-0.015957259,-0.023887713,0.037093177,-0.033083607,-0.025733324,-0.037233554,0.010095915,0.0023136304,0.03921716,-0.10560169,-0.08353367,-0.01934725,-0.06466276,0.042696957,0.055524737,-0.025214152,-0.064280495,-0.03090979,0.034795742,-0.02792009,-0.020799574,-0.0058108806,-0.07484818,0.05185267,0.0146556,-0.017307641,-0.112909146,0.10373123,-0.048907682,-0.0077591646,0.06678552,0.0071226344,0.019944511,0.019861097,0.0275566,-0.046943113,-0.08149442,0.08649532,-0.044862967,-0.063443504,-0.06612998,0.10288118,-0.0006839217,0.05798928,-0.024162315,0.09459816,0.07212491,0.03154858,0.08982216,-0.0048324806,-0.036040664,0.02136117,0.09748313,0.023439165,0.029373996,-0.07984886,0.006380405,0.0027709815
low,-0.036925495,0.0738818,0.017048901,0.013002637,0.003549213,-0.079390556,0.03290325,0.07811605,-0.038735647,-0.014812847,-0.0075006555,-0.08066639,0.013683473,0.013425085,0.00471421,-0.052148093,0.048039187,-0.058711,0.017473835,-0.12528078,0.0006010175,0.057846792,0.03893719,-0.027486254,-0.03104829,-0.016531942,-0.08213593,-0.043745,-0.06521248,0.011674982,0.075161494,0.048614036,0.0005106539,-0.029534845,-0.030857699,0.06410405,-0.006388688,-0.06068703,-0.04564617,-0.107817166,-0.0034872587,-0.015576742,-0.034711674,-0.009967433,0.04972159,-0.011096051,-0.017615471,-0.03126248,0.019098585,0.033190344,0.015360651,-0.07045132,-0.034817018,0.009196323,-0.045696247,0.017756687,0.041212954,-0.015664702,-0.072935045,-0.014389855,0.013997648,-0.0061406977,-0.026276562,-0.006625396,-0.04879215,0.025880285,9.268959e-05,0.0002595169,-0.07014424,0.059191614,-0.023139756,0.0048322286,0.06585378,0.012382686,0.009081564,0.0024404223,0.011734723,-0.041268993,-0.052973814,0.04715133,-0.040132757,-0.052071285,-0.052636158,0.06655978,-0.018570006,0.03292721,-0.02243854,0.07114333,0.058084127,0.028213909,0.06908188,0.012016882,-0.01473851,0.04532461,0.09422201,0.056825206,0.004280878,-0.05654082,0.020054841,0.0031262327
dem,-0.056945622,0.14266343,0.06947444,-0.024140835,-1.918816e-05,-0.18567432,0.09859451,0.14205378,-0.08388876,-0.047199316,-0.026559344,-0.17392293,0.03352286,0.022322444,-0.024232486,-0.11977528,0.074501,-0.10560856,0.047124304,-0.26136386,0.024603358,0.12854531,0.10546702,-0.083526105,-0.054167863,-0.02373788,-0.1483003,-0.09301521,-0.12516099,0.028714236,0.12907305,0.14699908,0.018662501,-0.029712625,-0.09607955,0.1489239,-0.04566092,-0.1392232,-0.12917577,-0.22669965,0.028487347,-0.0765184,-0.04478047,-0.021195067,0.09876962,-0.061638538,-0.07228664,-0.117746055,0.010397847,0.05406357,0.048367135,-0.13146149,-0.10818838,0.00470468,-0.12492586,0.019399034,0.09981678,-0.042321872,-0.15164047,-0.044801053,0.057033025,-0.03311272,-0.03213308,-0.05620029,-0.1220604,0.08814612,0.036098193,0.0020819504,-0.1550466,0.12916169,-0.11105043,0.027140886,0.1186902,0.027913816,0.06551046,0.004061729,0.04596925,-0.08530918,-0.13752447,0.14553416,-0.068639286,-0.13907273,-0.12782761,0.16698395,-0.020594273,0.06505541,-0.028650202,0.16065562,0.109062165,0.037641175,0.11720693,0.038351607,-0.027515596,0.076854534,0.21476367,0.12381748,0.029242722,-0.1333956,0.046896257,0.020688457
part,-0.071578644,0.22063427,0.10516632,-0.005069636,-0.011544792,-0.27142254,0.11158826,0.19100584,-0.10322156,-0.08729106,-0.025094248,-0.21541071,0.05168059,0.07909187,0.0021583717,-0.15779437,0.11537124,-0.11963168,0.02835607,-0.37200144,0.04071128,0.1517463,0.11340685,-0.09140681,-0.10575108,-0.011462135,-0.21241184,-0.096457034,-0.16531618,0.04992424,0.1834321,0.17892773,0.042357937,-0.043538608,-0.12484176,0.18792902,-0.023768371,-0.15179443,-0.18252751,-0.29553246,0.027322736,-0.07231145,-0.06809301,-0.039386086,0.12731144,-0.07003314,-0.06063989,-0.11200922,0.03373822,0.09131283,0.04320805,-0.2044626,-0.15820135,-0.019221146,-0.14879191,0.07466142,0.1034204,-0.055776305,-0.2050222,-0.06302478,0.0931021,-0.018939901,-0.034405265,-0.04987403,-0.16612138,0.07432959,0.05112534,0.025256503,-0.21899699,0.21014433,-0.12025572,-0.0071501993,0.1655457,0.050170507,0.059753858,0.05653153,0.031664107,-0.117335156,-0.19753985,0.16029099,-0.06738097,-0.17125903,-0.14423127,0.2605381,-0.05510412,0.10227567,-0.06840139,0.19575281,0.15165375,0.048048284,0.19993807,0.020518847,-0.034322623,0.11350343,0.25086388,0.1552098,0.0038179008,-0.17815316,0.041965708,0.03175446
pri,-0.035250988,0.08963085,0.039598297,-0.0072230175,-0.0166332,-0.1203111,0.050549258,0.10179769,-0.031656317,-0.038899306,-0.012754341,-0.09122445,-0.0036969695,0.025260124,0.000517318,-0.07090871,0.043320823,-0.06995269,0.005363963,-0.14975476,0.016523968,0.075493,0.06066955,-0.05309972,-0.04271766,-0.0028622425,-0.10408496,-0.066184334,-0.056863658,0.020332783,0.06645543,0.09178082,0.003757006,-0.019435499,-0.046951298,0.081073835,-0.029064797,-0.087688684,-0.08877615,-0.12501065,0.007801035,-0.034819193,-0.023107635,-0.019291028,0.076706424,-0.019637855,-0.03669709,-0.04936626,0.023212533,0.04131244,0.037741605,-0.09294552,-0.059270617,-0.005074587,-0.07842424,0.014654067,0.055669155,-0.03877006,-0.07951646,-0.023895998,0.038634717,-0.0210909,-0.009213176,-0.036124032,-0.06317242,0.040394735,0.02520214,0.01849597,-0.096824385,0.09609818,-0.04476977,-0.015171674,0.06357058,0.015254179,0.015311227,0.02794345,0.02902257,-0.047520112,-0.072462596,0.075556144,-0.03731724,-0.06480397,-0.07312306,0.09462849,-0.0003813682,0.036614664,-0.017356982,0.09821603,0.05829844,0.036183454,0.08968506,0.0055750795,-0.025431989,0.022021575,0.12960437,0.07591415,0.0076099676,-0.081423126,0.006522215,0.010066302
georgia,-0.0058087544,0.023503684,0.004448137,0.0023332422,-0.016521683,-0.055978898,0.029059067,0.04845338,-0.026248824,-0.005001654,0.010411281,-0.03226353,0.001452133,0.022971636,-0.012891544,-0.03164518,0.022227159,-0.033745572,-0.0076669324,-0.05966647,0.013621689,0.023326075,0.012277812,-0.008755794,-0.016570048,-0.014367052,-0.027350642,-0.02420754,-0.021978041,0.01633383,0.043259803,0.040718716,0.017555786,-0.02024827,-0.017042527,0.033433974,-0.0019848135,-0.01681217,-0.023221653,-0.063227825,0.018302541,-0.017438607,-0.010317968,0.0014711214,0.016615795,-0.012476765,-0.009896588,-0.009669063,0.015271843,0.008863537,-0.0035122354,-0.040834524,-0.010378973,-0.015618979,-0.0177677,0.011202531,0.021008762,0.0038661417,-0.018300813,0.0027183478,0.025470432,-0.018862775,0.00365926,-0.022057448,-0.0429301,0.004174849,0.011955507,0.014942708,-0.04894132,0.03062401,-0.022000553,-0.005981512,0.026927482,0.014898754,0.017345425,0.003201336,0.0016139973,-0.021476816,-0.037682857,0.03625323,-0.0021472012,-0.017350871,-0.035504546,0.03397354,-0.018012268,0.009777125,-0.007982446,0.026727451,0.028054489,0.021858202,0.03785053,0.0073401113,0.0074800025,0.024628282,0.047876388,0.015745193,0.0015738725,-0.023220522,0.01853528,0.0024387473
gibraltar,0.0028447204,0.038352344,0.022530103,-0.0074993772,0.0029278032,-0.04185019,0.0070267674,0.040271875,-0.025782041,-0.023202782,0.0011820704,-0.022798838,0.0020365498,0.017881572,0.004028764,-0.01954184,0.009673947,-0.013599364,-0.006554878,-0.06419397,0.010178005,0.017364694,0.02640939,-0.019211961,-0.016619662,-0.014070856,-0.043076366,-0.023075528,-0.012549141,0.018743254,0.014592541,0.018287426,0.009138042,-0.020375267,-0.010428433,0.04238274,-0.018105919,-0.014404889,-0.017481394,-0.05015793,0.00684077,-0.023624156,-0.0021738978,0.0065716146,0.027439995,-0.026674598,-0.005264891,-0.023812676,0.004332429,0.018693762,0.00963943,-0.025528202,-0.029193746,0.005889979,-0.033468172,0.009987141,0.029209508,-0.0042138803,-0.020476308,-0.013413957,0.017100079,0.0044415398,-0.009757543,-0.0010871075,-0.04233946,0.027420953,0.013886714,0.010750319,-0.030617388,0.03914711,-0.020982958,-0.00918213,0.023089176,0.008598174,0.006338933,-0.005297613,-0.002183593,-0.0049735657,-0.01675221,0.036760695,-0.020386042,-0.024313023,-0.035075396,0.0482047,-0.0048656864,0.027532186,-0.019871017,0.029459542,0.029901171,0.013307512,0.020300541,-0.0045555714,-0.00015243498,-0.00020758252,0.052917212,0.029896451,-0.0016168855,-0.037546918,-0.00436372,0.0028228406
gambia,-0.004816119,0.037329238,0.006117438,0.011961751,-0.016890617,-0.03783432,0.031460185,0.039297495,-0.029668229,-0.0071037025,-0.0130581055,-0.046651997,0.019658303,-0.003940773,-0.012454075,-0.03631034,0.026647747,-0.019264583,-0.0007727475,-0.06959655,0.0153576005,0.044458453,0.03409324,-0.014669374,-0.011572092,-0.00011496805,-0.035562456,-0.013643548,-0.026035849,0.011177031,0.027385771,0.021975616,0.019453848,-0.016898662,-0.016122991,0.036117256,-0.00829416,-0.03902116,-0.026612721,-0.058660127,-0.0066223694,-0.019271823,-0.0039699874,0.0031294355,0.024849817,-0.0042195953,-0.024778755,-0.027120765,-0.00083758263,0.005245108,0.020145312,-0.04970971,-0.035215657,-0.016525138,-0.018808061,0.0068201837,0.022082075,-0.019881343,-0.037938215,-0.009677842,0.011531094,-0.015869081,-0.016292054,-0.00628267,-0.046851,0.01792284,0.00511782,0.017480679,-0.042456485,0.04501897,-0.030989304,-0.009778805,0.037116632,0.008330139,0.005100046,0.005710169,0.020544654,-0.032554775,-0.03935128,0.032615017,-0.015484697,-0.017117571,-0.029384745,0.033748154,-0.014857817,0.004855886,-0.024014413,0.028549,0.018605128,0.0073723523,0.033341866,-0.00012356877,-0.0005714012,0.021695424,0.0631333,0.019454675,0.010918528,-0.023513827,0.0037818663,-0.0036333548
gib,-0.019223941,0.0309155,0.027167449,0.012050935,0.007413149,-0.06200088,0.03155501,0.048054248,-0.009924094,-0.029770734,-0.0028704759,-0.052304544,-0.005284978,0.013354127,0.0120855095,-0.022249829,0.012317223,-0.020387042,0.003950667,-0.054711953,-0.007941794,0.04730354,0.0123997,-0.026543181,-0.017855456,-0.0038653305,-0.053005144,-0.023141233,-0.032351945,0.004772639,0.04299215,0.039403226,0.018296216,0.0009908188,-0.03277805,0.045917038,0.0009004233,-0.025739344,-0.025589434,-0.06398914,0.012854742,-0.016487313,-0.01251282,-0.015430996,0.030630039,-0.00813971,-0.029294657,-0.01150646,0.013819189,0.012906409,0.0048980042,-0.03840104,-0.016966572,0.0053016795,-0.04314656,0.02395567,0.023359645,-0.0249943,-0.024443408,-0.0023229546,0.021266028,0.0060052024,-0.020148808,-0.020619486,-0.03776353,0.011701663,0.0075782007,0.0027539562,-0.055833433,0.040882837,-0.016808482,-0.0013038649,0.038440056,0.011055869,0.022052966,0.0056011593,0.020387968,-0.022366831,-0.03242417,0.029642662,-0.008528093,-0.029233431,-0.026640056,0.060617104,-0.015643409,0.034421094,-0.011676912,0.037344985,0.02311055,-0.0038810903,0.032954052,0.010510968,0.005013757,0.030231277,0.04153444,0.042612445,-0.009193809,-0.031203602,0.020530839,0.0045983256
gha,-0.024398742,0.021046815,0.01745851,-0.0014770658,-0.017646294,-0.038333237,0.02173187,0.041236464,-0.00915574,-0.008696793,-0.016230252,-0.026235087,0.012353072,-0.0011911236,-0.0056775054,-0.025116872,0.018673446,-0.022684371,6.802648e-05,-0.05897638,0.009855738,0.026556995,0.0169388,-0.010908524,-0.022694081,-0.012786251,-0.021426162,-0.031628143,-0.02777775,0.008795962,0.018528946,0.0289421,0.015371448,-0.009383452,-0.006051709,0.03342949,-0.01229791,-0.031336743,-0.028076978,-0.037273385,0.012261815,-0.0063428213,-0.018539095,-0.013512077,0.030990317,-0.009541579,-0.004865594,-0.017570892,0.018790873,-0.00246933,0.021759642,-0.04477154,-0.024122758,0.0069341487,-0.041840132,0.01629493,0.009476743,-0.021121193,-0.027434612,-0.0060780807,0.008664308,0.006361867,-0.01617713,-0.0082991365,-0.016838457,0.018285293,-0.0012497035,0.01010459,-0.044379167,0.033709135,-0.012980128,0.011184006,0.036937673,-0.0011613538,0.023431059,-0.0016668128,0.017060041,-0.026718568,-0.041210163,0.027866019,-0.025206314,-0.030722635,-0.023527388,0.0385051,-0.017781902,0.007527066,-0.022255117,0.03296874,0.03305543,0.008593914,0.04367642,-0.00043538876,0.007951613,0.022594994,0.05651621,0.023179067,0.003986642,-0.0286324,-0.005646944,0.019564852
gin,-0.008161993,0.021083033,0.009336123,0.0010604025,0.0011074996,-0.02814121,0.00916666,0.019114818,-0.017893374,-0.01079524,-0.0057772133,-0.021821428,0.006914608,0.0062396876,0.0041841734,-0.018733136,0.0002933907,-0.0049118684,0.009873521,-0.02083755,0.007849394,0.0038866044,0.01579137,-0.0135006625,-0.015439948,0.00857018,-0.016066674,-0.019056734,-0.013198529,0.011574398,0.0075919945,0.018182676,0.0010459566,0.0004505574,-0.005155745,0.0050861365,-0.0067941668,-0.0016353019,-0.011802473,-0.027588662,0.0069792047,0.0028725557,0.0054237917,0.00070867385,-0.0001345267,-0.008732852,-5.0508224e-05,-0.0126188025,0.014395342,-0.005697967,-0.0070301597,-0.018512376,-0.002618091,-0.008979065,-0.0018049219,-0.007979963,0.01048731,0.0005661246,-0.014319364,0.00888908,0.011336715,-0.0029277878,0.000734,0.0036213505,-0.008797733,0.016979178,0.0038681976,-0.0075141024,-0.02099195,0.012243088,-0.015806934,0.00087888906,0.020109922,-0.0031927994,0.010084466,0.009305094,0.0033040342,-0.004823255,-0.007018769,0.005081095,-0.0018058852,-0.00029614125,-0.013084278,0.007475702,-0.011592205,-0.0013598895,-0.0008749436,0.021779558,0.020178204,0.0029005606,0.015989428,0.0080462005,-0.013131257,-0.0034144477,0.024642901,0.0013914123,-0.0014042087,-0.019326732,0.011168173,-0.0002829911
gbr,-0.0032289813,0.05418056,0.0190032,-0.0052198456,-0.0014729731,-0.07425553,0.043858517,0.06779934,-0.016479135,-0.034125637,-0.012515947,-0.059014086,0.009225857,0.0030771047,0.003640424,-0.03487932,0.022018576,-0.02902597,0.02042981,-0.091443375,0.01831284,0.042578433,0.017779402,-0.021134302,-0.038197458,0.00620282,-0.06580865,-0.031739414,-0.044372667,0.016942594,0.05152741,0.034680236,0.004903503,-0.012076441,-0.023014938,0.055566393,-0.008998151,-0.0439433,-0.05130201,-0.06464576,0.00010902504,-0.0198624,-0.01931829,-0.016912393,0.043649364,-0.022814346,-0.03104735,-0.043902565,0.01278684,0.0045506423,0.016479224,-0.043557048,-0.027740464,-0.009962275,-0.03500628,0.004051066,0.045503356,-0.017400844,-0.04989974,-0.0045646797,0.018179443,-0.014798467,-0.0116785355,-0.023388378,-0.04636926,0.016232567,0.018230738,-0.006208732,-0.065323904,0.033009652,-0.04106285,0.0012511836,0.030591937,0.0041298643,0.024432486,0.010933795,0.0166595,-0.01304271,-0.06323373,0.05400804,-0.03532812,-0.030505741,-0.027621143,0.07272347,-0.018963365,0.030988723,-0.025685174,0.051533103,0.03221644,-0.00053251925,0.054555304,0.015083779,-0.010574645,0.0152932955,0.078147046,0.03250924,-0.0078092613,-0.05156496,0.007198727,0.021360973
fsm,-0.032350678,0.06467888,0.03165815,-0.004445854,-0.012702714,-0.07737843,0.039413694,0.053959623,-0.030189512,-0.0389144,0.0020972376,-0.07128125,-0.00047659094,0.017778413,-0.000117283584,-0.04334213,0.028713385,-0.028197097,0.016409181,-0.08994477,0.0011211776,0.035826884,0.016134048,-0.011733388,-0.026810931,-0.0069279606,-0.05411269,-0.021123324,-0.036221813,0.009923314,0.04008591,0.049397156,0.001575651,-0.006474315,-0.023164744,0.04506622,0.0006460527,-0.055420656,-0.037932813,-0.08341605,0.008071993,-0.027858272,-0.0097229015,-0.00029952792,0.035207868,-0.026305482,-0.031207861,-0.026543481,0.020804387,0.02779197,0.010369759,-0.06661483,-0.029706795,-0.013064019,-0.045290876,0.025521785,0.030507894,-0.015442546,-0.05834825,-0.020238275,0.017450139,-0.0057167183,-0.019401405,-0.018456018,-0.05028088,0.033780903,0.013667529,0.017602623,-0.054393947,0.05116373,-0.03484078,0.006519664,0.049367383,0.0010056858,0.027464334,0.023825176,0.02121833,-0.035400268,-0.049912766,0.048185203,-0.018613713,-0.045240123,-0.041790124,0.07335284,0.0026690597,0.026452472,-0.024207449,0.0513327,0.033487856,0.015594946,0.055975758,0.003644909,-0.01622763,0.024025893,0.07889739,0.04842004,0.014614527,-0.05847644,0.023529511,0.012919962
ghana,-0.01215846,0.045806825,0.008122172,0.007345895,0.008911043,-0.041021407,0.027406357,0.04411571,-0.018659886,-0.028628647,-0.0021015375,-0.036379002,-0.0032230555,0.011275783,0.004985773,-0.038418874,0.023944952,-0.010060085,-0.0039561577,-0.058861446,-0.009582849,0.019758882,0.030589428,-0.02591211,-0.019410528,-0.013234257,-0.049546912,-0.030109052,-0.02793919,0.015118774,0.019212347,0.020445501,0.0006833947,-0.01076363,-0.029003754,0.029714432,-0.0012047696,-0.025359772,-0.020538216,-0.04584721,0.003735032,-0.011113855,0.0024392942,-0.0032035988,0.028981445,-0.014666937,-0.027634146,-0.0147725325,0.017076679,0.012151326,0.021458458,-0.043221805,-0.016971285,-0.0127732875,-0.043728195,0.01271245,0.028442334,-0.0032595845,-0.04651533,-0.0024155003,0.0188595,-0.00071273383,-0.0074553317,-0.0030119116,-0.022207994,0.0027630685,-0.0051275752,0.015391521,-0.041569117,0.021200534,-0.024172217,0.0032085357,0.039847866,0.004007962,0.009545397,-0.0014953256,-0.002392081,-0.01571717,-0.033251453,0.02013475,-0.012520719,-0.041583907,-0.029029202,0.05065148,-0.004868396,0.028311841,-0.0035690668,0.036499504,0.034670245,0.018129168,0.046738084,0.018002242,0.0025928176,0.022081437,0.058434457,0.023709683,-0.0034103298,-0.02061455,0.011039354,-0.00047389022
gabon,-0.012723958,0.029093472,0.029317968,0.0044419644,0.0023118758,-0.036601912,0.033128038,0.02926125,-0.024191275,-0.021038454,-0.007401552,-0.05245604,0.0048455074,-0.0020451162,0.009406839,-0.031854015,0.01319517,-0.03417325,0.0028238976,-0.07601735,0.004721442,0.037736177,0.015194149,-0.0041806484,-0.021238212,-0.0119692385,-0.040188547,-0.024960985,-0.03544096,-0.003057498,0.02459037,0.027803134,0.01203766,-0.017706977,-0.027811395,0.0357295,-0.0065539996,-0.024241747,-0.03311907,-0.044021778,0.017407844,-0.025383228,-0.0052093817,0.0019669426,0.024075903,-0.0043185065,-0.022226036,-0.028212754,-0.0005717531,0.025545886,-0.0051780357,-0.038828004,-0.023820069,-0.00796821,-0.018676797,0.0009078894,0.009414853,0.0019894196,-0.04512328,0.0035223332,0.006948067,0.0014982761,-0.006963092,-0.015135285,-0.04214043,0.0062909024,0.018714566,0.013996036,-0.03964707,0.044434223,-0.012879909,0.005046212,0.030543601,-0.006225837,0.024010029,-0.0054152845,0.0028007007,-0.01615477,-0.025872283,0.01840268,-0.013417936,-0.019010777,-0.036634844,0.055696283,-0.01232782,0.0321161,-0.021651212,0.044445604,0.04073081,-0.0025434413,0.033224203,-0.0053295675,0.007803819,0.029265467,0.038355302,0.026015336,0.00083938666,-0.042946316,0.008340481,-0.0058346214
geo,-0.011666298,0.030203,0.024526434,0.00969316,-0.008286614,-0.0544991,0.0108744325,0.046310626,-0.013424656,-0.003896452,0.0010457141,-0.04607342,0.013385966,0.020978931,0.009052541,-0.01922883,0.010586073,-0.033020996,0.018157134,-0.0788315,0.0079995915,0.044634562,0.015375181,-0.00714681,-0.031992458,0.0067040995,-0.032178752,-0.018243305,-0.040615026,0.02480042,0.045788098,0.031518124,0.011887413,-0.00059251575,-0.02491387,0.045490496,-0.011524513,-0.03282087,-0.032302644,-0.061243102,0.003298079,-0.027915824,-0.0066999565,0.00651452,0.033115238,-0.005312065,-0.021126578,-0.01702919,0.00011685063,0.004906906,0.02272835,-0.029393261,-0.03279149,-0.0109110745,-0.024704149,0.014146198,0.033422057,-0.020801421,-0.038430825,-0.010110239,0.01555956,-0.0041155117,-0.016804604,-0.005068358,-0.038140744,0.02953909,0.009365221,0.016834171,-0.04566029,0.045905504,-0.03293383,-0.012619058,0.03095043,0.0039633713,0.025228174,0.015897676,0.000550356,-0.010569215,-0.03411473,0.021734644,-0.009729475,-0.03412028,-0.039906003,0.05806153,0.0043871254,0.03144759,-0.012212615,0.049468864,0.03589262,6.125403e-05,0.049067535,0.0009319614,-0.018654842,0.031083327,0.04546594,0.039199103,-0.006154186,-0.022518037,0.0011123337,0.012820539
gab,0.0018983107,0.04102921,0.012958129,-0.0062295473,-0.01843183,-0.038765263,0.030740757,0.029252334,-0.0076483497,-0.0047355876,-0.01619551,-0.034200303,-0.005363388,0.0008377273,-6.464241e-05,-0.0359289,0.015485849,-0.031695947,-0.0009993205,-0.07129944,0.016708404,0.04237846,0.019392261,-0.019822685,-0.008831949,0.0011185071,-0.0498183,-0.028192606,-0.023710119,0.021449331,0.03491817,0.042740766,0.015229779,-0.0077571077,-0.0069926954,0.047297485,0.006737167,-0.018293746,-0.04149903,-0.04420847,-0.0052547515,-0.024013197,-0.02303346,-0.00026535313,0.024431057,-0.022144912,-0.0052970177,-0.008061134,0.014835027,0.022113362,0.001181834,-0.04429986,-0.01531144,-0.004386525,-0.040389143,0.015910612,0.016075782,-0.018690309,-0.027571717,0.0010820974,0.021998312,-0.0049706562,0.00576372,-0.0049066353,-0.020837842,0.014106886,0.010995328,0.012225786,-0.05415227,0.041167665,-0.01672993,0.0095873475,0.025699003,0.001952979,0.003186703,0.0032343797,0.0029849773,-0.024626419,-0.031728465,0.040418636,-0.007722073,-0.037726462,-0.03369263,0.03747039,0.0009709685,0.0051166764,-0.0041978746,0.039876632,0.021864925,0.021560125,0.04488002,0.0063247327,0.0017328166,0.0019010729,0.035577342,0.019967524,0.015614102,-0.02742597,0.016098255,-0.0036142948
kingdom,-0.010030369,0.05722154,0.02335988,-0.0066324747,0.0045424635,-0.084423795,0.04377039,0.06756845,-0.026876539,-0.0315937,-0.016360443,-0.06867126,0.0041881204,0.015289008,-0.011004864,-0.047541536,0.017170902,-0.03721114,0.012131165,-0.109091,0.012086621,0.05936159,0.035449814,-0.0192107,-0.03668983,-0.0068433373,-0.05623595,-0.028318543,-0.030927192,0.015012761,0.058999777,0.053423245,0.013970193,-0.0031492496,-0.036429454,0.046639543,-0.00013743414,-0.035450753,-0.039372504,-0.07950821,0.019276176,-0.021154074,-0.016303202,0.0067024794,0.045395162,-0.017250776,-0.0197456,-0.047835264,0.008590101,0.020114666,0.006196345,-0.04146502,-0.023852412,-0.015576482,-0.053923093,0.009716429,0.03588578,-0.019513251,-0.05428854,-0.012909385,0.026625771,0.002894165,-0.017802522,-0.02651539,-0.04611398,0.015875591,0.023064503,0.009669697,-0.07443546,0.035673484,-0.04352861,0.0055173505,0.045569066,0.014140607,0.020948593,0.017238518,0.019281384,-0.027070357,-0.06358581,0.048827063,-0.020971991,-0.043660298,-0.041672423,0.063426,0.0013392477,0.025554452,-0.004530287,0.050313033,0.027459856,0.0048316745,0.04728715,0.011700378,-0.0008057516,0.027394112,0.08876095,0.039210796,0.011579394,-0.047774408,0.008909642,0.019195328
fji,-0.010883876,0.04906066,0.0045275777,-0.013365281,-0.0044086203,-0.049903437,0.018348593,0.036785733,-0.024290867,-0.02741722,0.008116353,-0.045206603,0.002479565,0.0073236413,-0.0034970734,-0.039903607,0.018380735,-0.023240345,0.01981418,-0.07547953,-0.0043874546,0.028538926,0.023512926,-0.023989143,-0.026111951,-0.014058459,-0.029453512,-0.032533012,-0.032993585,0.011159951,0.0329038,0.017674873,0.01927585,-0.010909533,-0.020695364,0.02459297,-0.015642427,-0.024338504,-0.023603009,-0.047486834,0.013743948,-0.02694395,-0.014410578,-0.009636374,0.022286246,-0.0077200388,-0.01326927,-0.031012518,0.013121584,0.02089253,-0.00015968573,-0.030488497,-0.029584834,0.012244269,-0.025576765,0.015077363,0.021752603,-0.02448114,-0.021225467,-0.011941663,0.024148755,0.0002853061,-0.02031215,-0.012556378,-0.027801406,0.011804376,0.0204694,-0.0023559998,-0.051537063,0.04099848,-0.024187615,-0.009734947,0.03222579,0.014977629,0.005082776,0.0010423672,-0.002736744,-0.016921895,-0.041423354,0.043344285,-0.014085216,-0.024929468,-0.030187985,0.052817646,-0.0071314764,0.0059413495,-0.023842841,0.036852676,0.038465876,0.013217372,0.025758978,-0.0030982501,-0.018945402,0.022580473,0.03559038,0.030706229,0.0064625447,-0.03512692,-0.0069082975,0.014953881
fed,-0.035188433,0.06984502,0.023538277,0.010614256,-0.011382071,-0.11484684,0.047344983,0.083388396,-0.0496891,-0.049752172,-0.00936403,-0.097422935,0.012517478,0.023863662,0.0063456693,-0.05727668,0.04451226,-0.040024772,0.012430864,-0.12779765,0.0073779314,0.0637119,0.026964827,-0.029145408,-0.032591708,-4.1672254e-05,-0.09486057,-0.04659342,-0.06855708,0.032354906,0.061169777,0.0777326,0.005168419,-0.027470583,-0.052434433,0.07993831,-0.022696335,-0.07152596,-0.07182051,-0.11631684,0.0026309476,-0.032671086,-0.011767384,-0.012829273,0.04588714,-0.026686937,-0.022732306,-0.04984472,0.014319974,0.033257328,0.027306968,-0.09017894,-0.039133646,-0.020954806,-0.07936062,0.017737031,0.050658137,-0.022524513,-0.07001317,-0.009118715,0.038420226,-0.013329589,-0.023701511,-0.03323312,-0.067722514,0.050325517,0.008879194,0.020664021,-0.075897,0.071190104,-0.050819345,-0.012273039,0.05278554,0.0071466863,0.036387984,0.01050304,0.011862369,-0.030843388,-0.07013934,0.05626016,-0.038191523,-0.05681297,-0.046670873,0.09223086,-0.008832464,0.043556154,-0.024428472,0.075921476,0.063965,0.007164586,0.08465345,-0.0028126359,-0.012787199,0.044017993,0.09733065,0.06730688,0.019152638,-0.08687374,0.016233696,0.012823035
micronesia,-0.0356708,0.06254941,0.03473328,0.01033623,-0.015590027,-0.084783055,0.031094335,0.061525404,-0.027883861,-0.04297897,-0.0030396925,-0.07709979,0.00823249,0.022714384,-0.0085331425,-0.04567706,0.030088868,-0.04404202,0.012030376,-0.10323765,-0.0039612255,0.042854607,0.02734316,-0.014298746,-0.027342902,0.008487674,-0.07464044,-0.02418815,-0.05318812,0.011036155,0.04197467,0.05520203,0.007577497,-0.0042723278,-0.032728072,0.059461668,-0.0019139069,-0.06237873,-0.049822737,-0.09189575,-0.001047531,-0.023849893,-0.011261661,-0.0096243955,0.03882816,-0.03193565,-0.029037178,-0.031805173,0.026740331,0.029214991,0.011652538,-0.057015672,-0.042671457,-0.012080245,-0.056826785,0.0132126305,0.04194164,-0.028187627,-0.06775773,-0.020058284,0.032457013,-0.0045091594,-0.0073611015,-0.008597496,-0.059434693,0.023987155,0.023606148,0.017885284,-0.05951017,0.07029226,-0.022735948,-0.0047385623,0.0478846,0.016831832,0.0342854,0.027778435,0.0054165563,-0.036259312,-0.047753874,0.05318177,-0.025485352,-0.040333323,-0.03398408,0.06593265,-0.007773852,0.021055266,-0.012004036,0.064315125,0.040615816,0.015747443,0.06745246,0.017549504,-0.0016102614,0.031873316,0.083416805,0.054744624,0.01150178,-0.058884818,0.005143611,0.016687715
euro,-0.03430602,0.06903266,0.02129258,-0.0045232354,-0.004319438,-0.07836299,0.026615888,0.06412156,-0.04022417,-0.034717716,0.0033496944,-0.06746098,0.018594954,0.0038561416,-0.0018853524,-0.045665108,0.039991636,-0.048497215,0.020547893,-0.11865067,-0.005564589,0.05515843,0.024920298,-0.03142093,-0.040455166,0.00418996,-0.071300894,-0.032263733,-0.039005306,0.016523276,0.054521933,0.059706233,-0.00015891003,-0.025896663,-0.028095482,0.07240208,-0.016140755,-0.06172267,-0.051521946,-0.09819403,0.013619186,-0.017512346,-0.027274894,-0.015653538,0.052087985,-0.022228763,-0.02890825,-0.036701284,0.005652621,0.014678739,0.010483746,-0.061208885,-0.033308577,0.007400543,-0.044554655,0.018658178,0.022120398,-0.015302842,-0.0659925,-0.0078068045,0.025186671,-0.006534257,-0.004958685,-0.022031283,-0.053059634,0.02964008,0.028681992,0.017476674,-0.066295676,0.063186385,-0.036508653,0.012279874,0.040160626,0.007474453,0.013053288,0.024817342,0.0072592376,-0.030123465,-0.0433294,0.039422,-0.031670474,-0.047752436,-0.049942695,0.081903,-0.008586679,0.02404776,-0.016422633,0.068858296,0.04661009,0.027306305,0.04429767,0.008634976,0.006072076,0.033359013,0.08255691,0.03489805,0.01262232,-0.052854065,0.025960613,0.012828265
area,-0.014530866,0.061219368,0.019452626,-0.0038842035,-0.0018385731,-0.0879508,0.051547345,0.056921665,-0.04633541,-0.017006492,0.0070801154,-0.07877381,0.005664892,0.009727653,-0.0048006214,-0.036299273,0.039331634,-0.043949757,0.009056691,-0.123621665,-0.00959418,0.06866241,0.01851044,-0.034911517,-0.046720095,0.011582223,-0.060550883,-0.038568504,-0.04331803,0.016909786,0.07477474,0.05172634,0.017530229,-0.02205166,-0.022982856,0.08360412,0.0003475272,-0.05966817,-0.059549704,-0.110955715,0.02366405,-0.04345918,-0.031819638,-0.0022103104,0.04545997,-0.01291695,-0.03630684,-0.026532527,0.017797345,0.008823692,0.022650164,-0.07414785,-0.033061992,0.007849101,-0.07242868,0.031199155,0.046511263,-0.0104639,-0.07562309,-0.027846497,0.012464175,-0.0012470185,-0.017738879,-0.012871917,-0.050982166,0.042965706,0.023526832,0.009805407,-0.07512556,0.07054047,-0.048585568,-0.0064557693,0.052146364,0.018794019,0.019491002,0.0010833836,0.012601432,-0.02043543,-0.051947266,0.062584184,-0.036821485,-0.060484484,-0.051187053,0.07062178,-0.021988908,0.03147471,-0.019657526,0.07551585,0.054880448,0.033186354,0.049442455,0.026553817,-0.011998993,0.03318406,0.08473612,0.038396303,0.007213915,-0.07199386,0.033198077,0.020795565
emu,-0.025982201,0.06151159,0.03391882,-0.008606038,0.0004276571,-0.071458146,0.037982743,0.053809967,-0.04206798,-0.016982349,-0.0024486324,-0.07194398,0.012165704,0.0041337498,0.005951132,-0.047858536,0.030487575,-0.036603242,0.008544345,-0.10759585,0.010912609,0.05340148,0.01601341,-0.026457192,-0.041091606,-0.0034699487,-0.051684648,-0.025627147,-0.04834693,0.016326984,0.05811991,0.040089037,0.004366016,-0.018776989,-0.040833056,0.06145666,0.00020672224,-0.04698426,-0.045783427,-0.0844438,0.009519069,-0.031657513,-0.020148683,-0.0012122061,0.044261277,-0.019555487,-0.014841737,-0.028560948,0.004451656,0.026237736,0.024856184,-0.068190314,-0.024892002,-0.0076916455,-0.049967676,0.02375302,0.0250744,-0.02583825,-0.06425016,-0.026800541,0.01299659,0.005421259,-0.008922527,-0.026883483,-0.03762683,0.03535425,0.02628112,0.020426732,-0.07348389,0.05372001,-0.028995493,0.0058279308,0.051558923,0.0012653739,0.022717496,0.025449095,0.0008342473,-0.017237658,-0.04510138,0.042355496,-0.029429872,-0.057143304,-0.04993018,0.07345378,-0.01424348,0.03921216,-0.02905038,0.048949312,0.049631115,0.027111376,0.052787144,0.019468747,0.0012671279,0.020562017,0.08638346,0.030970726,0.0038556803,-0.05875166,0.02257311,0.006924087
eritrea,-0.010738249,0.034288175,0.014738286,-0.007350647,-0.012075125,-0.05029884,0.022708477,0.03852757,-0.020360094,-0.012990496,-0.011314247,-0.024769405,0.0066540204,-0.0016553247,-0.005503326,-0.014896453,0.018857367,-0.028776249,-0.0032369427,-0.070586324,-0.0020054008,0.04163887,0.009628054,-0.014369638,-0.01824004,0.004423648,-0.048297334,-0.0090624625,-0.03153389,0.017681379,0.01754002,0.03703206,-0.0064470004,-0.011789891,-0.02233684,0.030443706,-0.0056404565,-0.030736893,-0.022727396,-0.052842196,0.0008592691,-0.024873247,0.0010791642,0.0013492737,0.037089914,-0.006577785,-0.019978875,-0.009109849,-0.0017119466,0.015353052,0.0049188095,-0.035763707,-0.01884098,-0.005355452,-0.03801874,0.008824374,0.02272906,-0.0027638816,-0.041783098,-0.002145683,0.009248354,-0.016253544,-0.014291371,-0.0072316686,-0.018356932,0.026137672,0.022142597,0.012944451,-0.043599747,0.031898376,-0.007434341,0.008989771,0.035901763,0.016464548,0.014254151,0.0108573595,-0.0052027684,-0.0073322365,-0.018986123,0.021085069,-0.0140394475,-0.013401316,-0.019137118,0.053912118,0.004602231,0.015488978,-0.0003990974,0.045031637,0.023128344,0.00867137,0.046213977,0.014569127,-0.013123499,0.010889162,0.04264123,0.02959189,0.0057084244,-0.04514081,0.011358617,0.021655917
eri,-0.009653474,0.042607546,0.018155778,0.012301834,0.0072965147,-0.041062236,0.01786861,0.041634694,-0.02584423,-0.004711914,-0.0078167245,-0.023523815,-0.00756782,0.0044277417,0.010034381,-0.03305474,0.01723388,-0.015282242,0.021856679,-0.06409577,-0.0052724993,0.04416859,0.0057883672,-0.015838921,-0.011705853,-0.012269426,-0.045492664,-0.032595687,-0.02748034,0.018420372,0.02039907,0.025896577,0.017034525,-0.01591018,-0.016502993,0.038795367,-0.010190851,-0.03725867,-0.016936189,-0.05461488,0.01860011,-0.01869869,-0.0070128604,0.0030421624,0.025803596,-0.009183226,-0.020696696,-0.009665249,0.0063386825,0.0062279687,0.016240727,-0.020407574,-0.030606043,0.0005487185,-0.024802884,0.0069196736,0.022782598,0.002050637,-0.022395754,-0.018803848,0.007927251,0.007196084,-0.008250884,-0.02465825,-0.0316901,0.0060253497,0.010445635,0.005987745,-0.044812538,0.028342178,-0.0055546397,0.00619432,0.030532068,0.008865529,0.025332497,-0.0013367031,0.015238531,-0.019669637,-0.04355719,0.018770827,-0.018000143,-0.016148103,-0.02202228,0.030585466,-0.0039972267,0.011001728,-0.018885983,0.047976606,0.03317852,0.009025779,0.035326704,0.006661141,-0.018983433,0.02019552,0.058916416,0.031079523,0.007932799,-0.037176035,0.010699891,-0.0028019724
spain,-0.0073651373,0.037125703,0.016216915,-0.00058872835,-0.00058841874,-0.041055717,0.022649974,0.04923189,-0.011033215,-0.01235552,-0.005844882,-0.044739626,-0.007867532,0.0038242391,0.0031490943,-0.01373261,0.020904351,-0.02845563,0.013307008,-0.06582368,0.002888236,0.03960528,0.030379592,-0.014387077,-0.025988659,0.0035757998,-0.019754792,-0.0066540525,-0.028912833,0.021318492,0.043507364,0.015742186,0.017433144,-0.00905717,-0.02613396,0.03921861,0.0070033204,-0.039572865,-0.017322429,-0.057492767,-0.005579385,-0.007134811,-0.015710913,0.002271789,0.033485755,0.0016873875,-0.0066201687,-0.033239596,0.012605316,-0.0011344798,0.0072003864,-0.018461373,-0.02883025,0.0041067917,-0.03698467,-0.0013672387,0.03129979,-0.0063102804,-0.021158496,-0.0043609883,0.014535878,0.0003016243,-0.019865531,-0.0014468104,-0.036990136,0.01976823,0.0011948145,0.0061289687,-0.031935122,0.028740957,-0.030306624,-0.009861796,0.011760027,0.02107067,0.006169188,0.0052315095,-0.0045891325,-0.022344764,-0.03744114,0.03298099,-0.007553283,-0.022746868,-0.009106663,0.042350072,0.008787965,0.027677847,-0.007672456,0.035980057,0.015882162,0.0029871038,0.040180303,-0.0048602787,-0.00054784986,0.0035791472,0.058803193,0.026163653,0.0048520896,-0.038153347,0.016636671,-0.0045979507
esp,-0.024206992,0.044320285,0.011035723,-0.0019194836,0.0031906068,-0.039421298,0.029779037,0.04684598,-0.0073874863,-0.02776403,0.0042121015,-0.024331214,0.00096003676,0.009329758,-0.0070864833,-0.031997047,0.031891797,-0.021609105,0.013390005,-0.06904334,0.012555983,0.024898903,0.013197004,-0.011966956,-0.0026349456,-0.009778959,-0.032022335,-0.021226265,-0.037711322,0.0050580534,0.021414222,0.037836883,0.0021443493,-0.016586633,-0.018508663,0.040379703,0.0085703125,-0.043060157,-0.027475176,-0.05346325,0.0006306789,-0.017663708,0.00074895925,-0.0075437287,0.038003314,-0.013767537,-0.015965026,-0.010928431,0.019171612,0.013223545,0.008157923,-0.02515002,-0.028014863,0.005469797,-0.030030763,0.0020593698,0.030814316,-0.016097512,-0.030752419,-0.019036207,0.016475625,0.0025476464,-4.911619e-05,-0.019678254,-0.038503088,0.026496163,0.01355611,0.005893782,-0.047482822,0.03322856,-0.032796986,0.0017753252,0.02278589,0.008452823,0.01940126,0.009884969,-0.0022644147,-0.015208414,-0.04189035,0.026376804,-0.012479503,-0.017546877,-0.0330749,0.04581266,0.005392042,0.030544769,-0.0016827596,0.025699914,0.031241434,0.021680731,0.0392482,0.010234706,-0.006406202,0.022051534,0.05478438,0.0379893,-0.0031570657,-0.045101665,0.017053433,-0.00139647
estonia,-0.01484894,0.0401381,0.015102064,-0.00615963,-0.0033807296,-0.06019499,0.022500578,0.032007046,-0.023133975,-0.010063027,-0.00029073443,-0.035178825,0.0063351123,-0.003719347,0.01194349,-0.032474913,0.019614378,-0.012238085,0.007977493,-0.061085965,0.005890546,0.03491879,0.028013336,-0.0035049021,-0.019318094,-0.0076320297,-0.032225978,-0.033267215,-0.016184306,0.015409127,0.041394863,0.035627734,0.002594151,-0.006092077,-0.028399624,0.049463365,0.00307278,-0.026031159,-0.038108487,-0.06417553,0.016764373,-0.013804247,-0.017932452,-0.016915526,0.020155933,-0.011283199,-0.02548551,-0.022797182,0.013439364,-0.0019975917,0.007552093,-0.044359747,-0.028903173,-0.004339028,-0.04609508,0.006335488,0.011042082,-0.022501413,-0.03426982,-0.004797205,0.026528196,0.00830018,-0.017005557,-0.023948954,-0.021176593,0.02280832,0.01813441,0.00016086602,-0.048694894,0.029849583,-0.031917814,0.0074959635,0.024250032,0.018342927,0.0039915945,0.020445727,0.0024494447,-0.00549229,-0.040648147,0.021247353,-0.0038976024,-0.04486949,-0.039372947,0.05220893,-0.0199049,0.025561813,-0.008102019,0.02695213,0.032954354,0.011988307,0.045164395,0.01153989,-0.011609853,0.013843098,0.057649605,0.016119817,0.019137947,-0.037965998,0.0022926843,0.0019057437
est,-0.009506806,0.02361016,0.021382423,-0.00666181,0.009929701,-0.052463666,0.010857841,0.041845717,-0.0031938816,-0.01158764,-0.0063892705,-0.03477228,-0.0059778346,0.0034422202,-0.009840618,-0.025530666,0.010684414,-0.03287959,-0.0012991442,-0.057645176,0.0076987394,0.042720135,0.023431648,-0.008885417,-0.013178915,0.0049000024,-0.045729846,-0.017918903,-0.027501453,0.019668773,0.022942243,0.030148303,0.010900429,-0.014992215,-0.0323577,0.043939162,-0.0068671713,-0.028223516,-0.038618896,-0.039417665,0.0075812256,-0.013764007,-0.011704376,-0.004263308,0.033487424,-0.026515936,-0.009822105,-0.029207066,0.022948539,0.018780665,0.00014277318,-0.037013624,-0.031010542,0.010485809,-0.01884102,0.013814495,0.03619199,-0.018405957,-0.030373426,-0.017484028,0.001735378,-0.011687581,-0.009463451,-0.016908579,-0.037867703,0.01747631,0.0094058905,-0.005707039,-0.029973153,0.03707004,-0.03402056,-0.003335841,0.017644016,0.01670992,0.009605201,0.01958404,0.0145211015,-0.022429544,-0.045711774,0.023397911,-0.0041752625,-0.032808326,-0.023980835,0.04205095,-0.016960004,0.02412225,-0.023803493,0.051533855,0.0146476235,0.020016856,0.029375328,0.002876702,-0.008561675,0.01805497,0.05248748,0.027805818,0.0035920448,-0.021614667,-0.0007608365,-0.0027673275
ethiopia,-0.023032848,0.045320548,0.0132831745,-0.0071135745,0.0037789152,-0.0565844,0.025592642,0.050625466,-0.006982278,-0.019544551,0.00063062826,-0.03286442,0.020810245,0.006175947,-0.0019262695,-0.03408005,0.0165106,-0.020089353,0.011717472,-0.07301138,0.00849279,0.02434807,0.012694972,-0.026208267,-0.0072359014,0.004185682,-0.040954906,-0.0076089636,-0.025667956,-0.0034485194,0.020469662,0.02439164,-0.0029575126,0.0016818163,-0.014440101,0.037262503,-0.0069468278,-0.04180177,-0.020855173,-0.05808339,0.0013234233,-0.024419567,-0.014699179,-0.0180675,0.02969445,-0.024577701,-0.0027033277,-0.032214794,0.0005954738,0.012739676,-0.0029279096,-0.028802542,-0.029796373,-0.00019797609,-0.021249516,0.015880188,0.0211302,-0.00029788233,-0.03483173,-0.0008138319,0.021569561,-0.016912624,-0.0050486154,-0.022085944,-0.035931155,0.029026212,0.0064478656,-0.0021336759,-0.03643114,0.045949884,-0.010052996,-0.008874984,0.039450016,0.017000789,0.0038724625,0.0063392166,0.0071052634,-0.032285675,-0.03609175,0.046726916,-0.020156072,-0.03888726,-0.032008447,0.030423215,-0.0017131862,0.025884325,-0.012777168,0.03220089,0.040777605,-0.004599278,0.02605877,-0.007895347,0.010308031,0.015755517,0.041964445,0.015753174,0.016496528,-0.036511887,-7.103624e-05,0.012407663
eth,-0.025593309,0.05355647,0.026688034,-0.006240461,-0.0079519795,-0.047478087,0.009678487,0.046886127,-0.012273888,-0.009031817,-0.014664565,-0.041699786,-0.0014766963,0.01868809,0.01100403,-0.031578474,0.011242539,-0.017032199,0.0067615034,-0.06285955,-0.004546961,0.032921527,0.016299803,-0.0052957805,-0.030299922,-0.009459591,-0.04168742,-0.026147766,-0.022483004,0.010828467,0.02973289,0.019238804,-0.007861691,-0.0070305024,-0.022509767,0.025292099,0.004646203,-0.021580026,-0.02303822,-0.05884962,0.005939342,-0.0052163512,-0.022332277,-0.015477871,0.013406607,-0.009392325,-0.02694269,-0.01969712,0.020724589,0.014104952,-0.003454874,-0.027752653,-0.017486075,-0.014433265,-0.026435612,0.02463434,0.032703925,-0.019975318,-0.028377794,-0.016897704,0.004571607,-0.00038419157,-0.015265585,-0.014137405,-0.04182436,0.0066357614,0.0070596067,0.006835896,-0.04208185,0.04801234,-0.01731323,-0.014945907,0.018485842,0.0049471557,0.009609222,0.0010587864,0.0205125,-0.013306757,-0.046023473,0.042820826,-0.019384034,-0.039430417,-0.02742211,0.05602887,-0.012498908,0.014435705,-0.016476426,0.046561085,0.037318613,0.00044215322,0.02374517,0.005942145,-0.00051203836,0.02229446,0.05731917,0.0267094,0.0042681936,-0.028293619,0.0067020673,0.014999809
european,-0.02004683,0.06904966,0.022392172,0.0003955285,0.0010267764,-0.08086183,0.042320352,0.06445038,-0.015244848,-0.027448013,0.005759497,-0.05728172,0.008282766,0.019564519,0.0019121503,-0.028806146,0.027743885,-0.03188506,0.008387607,-0.10674789,-0.0071446584,0.048680916,0.026979005,-0.020180332,-0.031500332,0.0001177949,-0.04771558,-0.040336963,-0.03356726,0.025117107,0.05867384,0.0473528,0.010431633,-0.0087605985,-0.041795816,0.05059678,-0.007641264,-0.048697654,-0.038553055,-0.08554735,0.01585918,-0.031013686,-0.008214705,-0.01655197,0.03249145,-0.016895225,-0.020600038,-0.03327825,0.009361735,0.023895718,0.0037590705,-0.050397724,-0.03645084,0.011515843,-0.043702602,0.020976733,0.029353708,-0.018419685,-0.059602037,-0.018204391,0.031757057,-0.020913875,-0.008063787,-0.008086311,-0.03502874,0.017950613,0.023177983,-0.007222788,-0.06281229,0.06449362,-0.023879198,-0.0073376684,0.040809892,-0.0026709896,0.020018399,0.020823644,-0.0011345141,-0.024339115,-0.053021573,0.054011885,-0.01689293,-0.041736625,-0.04394029,0.054921184,-0.016354328,0.024491366,-0.03254054,0.06895947,0.044611882,0.012150075,0.06298315,0.005966682,-0.004300691,0.027435008,0.08392079,0.04145027,0.0035986586,-0.057318956,0.004824428,0.017453583
union,-0.01914032,0.08637994,0.04321442,-0.018869884,0.009199292,-0.10734738,0.04745554,0.0772704,-0.02031166,-0.045573734,-0.0018627498,-0.089365564,0.012616915,0.027841156,-0.02081203,-0.03722862,0.024463525,-0.03487558,0.0048870454,-0.14071025,-0.007528754,0.07372403,0.035970125,-0.0304107,-0.053391196,0.0095105935,-0.067451015,-0.048946206,-0.061813544,0.03619313,0.06888911,0.046395283,0.017376326,-0.023273466,-0.04029812,0.08384308,-0.013601306,-0.063060395,-0.048882775,-0.11430461,0.017032173,-0.028785486,-0.034359585,-0.018935882,0.062162954,-0.02552241,-0.01378783,-0.047487147,0.030492434,0.011423042,0.024274271,-0.08443533,-0.040560924,0.010666665,-0.06659152,0.034679662,0.03101554,-0.024558011,-0.063901916,-0.02869066,0.042336587,-0.023570454,-0.016853195,-0.005447998,-0.048471607,0.03362762,0.03520536,-0.007786756,-0.085395426,0.07653572,-0.040451452,0.0060497276,0.06869513,0.00521481,0.02155557,0.032475315,0.0038899225,-0.050776582,-0.066928886,0.052585803,-0.03187878,-0.054955367,-0.06606991,0.086373515,-0.017883807,0.030168282,-0.02332197,0.082132585,0.05011741,0.028510362,0.06899822,0.0226307,-0.0011999048,0.03895362,0.11430413,0.04543216,0.010295043,-0.07322837,0.020863995,0.004748172
euu,-0.025909562,0.07853014,0.025391689,-0.0013059488,-0.0034188651,-0.08164911,0.03790296,0.057777107,-0.014177022,-0.021804374,-0.01593998,-0.07778759,0.013256345,0.018231185,-0.009009538,-0.0344686,0.019956153,-0.04052213,0.022437047,-0.11651989,-0.0049476237,0.067006186,0.039442696,-0.030733718,-0.043812662,-0.0031295915,-0.051885843,-0.04038072,-0.04249525,0.018303629,0.062551424,0.051104218,0.019081118,-0.0012595996,-0.04764295,0.070190355,-0.018838234,-0.06613196,-0.043691985,-0.08928288,0.01705773,-0.03979879,-0.0083940085,-0.023485314,0.03593021,-0.021025946,-0.025568765,-0.03383953,0.009146117,0.010596213,0.022395851,-0.065893196,-0.031225646,-0.003468642,-0.056953073,0.025841475,0.04499043,-0.021221634,-0.072277226,-0.020106675,0.037309535,-0.004542092,-0.020388449,-0.012060795,-0.039144754,0.018327016,0.020147966,0.006033127,-0.079198055,0.058454484,-0.026235642,-0.006501539,0.043935705,0.009711471,0.033019055,0.026693527,0.0034186179,-0.038033836,-0.045828052,0.05567415,-0.0325695,-0.059655465,-0.054682944,0.08039884,-0.009089461,0.021368604,-0.01510597,0.06419859,0.047629107,0.010252176,0.06513162,0.010645423,-0.002597653,0.025862336,0.08294388,0.04352423,0.0031302508,-0.061542436,0.02403408,0.016581671
fragil,-0.020751249,0.074057594,0.035608605,-0.0024665263,0.0077443565,-0.0827882,0.035766013,0.080168985,-0.03668704,-0.028575825,-0.019875914,-0.08759577,0.009636384,0.026122002,-0.0029982447,-0.055643708,0.030989451,-0.032051288,0.024517197,-0.11423338,0.010574318,0.04822929,0.043094903,-0.029203188,-0.030800723,0.0017442086,-0.057735033,-0.040728584,-0.060946226,0.020096468,0.060555987,0.060874682,0.0054094023,-0.007963626,-0.03392546,0.059650987,0.0056882356,-0.063937835,-0.057317097,-0.09111886,-0.0009915057,-0.021370947,-0.027824068,-0.021652559,0.039541446,-0.025879959,-0.020146081,-0.028697984,0.027850524,0.02910961,0.0185379,-0.075591825,-0.028760906,-0.009073825,-0.05660131,0.020913536,0.03588799,-0.025301622,-0.05690539,-0.021325681,0.027569558,-0.009816636,-0.013632919,-0.02986297,-0.07719958,0.019835697,0.011543794,0.013170808,-0.0842447,0.07965714,-0.032535333,-0.0030729705,0.047765512,0.0024704416,0.013136652,0.018183753,0.015379527,-0.02113337,-0.057722107,0.057646357,-0.017761955,-0.06172526,-0.058310457,0.08024356,-0.015121351,0.0291345,-0.019078327,0.061011937,0.051124085,0.021423222,0.06627927,0.012178199,-0.012259158,0.041614823,0.09791384,0.045919593,0.005800908,-0.06771284,0.015235194,0.009212859
